Language model created by QuickLM on Sat May  2 01:18:38 EDT 2015
Copyright (c) 1996-2010 Carnegie Mellon University and Alexander I. Rudnicky

The model is in standard ARPA format, designed by Doug Paul while he was at MITRE.

The code that was used to produce this language model is available in Open Source.
Please visit http://www.speech.cs.cmu.edu/tools/ for more information

The (fixed) discount mass is 0.5. The backoffs are computed using the ratio method.
This model based on a corpus of 246 sentences and 212 words

\data\
ngram 1=212
ngram 2=435
ngram 3=319

\1-grams:
-0.8767 </s> -0.3010
-0.8767 <s> -0.2022
-3.2676 A -0.2391
-3.2676 ABOUT -0.2391
-3.2676 ALEXIS -0.2391
-3.2676 AMANDA -0.2391
-3.2676 AN -0.2391
-3.2676 AND -0.2391
-3.2676 ANDREW -0.2391
-3.2676 APARTMENT -0.2391
-3.2676 APPLE -0.3001
-2.6656 APPLIANCE -0.2391
-3.2676 ARMCHAIR -0.2391
-3.2676 ASHLEY -0.2391
-3.2676 ASK -0.3003
-3.2676 AT -0.2391
-3.2676 BACK -0.3003
-3.2676 BAR -0.2391
-3.2676 BEAR -0.2391
-3.2676 BED -0.2391
-2.6656 BEDROOM -0.2391
-3.2676 BEDSIDE -0.2982
-2.7905 BEER -0.2381
-3.2676 BENCH -0.2391
-3.2676 BIN -0.2391
-3.2676 BISCUIT -0.2391
-3.2676 BISCUITS -0.2391
-3.2676 BLUE -0.2991
-2.9666 BOARD -0.2391
-3.2676 BOOK -0.2391
-3.2676 BOOKSHELF -0.2391
-2.9666 BOTTLE -0.2391
-3.2676 BREAKFAST -0.2391
-2.2676 BRING -0.2345
-3.2676 BROWN -0.2994
-3.2676 BUTTER -0.2391
-3.2676 CABINET -0.2391
-2.9666 CAN -0.2391
-3.2676 CARRY -0.2391
-3.2676 CHEESE -0.2391
-3.2676 CHICKEN -0.3006
-2.7905 CHIPS -0.2391
-2.9666 CHOCOLATE -0.2386
-3.2676 CHRISTOPHER -0.2391
-3.2676 CLAY -0.2391
-2.6656 CLEANING -0.3001
-2.9666 CLOSET -0.2391
-3.2676 COFFEE -0.2391
-3.2676 COKE -0.2391
-3.2676 COOKIES -0.2391
-3.2676 CORNFLAKES -0.2391
-3.2676 COUCH -0.2982
-2.9666 COUNTER -0.2391
-3.2676 CRACKERS -0.2391
-2.3646 CUP -0.2391
-3.2676 CUPBOARD -0.2391
-3.2676 DANIEL -0.2391
-3.2676 DAVID -0.2391
-3.2676 DESK -0.2391
-3.2676 DETECT -0.2391
-2.9666 DINING -0.2966
-2.7905 DOOR -0.2391
-3.2676 DRAWER -0.2391
-3.2676 DRESSER -0.2391
-2.4895 DRINK -0.2391
-3.2676 DROPS -0.2391
-3.2676 DUST -0.3008
-3.2676 ELIZABETH -0.2391
-3.2676 EMILY -0.2391
-3.2676 EMMA -0.2391
-3.2676 ENERGY -0.2996
-3.2676 ETHAN -0.2391
-3.2676 EXIT -0.2391
-3.2676 FANTA -0.2391
-2.9666 FIND -0.2391
-3.2676 FIRE -0.3006
-3.2676 FOLLOW -0.3003
-2.5687 FOOD -0.2391
-3.2676 FRIDGE -0.2391
-2.9666 FROM -0.2391
-3.2676 FRONT -0.3003
-3.2676 GARLIC -0.3006
-2.2676 GET -0.2342
-3.2676 GIVE -0.2391
-3.2676 GLASS -0.2391
-2.2676 GO -0.2315
-3.2676 GRAPEFRUIT -0.3001
-3.2676 GRASP -0.2391
-2.7905 GREEN -0.2982
-2.5687 HALLWAY -0.2359
-3.2676 HANGER -0.2391
-3.2676 HANNAH -0.2391
-2.2676 HEAD -0.2315
-3.2676 HEATHER -0.2391
-3.2676 HER -0.2391
-3.2676 HIM -0.2391
-3.2676 IDENTIFY -0.2391
-3.2676 INTRODUCE -0.2391
-3.2676 ISABELLA -0.2391
-3.2676 IT -0.2391
-3.2676 JACOB -0.2391
-3.2676 JAMES -0.2391
-3.2676 JENNIFER -0.2391
-3.2676 JESSICA -0.2391
-3.2676 JOHN -0.2391
-3.2676 JOSEPH -0.2391
-3.2676 JOSHUA -0.2391
-2.6656 JUICE -0.2391
-2.4225 KITCHEN -0.2348
-3.2676 KITCHENARY -0.2391
-3.2676 LEAVE -0.2391
-3.2676 LEMON -0.3006
-3.2676 LEMONADE -0.2391
-3.2676 LIBRARY -0.2982
-3.2676 LIGHT -0.2391
-2.5687 LIVING -0.2973
-3.2676 MACHINE -0.2391
-3.2676 MADISON -0.2391
-3.2676 MAKE -0.2391
-3.2676 MARMALADE -0.2391
-3.2676 MATTHEW -0.2391
-2.0372 ME -0.2304
-3.2676 MELISSA -0.2391
-3.2676 MEMORIZE -0.3003
-3.2676 METAL -0.2991
-3.2676 MICHAEL -0.2391
-2.9666 MILK -0.2391
-3.2676 MILO -0.2391
-3.2676 MIXER -0.3006
-2.2676 MOVE -0.2315
-3.2676 NAME -0.2391
-3.2676 NAVIGATE -0.2391
-3.2676 NICOLE -0.2391
-3.2676 NO -0.2391
-2.9666 NOODLES -0.2391
-3.2676 NOTIFY -0.2391
-3.2676 OLIVIA -0.2391
-2.9666 ORANGE -0.3001
-3.2676 ORIGINAL -0.3006
-3.2676 OUT -0.2391
-3.2676 PANTRY -0.2391
-3.2676 PAPER -0.2991
-3.2676 PEANUT -0.3008
-3.2676 PEN -0.3006
-2.7905 PERSON -0.2389
-3.2676 PINK -0.2991
-3.2676 PLANT -0.2391
-3.2676 POINT -0.2391
-3.2676 POT -0.2391
-3.2676 POTATO -0.2996
-2.9666 PRINGLES -0.2391
-3.2676 RABBIT -0.2391
-3.2676 RECEPTION -0.2982
-2.9666 RECOGNIZE -0.3006
-2.9666 RED -0.2984
-3.2676 REMIND -0.2391
-3.2676 RETRIEVE -0.2391
-3.2676 ROBERT -0.2391
-2.9666 ROBOT -0.3006
-2.6656 ROOM -0.2391
-3.2676 SAMANTHA -0.2391
-3.2676 SARAH -0.2391
-2.9666 SAUCE -0.2391
-3.2676 SEAFOOD -0.2391
-3.2676 SEAT -0.2391
-2.7905 SEATING -0.2391
-3.2676 SEVEN -0.3008
-3.2676 SHAMPOO -0.3006
-2.4225 SHELF -0.2391
-3.2676 SHOEBOX -0.2391
-3.2676 SHOWCASE -0.2391
-3.2676 SIDEBOARD -0.2391
-3.2676 SIDETABLE -0.2391
-3.2676 SINK -0.2391
-2.4895 SNACK -0.2391
-3.2676 SODA -0.2391
-3.2676 SOFA -0.2391
-2.3134 SOME -0.2334
-3.2676 SOMETHING -0.3008
-3.2676 SPOONS -0.2391
-3.2676 SPRAY -0.3006
-2.9666 STAND -0.2391
-3.2676 STEPHANIE -0.2391
-3.2676 STOP -0.2391
-3.2676 STOVE -0.2391
-2.6656 STUFF -0.2391
-2.1885 TABLE -0.2391
-3.2676 TAKE -0.2391
-3.2676 TEA -0.2391
-2.9666 TELL -0.2389
-1.9059 THE -0.2254
-3.2676 THEN -0.2391
-1.8205 TO -0.2262
-3.2676 TOILET -0.2391
-3.2676 TOMATO -0.3006
-3.2676 TOOL -0.2391
-3.2676 TOY -0.2391
-2.9666 TRUCK -0.2391
-2.7905 TV -0.2381
-3.2676 UMBRELLA -0.3006
-3.2676 UP -0.2391
-2.7905 UTENSIL -0.2391
-3.2676 VEGGIE -0.3006
-3.2676 WASHING -0.3008
-3.2676 WATER -0.2391
-3.2676 WATERING -0.3008
-3.2676 WHITE -0.2994
-3.2676 WILLIAM -0.2391
-3.2676 YELLOW -0.2991
-3.2676 YES -0.2391
-3.2676 YOGHURT -0.2391
-3.2676 YOURSELF -0.2391

\2-grams:
-2.6920 <s> A 0.0000
-2.6920 <s> ALEXIS 0.0000
-2.6920 <s> AMANDA 0.0000
-2.6920 <s> AN 0.0000
-2.6920 <s> AND 0.0000
-2.6920 <s> ANDREW 0.0000
-2.6920 <s> APARTMENT 0.0000
-2.6920 <s> APPLE 0.0000
-2.6920 <s> APPLIANCE 0.0000
-2.6920 <s> ARMCHAIR 0.0000
-2.6920 <s> ASHLEY 0.0000
-2.6920 <s> ASK 0.0000
-2.6920 <s> AT 0.0000
-2.6920 <s> BACK 0.0000
-2.6920 <s> BAR 0.0000
-2.6920 <s> BEAR 0.0000
-2.6920 <s> BED 0.0000
-2.6920 <s> BEDROOM 0.0000
-2.6920 <s> BEDSIDE 0.0000
-2.2148 <s> BEER 0.0000
-2.6920 <s> BENCH 0.0000
-2.6920 <s> BISCUIT 0.0000
-2.6920 <s> BISCUITS 0.0000
-2.6920 <s> BLUE 0.0000
-2.6920 <s> BOOK 0.0000
-2.6920 <s> BOOKSHELF 0.0000
-2.6920 <s> BREAKFAST 0.0000
-1.6920 <s> BRING 0.0000
-2.6920 <s> BROWN 0.0000
-2.6920 <s> CABINET 0.0000
-2.6920 <s> CARRY 0.0000
-2.6920 <s> CHEESE 0.0000
-2.6920 <s> CHICKEN 0.0000
-2.6920 <s> CHIPS 0.0000
-2.3909 <s> CHOCOLATE 0.0000
-2.6920 <s> CHRISTOPHER 0.0000
-2.6920 <s> CLAY 0.0000
-2.3909 <s> CLOSET 0.0000
-2.6920 <s> COFFEE 0.0000
-2.6920 <s> COKE 0.0000
-2.6920 <s> COOKIES 0.0000
-2.6920 <s> CORNFLAKES 0.0000
-2.6920 <s> COUCH 0.0000
-2.6920 <s> CRACKERS 0.0000
-2.6920 <s> CUP 0.0000
-2.6920 <s> CUPBOARD 0.0000
-2.6920 <s> DANIEL 0.0000
-2.6920 <s> DAVID 0.0000
-2.6920 <s> DESK 0.0000
-2.6920 <s> DETECT 0.0000
-2.3909 <s> DINING 0.0000
-2.6920 <s> DOOR 0.0000
-2.6920 <s> DRAWER 0.0000
-2.6920 <s> DRESSER 0.0000
-2.6920 <s> DRINK 0.0000
-2.6920 <s> DROPS 0.0000
-2.6920 <s> DUST 0.0000
-2.6920 <s> ELIZABETH 0.0000
-2.6920 <s> EMILY 0.0000
-2.6920 <s> EMMA 0.0000
-2.6920 <s> ENERGY 0.0000
-2.6920 <s> ETHAN 0.0000
-2.6920 <s> EXIT 0.0000
-2.6920 <s> FANTA 0.0000
-2.3909 <s> FIND 0.0000
-2.6920 <s> FIRE 0.0000
-2.6920 <s> FOLLOW 0.0000
-2.6920 <s> FOOD 0.0000
-2.6920 <s> FRIDGE 0.0000
-2.3909 <s> FROM 0.0000
-2.6920 <s> FRONT 0.0000
-2.6920 <s> GARLIC 0.0000
-1.6920 <s> GET 0.0000
-2.6920 <s> GIVE 0.0000
-2.6920 <s> GLASS 0.0000
-1.6920 <s> GO 0.0000
-2.6920 <s> GRAPEFRUIT 0.0000
-2.6920 <s> GRASP 0.0000
-2.2148 <s> GREEN 0.0000
-2.3909 <s> HALLWAY 0.0000
-2.6920 <s> HANGER 0.0000
-2.6920 <s> HANNAH 0.0000
-1.6920 <s> HEAD 0.0000
-2.6920 <s> HEATHER 0.0000
-2.6920 <s> IDENTIFY 0.0000
-2.6920 <s> INTRODUCE 0.0000
-2.6920 <s> ISABELLA 0.0000
-2.6920 <s> IT 0.0000
-2.6920 <s> JACOB 0.0000
-2.6920 <s> JAMES 0.0000
-2.6920 <s> JENNIFER 0.0000
-2.6920 <s> JESSICA 0.0000
-2.6920 <s> JOHN 0.0000
-2.6920 <s> JOSEPH 0.0000
-2.6920 <s> JOSHUA 0.0000
-2.0899 <s> KITCHEN -0.0000
-2.6920 <s> KITCHENARY 0.0000
-2.6920 <s> LEAVE 0.0000
-2.6920 <s> LEMON 0.0000
-2.6920 <s> LEMONADE 0.0000
-2.6920 <s> LIBRARY 0.0000
-2.6920 <s> LIGHT 0.0000
-2.3909 <s> LIVING 0.0000
-2.6920 <s> MADISON 0.0000
-2.6920 <s> MAKE 0.0000
-2.6920 <s> MARMALADE 0.0000
-2.6920 <s> MATTHEW 0.0000
-2.6920 <s> ME -0.2881
-2.6920 <s> MELISSA 0.0000
-2.6920 <s> MEMORIZE 0.0000
-2.6920 <s> METAL 0.0000
-2.6920 <s> MICHAEL 0.0000
-2.6920 <s> MILK 0.0000
-2.6920 <s> MILO 0.0000
-2.6920 <s> MIXER 0.0000
-1.6920 <s> MOVE 0.0000
-2.6920 <s> NAVIGATE 0.0000
-2.6920 <s> NICOLE 0.0000
-2.6920 <s> NOTIFY 0.0000
-2.6920 <s> OLIVIA 0.0000
-2.3909 <s> ORANGE 0.0000
-2.6920 <s> ORIGINAL 0.0000
-2.6920 <s> PANTRY 0.0000
-2.6920 <s> PAPER 0.0000
-2.6920 <s> PEANUT 0.0000
-2.6920 <s> PEN 0.0000
-2.6920 <s> PINK 0.0000
-2.6920 <s> PLANT 0.0000
-2.6920 <s> POINT 0.0000
-2.6920 <s> POTATO 0.0000
-2.6920 <s> RABBIT 0.0000
-2.6920 <s> RECEPTION 0.0000
-2.3909 <s> RECOGNIZE 0.0000
-2.3909 <s> RED 0.0000
-2.6920 <s> REMIND 0.0000
-2.6920 <s> RETRIEVE 0.0000
-2.6920 <s> ROBERT 0.0000
-2.3909 <s> ROBOT 0.0000
-2.6920 <s> SAMANTHA 0.0000
-2.6920 <s> SARAH 0.0000
-2.6920 <s> SEAFOOD 0.0000
-2.6920 <s> SEAT 0.0000
-2.6920 <s> SEVEN 0.0000
-2.6920 <s> SHAMPOO 0.0000
-2.6920 <s> SHELF 0.0000
-2.6920 <s> SHOEBOX 0.0000
-2.6920 <s> SHOWCASE 0.0000
-2.6920 <s> SIDEBOARD 0.0000
-2.6920 <s> SIDETABLE 0.0000
-2.6920 <s> SINK 0.0000
-2.6920 <s> SNACK 0.0000
-2.6920 <s> SODA 0.0000
-2.6920 <s> SOFA 0.0000
-2.6920 <s> SOME -0.2762
-2.6920 <s> SPOONS 0.0000
-2.6920 <s> SPRAY 0.0000
-2.6920 <s> STEPHANIE 0.0000
-2.6920 <s> STOP 0.0000
-2.6920 <s> STOVE 0.0000
-2.6920 <s> TABLE 0.0000
-2.6920 <s> TAKE 0.0000
-2.3909 <s> TELL 0.0000
-2.6920 <s> THE -0.2915
-2.6920 <s> THEN 0.0000
-2.6920 <s> TO -0.2932
-2.6920 <s> TOILET 0.0000
-2.6920 <s> TOMATO 0.0000
-2.6920 <s> TOOL 0.0000
-2.6920 <s> TOY 0.0000
-2.2148 <s> TV 0.0000
-2.6920 <s> UMBRELLA 0.0000
-2.6920 <s> VEGGIE 0.0000
-2.6920 <s> WASHING 0.0000
-2.6920 <s> WATER 0.0000
-2.6920 <s> WATERING 0.0000
-2.6920 <s> WHITE 0.0000
-2.6920 <s> WILLIAM 0.0000
-2.6920 <s> YELLOW 0.0000
-2.6920 <s> YOGHURT 0.0000
-2.6920 <s> YOURSELF 0.0000
-0.3010 A </s> -0.3010
-0.3010 ABOUT </s> -0.3010
-0.3010 ALEXIS </s> -0.3010
-0.3010 AMANDA </s> -0.3010
-0.3010 AN </s> -0.3010
-0.3010 AND </s> -0.3010
-0.3010 ANDREW </s> -0.3010
-0.3010 APARTMENT </s> -0.3010
-0.3010 APPLE JUICE 0.0000
-0.3010 APPLIANCE </s> -0.3010
-0.3010 ARMCHAIR </s> -0.3010
-0.3010 ASHLEY </s> -0.3010
-0.3010 ASK PERSON -0.2218
-0.3010 AT </s> -0.3010
-0.3010 BACK DOOR 0.0000
-0.3010 BAR </s> -0.3010
-0.3010 BEAR </s> -0.3010
-0.3010 BED </s> -0.3010
-0.3010 BEDROOM </s> -0.3010
-0.3010 BEDSIDE TABLE 0.0000
-0.7782 BEER </s> -0.3010
-0.7782 BEER BOTTLE 0.0000
-0.7782 BEER CAN 0.0000
-0.3010 BENCH </s> -0.3010
-0.3010 BIN </s> -0.3010
-0.3010 BISCUIT </s> -0.3010
-0.3010 BISCUITS </s> -0.3010
-0.3010 BLUE CUP 0.0000
-0.3010 BOARD </s> -0.3010
-0.3010 BOOK </s> -0.3010
-0.3010 BOOKSHELF </s> -0.3010
-0.3010 BOTTLE </s> -0.3010
-0.3010 BREAKFAST </s> -0.3010
-1.0000 BRING </s> -0.3010
-0.3979 BRING ME -0.0248
-0.3010 BROWN SHELF 0.0000
-0.3010 BUTTER </s> -0.3010
-0.3010 CABINET </s> -0.3010
-0.3010 CAN </s> -0.3010
-0.3010 CARRY </s> -0.3010
-0.3010 CHEESE </s> -0.3010
-0.3010 CHICKEN NOODLES 0.0000
-0.3010 CHIPS </s> -0.3010
-0.6021 CHOCOLATE </s> -0.3010
-0.6021 CHOCOLATE MILK 0.0000
-0.3010 CHRISTOPHER </s> -0.3010
-0.3010 CLAY </s> -0.3010
-0.3010 CLEANING STUFF 0.0000
-0.3010 CLOSET </s> -0.3010
-0.3010 COFFEE </s> -0.3010
-0.3010 COKE </s> -0.3010
-0.3010 COOKIES </s> -0.3010
-0.3010 CORNFLAKES </s> -0.3010
-0.3010 COUCH TABLE 0.0000
-0.3010 COUNTER </s> -0.3010
-0.3010 CRACKERS </s> -0.3010
-0.3010 CUP </s> -0.3010
-0.3010 CUPBOARD </s> -0.3010
-0.3010 DANIEL </s> -0.3010
-0.3010 DAVID </s> -0.3010
-0.3010 DESK </s> -0.3010
-0.3010 DETECT </s> -0.3010
-0.6021 DINING SHELF 0.0000
-0.6021 DINING TABLE 0.0000
-0.3010 DOOR </s> -0.3010
-0.3010 DRAWER </s> -0.3010
-0.3010 DRESSER </s> -0.3010
-0.3010 DRINK </s> -0.3010
-0.3010 DROPS </s> -0.3010
-0.3010 DUST BIN 0.0000
-0.3010 ELIZABETH </s> -0.3010
-0.3010 EMILY </s> -0.3010
-0.3010 EMMA </s> -0.3010
-0.3010 ENERGY DRINK 0.0000
-0.3010 ETHAN </s> -0.3010
-0.3010 EXIT </s> -0.3010
-0.3010 FANTA </s> -0.3010
-0.3010 FIND </s> -0.3010
-0.3010 FIRE TRUCK 0.0000
-0.3010 FOLLOW PERSON -0.1249
-0.3010 FOOD </s> -0.3010
-0.3010 FRIDGE </s> -0.3010
-0.3010 FROM </s> -0.3010
-0.3010 FRONT DOOR 0.0000
-0.3010 GARLIC SAUCE 0.0000
-1.3010 GET </s> -0.3010
-0.3979 GET ME -0.0248
-1.3010 GET OUT 0.0000
-0.3010 GIVE </s> -0.3010
-0.3010 GLASS </s> -0.3010
-1.3010 GO </s> -0.3010
-0.3468 GO TO -0.0300
-0.3010 GRAPEFRUIT JUICE 0.0000
-0.3010 GRASP </s> -0.3010
-0.7782 GREEN CHIPS 0.0000
-0.7782 GREEN CUP 0.0000
-0.7782 GREEN TEA 0.0000
-0.3979 HALLWAY </s> -0.3010
-1.0000 HALLWAY TABLE 0.0000
-0.3010 HANGER </s> -0.3010
-0.3010 HANNAH </s> -0.3010
-1.3010 HEAD </s> -0.3010
-0.3468 HEAD TO -0.0152
-0.3010 HEATHER </s> -0.3010
-0.3010 HER </s> -0.3010
-0.3010 HIM </s> -0.3010
-0.3010 IDENTIFY </s> -0.3010
-0.3010 INTRODUCE </s> -0.3010
-0.3010 ISABELLA </s> -0.3010
-0.3010 IT </s> -0.3010
-0.3010 JACOB </s> -0.3010
-0.3010 JAMES </s> -0.3010
-0.3010 JENNIFER </s> -0.3010
-0.3010 JESSICA </s> -0.3010
-0.3010 JOHN </s> -0.3010
-0.3010 JOSEPH </s> -0.3010
-0.3010 JOSHUA </s> -0.3010
-0.3010 JUICE </s> -0.3010
-0.5441 KITCHEN </s> -0.3010
-1.1461 KITCHEN BOARD 0.0000
-1.1461 KITCHEN COUNTER 0.0000
-1.1461 KITCHEN TABLE 0.0000
-0.3010 KITCHENARY </s> -0.3010
-0.3010 LEAVE </s> -0.3010
-0.3010 LEMON PRINGLES 0.0000
-0.3010 LEMONADE </s> -0.3010
-0.3010 LIBRARY TABLE 0.0000
-0.3010 LIGHT </s> -0.3010
-0.3979 LIVING ROOM 0.0000
-1.0000 LIVING TABLE 0.0000
-0.3010 MACHINE </s> -0.3010
-0.3010 MADISON </s> -0.3010
-0.3010 MAKE </s> -0.3010
-0.3010 MARMALADE </s> -0.3010
-0.3010 MATTHEW </s> -0.3010
-1.5315 ME </s> -0.3010
-0.6284 ME SOME -0.0458
-0.6284 ME THE -0.2181
-0.3010 MELISSA </s> -0.3010
-0.3010 MEMORIZE PERSON -0.1249
-0.3010 METAL CUP 0.0000
-0.3010 MICHAEL </s> -0.3010
-0.3010 MILK </s> -0.3010
-0.3010 MILO </s> -0.3010
-0.3010 MIXER TRUCK 0.0000
-1.3010 MOVE </s> -0.3010
-0.3468 MOVE TO -0.0300
-0.3010 NAME </s> -0.3010
-0.3010 NAVIGATE </s> -0.3010
-0.3010 NICOLE </s> -0.3010
-0.3010 NO </s> -0.3010
-0.3010 NOODLES </s> -0.3010
-0.3010 NOTIFY </s> -0.3010
-0.3010 OLIVIA </s> -0.3010
-0.3010 ORANGE JUICE 0.0000
-0.3010 ORIGINAL PRINGLES 0.0000
-0.3010 OUT </s> -0.3010
-0.3010 PANTRY </s> -0.3010
-0.3010 PAPER CUP 0.0000
-0.3010 PEANUT BUTTER 0.0000
-0.3010 PEN STAND 0.0000
-0.4771 PERSON </s> -0.3010
-0.7782 PERSON NAME 0.0000
-0.3010 PINK CUP 0.0000
-0.3010 PLANT </s> -0.3010
-0.3010 POINT </s> -0.3010
-0.3010 POT </s> -0.3010
-0.3010 POTATO SNACK 0.0000
-0.3010 PRINGLES </s> -0.3010
-0.3010 RABBIT </s> -0.3010
-0.3010 RECEPTION TABLE 0.0000
-0.6021 RECOGNIZE HER 0.0000
-0.6021 RECOGNIZE HIM 0.0000
-0.6021 RED CHIPS 0.0000
-0.6021 RED CUP 0.0000
-0.3010 REMIND </s> -0.3010
-0.3010 RETRIEVE </s> -0.3010
-0.3010 ROBERT </s> -0.3010
-0.6021 ROBOT NO 0.0000
-0.6021 ROBOT YES 0.0000
-0.3010 ROOM </s> -0.3010
-0.3010 SAMANTHA </s> -0.3010
-0.3010 SARAH </s> -0.3010
-0.3010 SAUCE </s> -0.3010
-0.3010 SEAFOOD </s> -0.3010
-0.3010 SEAT </s> -0.3010
-0.3010 SEATING </s> -0.3010
-0.3010 SEVEN UP 0.0000
-0.3010 SHAMPOO BOTTLE 0.0000
-0.3010 SHELF </s> -0.3010
-0.3010 SHOEBOX </s> -0.3010
-0.3010 SHOWCASE </s> -0.3010
-0.3010 SIDEBOARD </s> -0.3010
-0.3010 SIDETABLE </s> -0.3010
-0.3010 SINK </s> -0.3010
-0.3010 SNACK </s> -0.3010
-0.3010 SODA </s> -0.3010
-0.3010 SOFA </s> -0.3010
-1.2553 SOME </s> -0.3010
-0.9542 SOME CLEANING 0.0000
-0.9542 SOME DRINK 0.0000
-0.9542 SOME FOOD 0.0000
-0.9542 SOME SNACK 0.0000
-0.3010 SOMETHING ABOUT 0.0000
-0.3010 SPOONS </s> -0.3010
-0.3010 SPRAY CAN 0.0000
-0.3010 STAND </s> -0.3010
-0.3010 STEPHANIE </s> -0.3010
-0.3010 STOP </s> -0.3010
-0.3010 STOVE </s> -0.3010
-0.3010 STUFF </s> -0.3010
-0.3010 TABLE </s> -0.3010
-0.3010 TAKE </s> -0.3010
-0.3010 TEA </s> -0.3010
-0.6021 TELL </s> -0.3010
-0.6021 TELL SOMETHING 0.0000
-1.6628 THE </s> -0.3010
-1.1856 THE APPLIANCE 0.0000
-1.3617 THE CLEANING 0.0000
-1.3617 THE DRINK 0.0000
-1.3617 THE FOOD 0.0000
-1.3617 THE SEATING 0.0000
-1.1856 THE SHELF 0.0000
-1.3617 THE SNACK 0.0000
-1.1856 THE TABLE 0.0000
-1.1856 THE UTENSIL 0.0000
-0.3010 THEN </s> -0.3010
-1.7482 TO </s> -0.3010
-1.2711 TO BEDROOM 0.0000
-1.2711 TO HALLWAY -0.0792
-1.2711 TO KITCHEN -0.1549
-1.2711 TO LIVING -0.0792
-1.7482 TO SEATING 0.0000
-0.6021 TO THE -0.1434
-0.3010 TOILET </s> -0.3010
-0.3010 TOMATO SAUCE 0.0000
-0.3010 TOOL </s> -0.3010
-0.3010 TOY </s> -0.3010
-0.3010 TRUCK </s> -0.3010
-0.7782 TV </s> -0.3010
-0.7782 TV BOARD 0.0000
-0.7782 TV COUNTER 0.0000
-0.3010 UMBRELLA STAND 0.0000
-0.3010 UP </s> -0.3010
-0.3010 UTENSIL </s> -0.3010
-0.3010 VEGGIE NOODLES 0.0000
-0.3010 WASHING MACHINE 0.0000
-0.3010 WATER </s> -0.3010
-0.3010 WATERING POT 0.0000
-0.3010 WHITE SHELF 0.0000
-0.3010 WILLIAM </s> -0.3010
-0.3010 YELLOW CUP 0.0000
-0.3010 YES </s> -0.3010
-0.3010 YOGHURT </s> -0.3010
-0.3010 YOURSELF </s> -0.3010

\3-grams:
-0.3010 <s> A </s>
-0.3010 <s> ALEXIS </s>
-0.3010 <s> AMANDA </s>
-0.3010 <s> AN </s>
-0.3010 <s> AND </s>
-0.3010 <s> ANDREW </s>
-0.3010 <s> APARTMENT </s>
-0.3010 <s> APPLE JUICE
-0.3010 <s> APPLIANCE </s>
-0.3010 <s> ARMCHAIR </s>
-0.3010 <s> ASHLEY </s>
-0.3010 <s> ASK PERSON
-0.3010 <s> AT </s>
-0.3010 <s> BACK DOOR
-0.3010 <s> BAR </s>
-0.3010 <s> BEAR </s>
-0.3010 <s> BED </s>
-0.3010 <s> BEDROOM </s>
-0.3010 <s> BEDSIDE TABLE
-0.7782 <s> BEER </s>
-0.7782 <s> BEER BOTTLE
-0.7782 <s> BEER CAN
-0.3010 <s> BENCH </s>
-0.3010 <s> BISCUIT </s>
-0.3010 <s> BISCUITS </s>
-0.3010 <s> BLUE CUP
-0.3010 <s> BOOK </s>
-0.3010 <s> BOOKSHELF </s>
-0.3010 <s> BREAKFAST </s>
-1.0000 <s> BRING </s>
-0.3979 <s> BRING ME
-0.3010 <s> BROWN SHELF
-0.3010 <s> CABINET </s>
-0.3010 <s> CARRY </s>
-0.3010 <s> CHEESE </s>
-0.3010 <s> CHICKEN NOODLES
-0.3010 <s> CHIPS </s>
-0.6021 <s> CHOCOLATE </s>
-0.6021 <s> CHOCOLATE MILK
-0.3010 <s> CHRISTOPHER </s>
-0.3010 <s> CLAY </s>
-0.3010 <s> CLOSET </s>
-0.3010 <s> COFFEE </s>
-0.3010 <s> COKE </s>
-0.3010 <s> COOKIES </s>
-0.3010 <s> CORNFLAKES </s>
-0.3010 <s> COUCH TABLE
-0.3010 <s> CRACKERS </s>
-0.3010 <s> CUP </s>
-0.3010 <s> CUPBOARD </s>
-0.3010 <s> DANIEL </s>
-0.3010 <s> DAVID </s>
-0.3010 <s> DESK </s>
-0.3010 <s> DETECT </s>
-0.6021 <s> DINING SHELF
-0.6021 <s> DINING TABLE
-0.3010 <s> DOOR </s>
-0.3010 <s> DRAWER </s>
-0.3010 <s> DRESSER </s>
-0.3010 <s> DRINK </s>
-0.3010 <s> DROPS </s>
-0.3010 <s> DUST BIN
-0.3010 <s> ELIZABETH </s>
-0.3010 <s> EMILY </s>
-0.3010 <s> EMMA </s>
-0.3010 <s> ENERGY DRINK
-0.3010 <s> ETHAN </s>
-0.3010 <s> EXIT </s>
-0.3010 <s> FANTA </s>
-0.3010 <s> FIND </s>
-0.3010 <s> FIRE TRUCK
-0.3010 <s> FOLLOW PERSON
-0.3010 <s> FOOD </s>
-0.3010 <s> FRIDGE </s>
-0.3010 <s> FROM </s>
-0.3010 <s> FRONT DOOR
-0.3010 <s> GARLIC SAUCE
-1.3010 <s> GET </s>
-0.3979 <s> GET ME
-1.3010 <s> GET OUT
-0.3010 <s> GIVE </s>
-0.3010 <s> GLASS </s>
-1.3010 <s> GO </s>
-0.3468 <s> GO TO
-0.3010 <s> GRAPEFRUIT JUICE
-0.3010 <s> GRASP </s>
-0.7782 <s> GREEN CHIPS
-0.7782 <s> GREEN CUP
-0.7782 <s> GREEN TEA
-0.6021 <s> HALLWAY </s>
-0.6021 <s> HALLWAY TABLE
-0.3010 <s> HANGER </s>
-0.3010 <s> HANNAH </s>
-1.3010 <s> HEAD </s>
-0.3468 <s> HEAD TO
-0.3010 <s> HEATHER </s>
-0.3010 <s> IDENTIFY </s>
-0.3010 <s> INTRODUCE </s>
-0.3010 <s> ISABELLA </s>
-0.3010 <s> IT </s>
-0.3010 <s> JACOB </s>
-0.3010 <s> JAMES </s>
-0.3010 <s> JENNIFER </s>
-0.3010 <s> JESSICA </s>
-0.3010 <s> JOHN </s>
-0.3010 <s> JOSEPH </s>
-0.3010 <s> JOSHUA </s>
-0.9031 <s> KITCHEN </s>
-0.9031 <s> KITCHEN BOARD
-0.9031 <s> KITCHEN COUNTER
-0.9031 <s> KITCHEN TABLE
-0.3010 <s> KITCHENARY </s>
-0.3010 <s> LEAVE </s>
-0.3010 <s> LEMON PRINGLES
-0.3010 <s> LEMONADE </s>
-0.3010 <s> LIBRARY TABLE
-0.3010 <s> LIGHT </s>
-0.6021 <s> LIVING ROOM
-0.6021 <s> LIVING TABLE
-0.3010 <s> MADISON </s>
-0.3010 <s> MAKE </s>
-0.3010 <s> MARMALADE </s>
-0.3010 <s> MATTHEW </s>
-0.3010 <s> ME </s>
-0.3010 <s> MELISSA </s>
-0.3010 <s> MEMORIZE PERSON
-0.3010 <s> METAL CUP
-0.3010 <s> MICHAEL </s>
-0.3010 <s> MILK </s>
-0.3010 <s> MILO </s>
-0.3010 <s> MIXER TRUCK
-1.3010 <s> MOVE </s>
-0.3468 <s> MOVE TO
-0.3010 <s> NAVIGATE </s>
-0.3010 <s> NICOLE </s>
-0.3010 <s> NOTIFY </s>
-0.3010 <s> OLIVIA </s>
-0.3010 <s> ORANGE JUICE
-0.3010 <s> ORIGINAL PRINGLES
-0.3010 <s> PANTRY </s>
-0.3010 <s> PAPER CUP
-0.3010 <s> PEANUT BUTTER
-0.3010 <s> PEN STAND
-0.3010 <s> PINK CUP
-0.3010 <s> PLANT </s>
-0.3010 <s> POINT </s>
-0.3010 <s> POTATO SNACK
-0.3010 <s> RABBIT </s>
-0.3010 <s> RECEPTION TABLE
-0.6021 <s> RECOGNIZE HER
-0.6021 <s> RECOGNIZE HIM
-0.6021 <s> RED CHIPS
-0.6021 <s> RED CUP
-0.3010 <s> REMIND </s>
-0.3010 <s> RETRIEVE </s>
-0.3010 <s> ROBERT </s>
-0.6021 <s> ROBOT NO
-0.6021 <s> ROBOT YES
-0.3010 <s> SAMANTHA </s>
-0.3010 <s> SARAH </s>
-0.3010 <s> SEAFOOD </s>
-0.3010 <s> SEAT </s>
-0.3010 <s> SEVEN UP
-0.3010 <s> SHAMPOO BOTTLE
-0.3010 <s> SHELF </s>
-0.3010 <s> SHOEBOX </s>
-0.3010 <s> SHOWCASE </s>
-0.3010 <s> SIDEBOARD </s>
-0.3010 <s> SIDETABLE </s>
-0.3010 <s> SINK </s>
-0.3010 <s> SNACK </s>
-0.3010 <s> SODA </s>
-0.3010 <s> SOFA </s>
-0.3010 <s> SOME </s>
-0.3010 <s> SPOONS </s>
-0.3010 <s> SPRAY CAN
-0.3010 <s> STEPHANIE </s>
-0.3010 <s> STOP </s>
-0.3010 <s> STOVE </s>
-0.3010 <s> TABLE </s>
-0.3010 <s> TAKE </s>
-0.6021 <s> TELL </s>
-0.6021 <s> TELL SOMETHING
-0.3010 <s> THE </s>
-0.3010 <s> THEN </s>
-0.3010 <s> TO </s>
-0.3010 <s> TOILET </s>
-0.3010 <s> TOMATO SAUCE
-0.3010 <s> TOOL </s>
-0.3010 <s> TOY </s>
-0.7782 <s> TV </s>
-0.7782 <s> TV BOARD
-0.7782 <s> TV COUNTER
-0.3010 <s> UMBRELLA STAND
-0.3010 <s> VEGGIE NOODLES
-0.3010 <s> WASHING MACHINE
-0.3010 <s> WATER </s>
-0.3010 <s> WATERING POT
-0.3010 <s> WHITE SHELF
-0.3010 <s> WILLIAM </s>
-0.3010 <s> YELLOW CUP
-0.3010 <s> YOGHURT </s>
-0.3010 <s> YOURSELF </s>
-0.3010 APPLE JUICE </s>
-0.3010 ASK PERSON NAME
-0.3010 BACK DOOR </s>
-0.3010 BEDSIDE TABLE </s>
-0.3010 BEER BOTTLE </s>
-0.3010 BEER CAN </s>
-0.3010 BLUE CUP </s>
-0.6021 BRING ME SOME
-0.6021 BRING ME THE
-0.3010 BROWN SHELF </s>
-0.3010 CHICKEN NOODLES </s>
-0.3010 CHOCOLATE MILK </s>
-0.3010 CLEANING STUFF </s>
-0.3010 COUCH TABLE </s>
-0.3010 DINING SHELF </s>
-0.3010 DINING TABLE </s>
-0.3010 DUST BIN </s>
-0.3010 ENERGY DRINK </s>
-0.3010 FIRE TRUCK </s>
-0.3010 FOLLOW PERSON </s>
-0.3010 FRONT DOOR </s>
-0.3010 GARLIC SAUCE </s>
-0.6021 GET ME SOME
-0.6021 GET ME THE
-0.3010 GET OUT </s>
-1.2553 GO TO BEDROOM
-1.2553 GO TO HALLWAY
-1.2553 GO TO KITCHEN
-1.2553 GO TO LIVING
-0.5563 GO TO THE
-0.3010 GRAPEFRUIT JUICE </s>
-0.3010 GREEN CHIPS </s>
-0.3010 GREEN CUP </s>
-0.3010 GREEN TEA </s>
-0.3010 HALLWAY TABLE </s>
-1.2553 HEAD TO BEDROOM
-1.2553 HEAD TO HALLWAY
-1.2553 HEAD TO KITCHEN
-1.2553 HEAD TO LIVING
-1.2553 HEAD TO SEATING
-0.6532 HEAD TO THE
-0.3010 KITCHEN BOARD </s>
-0.3010 KITCHEN COUNTER </s>
-0.3010 KITCHEN TABLE </s>
-0.3010 LEMON PRINGLES </s>
-0.3010 LIBRARY TABLE </s>
-0.3010 LIVING ROOM </s>
-0.3010 LIVING TABLE </s>
-0.9031 ME SOME CLEANING
-0.9031 ME SOME DRINK
-0.9031 ME SOME FOOD
-0.9031 ME SOME SNACK
-0.9031 ME THE CLEANING
-0.9031 ME THE DRINK
-0.9031 ME THE FOOD
-0.9031 ME THE SNACK
-0.3010 MEMORIZE PERSON </s>
-0.3010 METAL CUP </s>
-0.3010 MIXER TRUCK </s>
-1.2553 MOVE TO BEDROOM
-1.2553 MOVE TO HALLWAY
-1.2553 MOVE TO KITCHEN
-1.2553 MOVE TO LIVING
-0.5563 MOVE TO THE
-0.3010 ORANGE JUICE </s>
-0.3010 ORIGINAL PRINGLES </s>
-0.3010 PAPER CUP </s>
-0.3010 PEANUT BUTTER </s>
-0.3010 PEN STAND </s>
-0.3010 PERSON NAME </s>
-0.3010 PINK CUP </s>
-0.3010 POTATO SNACK </s>
-0.3010 RECEPTION TABLE </s>
-0.3010 RECOGNIZE HER </s>
-0.3010 RECOGNIZE HIM </s>
-0.3010 RED CHIPS </s>
-0.3010 RED CUP </s>
-0.3010 ROBOT NO </s>
-0.3010 ROBOT YES </s>
-0.3010 SEVEN UP </s>
-0.3010 SHAMPOO BOTTLE </s>
-0.3010 SOME CLEANING STUFF
-0.3010 SOME DRINK </s>
-0.3010 SOME FOOD </s>
-0.3010 SOME SNACK </s>
-0.3010 SOMETHING ABOUT </s>
-0.3010 SPRAY CAN </s>
-0.3010 TELL SOMETHING ABOUT
-0.3010 THE APPLIANCE </s>
-0.3010 THE CLEANING STUFF
-0.3010 THE DRINK </s>
-0.3010 THE FOOD </s>
-0.3010 THE SEATING </s>
-0.3010 THE SHELF </s>
-0.3010 THE SNACK </s>
-0.3010 THE TABLE </s>
-0.3010 THE UTENSIL </s>
-0.3010 TO BEDROOM </s>
-0.3010 TO HALLWAY </s>
-0.3010 TO KITCHEN </s>
-0.3010 TO LIVING ROOM
-0.3010 TO SEATING </s>
-0.9700 TO THE APPLIANCE
-1.1461 TO THE SEATING
-0.9700 TO THE SHELF
-0.9700 TO THE TABLE
-0.9700 TO THE UTENSIL
-0.3010 TOMATO SAUCE </s>
-0.3010 TV BOARD </s>
-0.3010 TV COUNTER </s>
-0.3010 UMBRELLA STAND </s>
-0.3010 VEGGIE NOODLES </s>
-0.3010 WASHING MACHINE </s>
-0.3010 WATERING POT </s>
-0.3010 WHITE SHELF </s>
-0.3010 YELLOW CUP </s>

\end\
