Language model created by QuickLM on Mon Mar 21 14:28:20 EDT 2016
Copyright (c) 1996-2010 Carnegie Mellon University and Alexander I. Rudnicky

The model is in standard ARPA format, designed by Doug Paul while he was at MITRE.

The code that was used to produce this language model is available in Open Source.
Please visit http://www.speech.cs.cmu.edu/tools/ for more information

The (fixed) discount mass is 0.5. The backoffs are computed using the ratio method.
This model based on a corpus of 312 sentences and 107 words

\data\
ngram 1=107
ngram 2=210
ngram 3=105

\1-grams:
-0.7782 </s> -0.3010
-0.7782 <s> -0.2218
-2.6702 A -0.2218
-2.6702 AND -0.2218
-2.9713 ANSWER -0.2218
-3.2723 AT -0.2218
-2.9713 BALLS -0.2218
-2.9713 BANANA -0.2218
-2.9713 BAR -0.2218
-2.9713 BARBECUE -0.2218
-2.5733 BATHROOM -0.2218
-2.9713 BEAN -0.2218
-2.9713 BED -0.2218
-2.5733 BEDROOM -0.2218
-2.6702 BEDSIDE -0.2218
-2.9713 BEER -0.2218
-2.9713 BISCUITS -0.2218
-2.9713 BOOKCASE -0.2218
-3.2723 BRING -0.2218
-2.9713 BUBBLE -0.2218
-2.9713 CAKE -0.2218
-3.2723 CALLING -0.2218
-3.2723 CARRY -0.2218
-2.9713 CEREALS -0.2218
-2.4942 CHIPS -0.2218
-2.9713 CHOCOLATES -0.2218
-2.9713 COCO -0.2218
-2.9713 COCONUT -0.2218
-2.9713 COFFEE -0.2218
-2.9713 COKE -0.2218
-2.9713 COUCH -0.2218
-2.9713 COUNTER -0.2218
-2.9713 CRACKERS -0.2218
-2.9713 CUP -0.2218
-2.9713 CUPBOARD -0.2218
-2.9713 DATE -0.2218
-2.6702 DAY -0.2218
-3.2723 DELIVER -0.2218
-2.9713 DESK -0.2218
-2.9713 DINNER -0.2218
-2.9713 EGG -0.2218
-2.6702 FIND -0.2218
-2.6702 FOLLOW -0.2218
-2.6702 FOR -0.2218
-3.2723 FROM -0.2218
-2.7952 GET -0.2218
-2.9713 GO -0.2218
-2.9713 GRAM -0.2218
-3.2723 GRASP -0.2218
-2.6702 GREEN -0.2218
-2.9713 GUM -0.2218
-2.4272 HALLWAY -0.2218
-2.6702 HER -0.2218
-2.9713 HONEY -0.2218
-2.6702 IN -0.2218
-2.9713 INTO -0.2218
-2.5733 IS -0.2218
-2.7952 IT -0.2218
-2.9713 JUICE -0.2218
-2.3181 KITCHEN -0.2218
-2.9713 LEFT -0.2218
-2.5733 LIVING -0.2218
-2.6702 LOOK -0.2218
-2.9713 LOTION -0.2218
-3.2723 ME -0.2218
-2.6702 MILK -0.2218
-2.9713 MONTH -0.2218
-2.4942 NAME -0.2218
-2.9713 NAVIGATE -0.2218
-3.2723 NO -0.2218
-2.5733 OF -0.2218
-2.9713 ORANGE -0.2218
-2.9713 PAPAYA -0.2218
-2.9713 PARTYROOM -0.2218
-2.7952 PERSON -0.2218
-2.9713 PURE -0.2218
-2.9713 QUESTION -0.2218
-2.9713 REACH -0.2218
-2.9713 RIGHT -0.2218
-3.2723 ROBOT -0.2218
-2.5733 ROOM -0.2218
-2.9713 SAUCE -0.2218
-2.9713 SAY -0.2218
-2.9713 SOAP -0.2218
-2.9713 SODA -0.2218
-2.9713 SOFA -0.2218
-2.9713 SOUP -0.2218
-2.9713 SPEAK -0.2218
-2.9713 STARS -0.2218
-2.1931 TABLE -0.2218
-2.9713 TAKE -0.2218
-2.9713 TEA -0.2218
-2.7952 TEAM -0.2218
-2.4942 TELL -0.2218
-1.9106 THE -0.2218
-2.6702 TIME -0.2218
-2.4272 TO -0.2218
-2.9713 TODAY -0.2218
-2.9713 TOMATO -0.2218
-2.9713 TOMORROW -0.2218
-2.9713 TOY -0.2218
-2.9713 WATER -0.2218
-2.9713 WEEK -0.2218
-2.6702 WHAT -0.2218
-3.2723 WHICH -0.2218
-3.2723 YES -0.2218
-2.4942 YOUR -0.2218

\2-grams:
-2.1931 <s> A 0.0000
-2.1931 <s> AND 0.0000
-2.4942 <s> ANSWER 0.0000
-2.7952 <s> AT 0.0000
-2.4942 <s> BALLS 0.0000
-2.4942 <s> BANANA 0.0000
-2.4942 <s> BAR 0.0000
-2.4942 <s> BARBECUE 0.0000
-2.0962 <s> BATHROOM 0.0000
-2.4942 <s> BEAN 0.0000
-2.4942 <s> BED 0.0000
-2.0962 <s> BEDROOM 0.0000
-2.1931 <s> BEDSIDE 0.0000
-2.4942 <s> BEER 0.0000
-2.4942 <s> BISCUITS 0.0000
-2.4942 <s> BOOKCASE 0.0000
-2.7952 <s> BRING 0.0000
-2.4942 <s> BUBBLE 0.0000
-2.4942 <s> CAKE 0.0000
-2.7952 <s> CALLING 0.0000
-2.7952 <s> CARRY 0.0000
-2.4942 <s> CEREALS 0.0000
-2.0170 <s> CHIPS 0.0000
-2.4942 <s> CHOCOLATES 0.0000
-2.4942 <s> COCO 0.0000
-2.4942 <s> COCONUT 0.0000
-2.4942 <s> COFFEE 0.0000
-2.4942 <s> COKE 0.0000
-2.4942 <s> COUCH 0.0000
-2.4942 <s> COUNTER 0.0000
-2.4942 <s> CRACKERS 0.0000
-2.4942 <s> CUP 0.0000
-2.4942 <s> CUPBOARD 0.0000
-2.4942 <s> DATE 0.0000
-2.1931 <s> DAY 0.0000
-2.7952 <s> DELIVER 0.0000
-2.4942 <s> DESK 0.0000
-2.4942 <s> DINNER 0.0000
-2.4942 <s> EGG 0.0000
-2.1931 <s> FIND 0.0000
-2.1931 <s> FOLLOW 0.0000
-2.1931 <s> FOR 0.0000
-2.7952 <s> FROM 0.0000
-2.3181 <s> GET 0.0000
-2.4942 <s> GO 0.0000
-2.4942 <s> GRAM 0.0000
-2.7952 <s> GRASP 0.0000
-2.1931 <s> GREEN 0.0000
-2.4942 <s> GUM 0.0000
-1.9501 <s> HALLWAY 0.0000
-2.1931 <s> HER 0.0000
-2.4942 <s> HONEY 0.0000
-2.1931 <s> IN 0.0000
-2.4942 <s> INTO 0.0000
-2.0962 <s> IS 0.0000
-2.3181 <s> IT 0.0000
-2.4942 <s> JUICE 0.0000
-1.8409 <s> KITCHEN 0.0000
-2.4942 <s> LEFT 0.0000
-2.0962 <s> LIVING 0.0000
-2.1931 <s> LOOK 0.0000
-2.4942 <s> LOTION 0.0000
-2.7952 <s> ME 0.0000
-2.1931 <s> MILK 0.0000
-2.4942 <s> MONTH 0.0000
-2.0170 <s> NAME 0.0000
-2.4942 <s> NAVIGATE 0.0000
-2.7952 <s> NO 0.0000
-2.0962 <s> OF 0.0000
-2.4942 <s> ORANGE 0.0000
-2.4942 <s> PAPAYA 0.0000
-2.4942 <s> PARTYROOM 0.0000
-2.3181 <s> PERSON 0.0000
-2.4942 <s> PURE 0.0000
-2.4942 <s> QUESTION 0.0000
-2.4942 <s> REACH 0.0000
-2.4942 <s> RIGHT 0.0000
-2.7952 <s> ROBOT 0.0000
-2.0962 <s> ROOM 0.0000
-2.4942 <s> SAUCE 0.0000
-2.4942 <s> SAY 0.0000
-2.4942 <s> SOAP 0.0000
-2.4942 <s> SODA 0.0000
-2.4942 <s> SOFA 0.0000
-2.4942 <s> SOUP 0.0000
-2.4942 <s> SPEAK 0.0000
-2.4942 <s> STARS 0.0000
-1.7160 <s> TABLE 0.0000
-2.4942 <s> TAKE 0.0000
-2.4942 <s> TEA 0.0000
-2.3181 <s> TEAM 0.0000
-2.0170 <s> TELL 0.0000
-1.4335 <s> THE 0.0000
-2.1931 <s> TIME 0.0000
-1.9501 <s> TO 0.0000
-2.4942 <s> TODAY 0.0000
-2.4942 <s> TOMATO 0.0000
-2.4942 <s> TOMORROW 0.0000
-2.4942 <s> TOY 0.0000
-2.4942 <s> WATER 0.0000
-2.4942 <s> WEEK 0.0000
-2.1931 <s> WHAT 0.0000
-2.7952 <s> WHICH 0.0000
-2.7952 <s> YES 0.0000
-2.0170 <s> YOUR 0.0000
-0.3010 A </s> -0.3010
-0.3010 AND </s> -0.3010
-0.3010 ANSWER </s> -0.3010
-0.3010 AT </s> -0.3010
-0.3010 BALLS </s> -0.3010
-0.3010 BANANA </s> -0.3010
-0.3010 BAR </s> -0.3010
-0.3010 BARBECUE </s> -0.3010
-0.3010 BATHROOM </s> -0.3010
-0.3010 BEAN </s> -0.3010
-0.3010 BED </s> -0.3010
-0.3010 BEDROOM </s> -0.3010
-0.3010 BEDSIDE </s> -0.3010
-0.3010 BEER </s> -0.3010
-0.3010 BISCUITS </s> -0.3010
-0.3010 BOOKCASE </s> -0.3010
-0.3010 BRING </s> -0.3010
-0.3010 BUBBLE </s> -0.3010
-0.3010 CAKE </s> -0.3010
-0.3010 CALLING </s> -0.3010
-0.3010 CARRY </s> -0.3010
-0.3010 CEREALS </s> -0.3010
-0.3010 CHIPS </s> -0.3010
-0.3010 CHOCOLATES </s> -0.3010
-0.3010 COCO </s> -0.3010
-0.3010 COCONUT </s> -0.3010
-0.3010 COFFEE </s> -0.3010
-0.3010 COKE </s> -0.3010
-0.3010 COUCH </s> -0.3010
-0.3010 COUNTER </s> -0.3010
-0.3010 CRACKERS </s> -0.3010
-0.3010 CUP </s> -0.3010
-0.3010 CUPBOARD </s> -0.3010
-0.3010 DATE </s> -0.3010
-0.3010 DAY </s> -0.3010
-0.3010 DELIVER </s> -0.3010
-0.3010 DESK </s> -0.3010
-0.3010 DINNER </s> -0.3010
-0.3010 EGG </s> -0.3010
-0.3010 FIND </s> -0.3010
-0.3010 FOLLOW </s> -0.3010
-0.3010 FOR </s> -0.3010
-0.3010 FROM </s> -0.3010
-0.3010 GET </s> -0.3010
-0.3010 GO </s> -0.3010
-0.3010 GRAM </s> -0.3010
-0.3010 GRASP </s> -0.3010
-0.3010 GREEN </s> -0.3010
-0.3010 GUM </s> -0.3010
-0.3010 HALLWAY </s> -0.3010
-0.3010 HER </s> -0.3010
-0.3010 HONEY </s> -0.3010
-0.3010 IN </s> -0.3010
-0.3010 INTO </s> -0.3010
-0.3010 IS </s> -0.3010
-0.3010 IT </s> -0.3010
-0.3010 JUICE </s> -0.3010
-0.3010 KITCHEN </s> -0.3010
-0.3010 LEFT </s> -0.3010
-0.3010 LIVING </s> -0.3010
-0.3010 LOOK </s> -0.3010
-0.3010 LOTION </s> -0.3010
-0.3010 ME </s> -0.3010
-0.3010 MILK </s> -0.3010
-0.3010 MONTH </s> -0.3010
-0.3010 NAME </s> -0.3010
-0.3010 NAVIGATE </s> -0.3010
-0.3010 NO </s> -0.3010
-0.3010 OF </s> -0.3010
-0.3010 ORANGE </s> -0.3010
-0.3010 PAPAYA </s> -0.3010
-0.3010 PARTYROOM </s> -0.3010
-0.3010 PERSON </s> -0.3010
-0.3010 PURE </s> -0.3010
-0.3010 QUESTION </s> -0.3010
-0.3010 REACH </s> -0.3010
-0.3010 RIGHT </s> -0.3010
-0.3010 ROBOT </s> -0.3010
-0.3010 ROOM </s> -0.3010
-0.3010 SAUCE </s> -0.3010
-0.3010 SAY </s> -0.3010
-0.3010 SOAP </s> -0.3010
-0.3010 SODA </s> -0.3010
-0.3010 SOFA </s> -0.3010
-0.3010 SOUP </s> -0.3010
-0.3010 SPEAK </s> -0.3010
-0.3010 STARS </s> -0.3010
-0.3010 TABLE </s> -0.3010
-0.3010 TAKE </s> -0.3010
-0.3010 TEA </s> -0.3010
-0.3010 TEAM </s> -0.3010
-0.3010 TELL </s> -0.3010
-0.3010 THE </s> -0.3010
-0.3010 TIME </s> -0.3010
-0.3010 TO </s> -0.3010
-0.3010 TODAY </s> -0.3010
-0.3010 TOMATO </s> -0.3010
-0.3010 TOMORROW </s> -0.3010
-0.3010 TOY </s> -0.3010
-0.3010 WATER </s> -0.3010
-0.3010 WEEK </s> -0.3010
-0.3010 WHAT </s> -0.3010
-0.3010 WHICH </s> -0.3010
-0.3010 YES </s> -0.3010
-0.3010 YOUR </s> -0.3010

\3-grams:
-0.3010 <s> A </s>
-0.3010 <s> AND </s>
-0.3010 <s> ANSWER </s>
-0.3010 <s> AT </s>
-0.3010 <s> BALLS </s>
-0.3010 <s> BANANA </s>
-0.3010 <s> BAR </s>
-0.3010 <s> BARBECUE </s>
-0.3010 <s> BATHROOM </s>
-0.3010 <s> BEAN </s>
-0.3010 <s> BED </s>
-0.3010 <s> BEDROOM </s>
-0.3010 <s> BEDSIDE </s>
-0.3010 <s> BEER </s>
-0.3010 <s> BISCUITS </s>
-0.3010 <s> BOOKCASE </s>
-0.3010 <s> BRING </s>
-0.3010 <s> BUBBLE </s>
-0.3010 <s> CAKE </s>
-0.3010 <s> CALLING </s>
-0.3010 <s> CARRY </s>
-0.3010 <s> CEREALS </s>
-0.3010 <s> CHIPS </s>
-0.3010 <s> CHOCOLATES </s>
-0.3010 <s> COCO </s>
-0.3010 <s> COCONUT </s>
-0.3010 <s> COFFEE </s>
-0.3010 <s> COKE </s>
-0.3010 <s> COUCH </s>
-0.3010 <s> COUNTER </s>
-0.3010 <s> CRACKERS </s>
-0.3010 <s> CUP </s>
-0.3010 <s> CUPBOARD </s>
-0.3010 <s> DATE </s>
-0.3010 <s> DAY </s>
-0.3010 <s> DELIVER </s>
-0.3010 <s> DESK </s>
-0.3010 <s> DINNER </s>
-0.3010 <s> EGG </s>
-0.3010 <s> FIND </s>
-0.3010 <s> FOLLOW </s>
-0.3010 <s> FOR </s>
-0.3010 <s> FROM </s>
-0.3010 <s> GET </s>
-0.3010 <s> GO </s>
-0.3010 <s> GRAM </s>
-0.3010 <s> GRASP </s>
-0.3010 <s> GREEN </s>
-0.3010 <s> GUM </s>
-0.3010 <s> HALLWAY </s>
-0.3010 <s> HER </s>
-0.3010 <s> HONEY </s>
-0.3010 <s> IN </s>
-0.3010 <s> INTO </s>
-0.3010 <s> IS </s>
-0.3010 <s> IT </s>
-0.3010 <s> JUICE </s>
-0.3010 <s> KITCHEN </s>
-0.3010 <s> LEFT </s>
-0.3010 <s> LIVING </s>
-0.3010 <s> LOOK </s>
-0.3010 <s> LOTION </s>
-0.3010 <s> ME </s>
-0.3010 <s> MILK </s>
-0.3010 <s> MONTH </s>
-0.3010 <s> NAME </s>
-0.3010 <s> NAVIGATE </s>
-0.3010 <s> NO </s>
-0.3010 <s> OF </s>
-0.3010 <s> ORANGE </s>
-0.3010 <s> PAPAYA </s>
-0.3010 <s> PARTYROOM </s>
-0.3010 <s> PERSON </s>
-0.3010 <s> PURE </s>
-0.3010 <s> QUESTION </s>
-0.3010 <s> REACH </s>
-0.3010 <s> RIGHT </s>
-0.3010 <s> ROBOT </s>
-0.3010 <s> ROOM </s>
-0.3010 <s> SAUCE </s>
-0.3010 <s> SAY </s>
-0.3010 <s> SOAP </s>
-0.3010 <s> SODA </s>
-0.3010 <s> SOFA </s>
-0.3010 <s> SOUP </s>
-0.3010 <s> SPEAK </s>
-0.3010 <s> STARS </s>
-0.3010 <s> TABLE </s>
-0.3010 <s> TAKE </s>
-0.3010 <s> TEA </s>
-0.3010 <s> TEAM </s>
-0.3010 <s> TELL </s>
-0.3010 <s> THE </s>
-0.3010 <s> TIME </s>
-0.3010 <s> TO </s>
-0.3010 <s> TODAY </s>
-0.3010 <s> TOMATO </s>
-0.3010 <s> TOMORROW </s>
-0.3010 <s> TOY </s>
-0.3010 <s> WATER </s>
-0.3010 <s> WEEK </s>
-0.3010 <s> WHAT </s>
-0.3010 <s> WHICH </s>
-0.3010 <s> YES </s>
-0.3010 <s> YOUR </s>

\end\
