Language model created by QuickLM on Thu Mar 24 22:16:30 EDT 2016
Copyright (c) 1996-2010 Carnegie Mellon University and Alexander I. Rudnicky

The model is in standard ARPA format, designed by Doug Paul while he was at MITRE.

The code that was used to produce this language model is available in Open Source.
Please visit http://www.speech.cs.cmu.edu/tools/ for more information

The (fixed) discount mass is 0.5. The backoffs are computed using the ratio method.
This model based on a corpus of 453 sentences and 97 words

\data\
ngram 1=97
ngram 2=190
ngram 3=95

\1-grams:
-0.7782 </s> -0.3010
-0.7782 <s> -0.2218
-1.9429 A -0.2218
-3.4342 AFFILIATION -0.2218
-1.9429 AN -0.2218
-2.7353 AND -0.2218
-2.9571 ANSWER -0.2218
-3.1332 APPLE -0.2218
-3.1332 ARE -0.2218
-3.4342 AT -0.2218
-3.1332 AU -0.2218
-2.8322 BOARD -0.2218
-3.1332 BOOK -0.2218
-3.1332 BOWL -0.2218
-3.4342 BRING -0.2218
-3.1332 CAFE -0.2218
-3.4342 CALLING -0.2218
-3.4342 CARRY -0.2218
-3.1332 CHIPS -0.2218
-3.1332 COOKIE -0.2218
-2.5312 CORRIDOR -0.2218
-3.1332 CUP -0.2218
-2.8322 DATE -0.2218
-2.5892 DAY -0.2218
-3.4342 DELIVER -0.2218
-2.7353 DETECT -0.2218
-2.1332 DINING -0.2218
-3.1332 EGG -0.2218
-2.7353 FIND -0.2218
-2.6561 FOLLOW -0.2218
-2.7353 FOR -0.2218
-3.1332 FROM -0.2218
-2.9571 GET -0.2218
-3.1332 GO -0.2218
-3.4342 GRASP -0.2218
-3.1332 GREEN -0.2218
-2.5892 HER -0.2218
-2.5892 HIM -0.2218
-3.4342 HOW -0.2218
-3.1332 ICED -0.2218
-2.8322 IN -0.2218
-3.1332 INTO -0.2218
-2.3929 IS -0.2218
-2.8322 IT -0.2218
-2.8322 JUICE -0.2218
-3.1332 LAIT -0.2218
-2.5312 LIBRARY -0.2218
-2.1790 LIVING -0.2218
-2.7353 LOOK -0.2218
-3.1332 ME -0.2218
-2.9571 MONTH -0.2218
-3.1332 MOVE -0.2218
-2.5892 NAME -0.2218
-3.1332 NAVIGATE -0.2218
-3.4342 NO -0.2218
-2.6561 OF -0.2218
-2.8322 ORANGE -0.2218
-2.8322 PERSON -0.2218
-3.4342 PLEASE -0.2218
-3.1332 POTAGE -0.2218
-2.8322 POTATO -0.2218
-2.9571 QUESTION -0.2218
-3.1332 REACH -0.2218
-3.4342 ROBOT -0.2218
-2.2301 ROOM -0.2218
-2.9571 SAY -0.2218
-3.1332 SET -0.2218
-3.1332 SHELF -0.2218
-3.1332 SIDE -0.2218
-3.1332 SOFA -0.2218
-2.8322 SOUP -0.2218
-2.9571 SPEAK -0.2218
-3.1332 STICK -0.2218
-3.1332 STRAWBERRY -0.2218
-2.3551 TABLE -0.2218
-3.1332 TAKE -0.2218
-2.8322 TEA -0.2218
-2.9571 TEAM -0.2218
-3.1332 TELEVISION -0.2218
-2.4342 TELL -0.2218
-1.8779 THE -0.2218
-2.6561 TIME -0.2218
-2.4342 TO -0.2218
-2.6561 TODAY -0.2218
-2.9571 TOMORROW -0.2218
-3.1332 TRAY -0.2218
-3.1332 TV -0.2218
-3.4342 WAVING -0.2218
-3.4342 WE -0.2218
-3.4342 WEATHER -0.2218
-2.9571 WEEK -0.2218
-2.4800 WHAT -0.2218
-3.1332 WHERE -0.2218
-3.4342 WHICH -0.2218
-3.4342 YES -0.2218
-3.4342 YOU -0.2218
-2.5312 YOUR -0.2218

\2-grams:
-1.4658 <s> A 0.0000
-2.9571 <s> AFFILIATION 0.0000
-1.4658 <s> AN 0.0000
-2.2582 <s> AND 0.0000
-2.4800 <s> ANSWER 0.0000
-2.6561 <s> APPLE 0.0000
-2.6561 <s> ARE 0.0000
-2.9571 <s> AT 0.0000
-2.6561 <s> AU 0.0000
-2.3551 <s> BOARD 0.0000
-2.6561 <s> BOOK 0.0000
-2.6561 <s> BOWL 0.0000
-2.9571 <s> BRING 0.0000
-2.6561 <s> CAFE 0.0000
-2.9571 <s> CALLING 0.0000
-2.9571 <s> CARRY 0.0000
-2.6561 <s> CHIPS 0.0000
-2.6561 <s> COOKIE 0.0000
-2.0540 <s> CORRIDOR 0.0000
-2.6561 <s> CUP 0.0000
-2.3551 <s> DATE 0.0000
-2.1120 <s> DAY 0.0000
-2.9571 <s> DELIVER 0.0000
-2.2582 <s> DETECT 0.0000
-1.6561 <s> DINING 0.0000
-2.6561 <s> EGG 0.0000
-2.2582 <s> FIND 0.0000
-2.1790 <s> FOLLOW 0.0000
-2.2582 <s> FOR 0.0000
-2.6561 <s> FROM 0.0000
-2.4800 <s> GET 0.0000
-2.6561 <s> GO 0.0000
-2.9571 <s> GRASP 0.0000
-2.6561 <s> GREEN 0.0000
-2.1120 <s> HER 0.0000
-2.1120 <s> HIM 0.0000
-2.9571 <s> HOW 0.0000
-2.6561 <s> ICED 0.0000
-2.3551 <s> IN 0.0000
-2.6561 <s> INTO 0.0000
-1.9157 <s> IS 0.0000
-2.3551 <s> IT 0.0000
-2.3551 <s> JUICE 0.0000
-2.6561 <s> LAIT 0.0000
-2.0540 <s> LIBRARY 0.0000
-1.7019 <s> LIVING 0.0000
-2.2582 <s> LOOK 0.0000
-2.6561 <s> ME 0.0000
-2.4800 <s> MONTH 0.0000
-2.6561 <s> MOVE 0.0000
-2.1120 <s> NAME 0.0000
-2.6561 <s> NAVIGATE 0.0000
-2.9571 <s> NO 0.0000
-2.1790 <s> OF 0.0000
-2.3551 <s> ORANGE 0.0000
-2.3551 <s> PERSON 0.0000
-2.9571 <s> PLEASE 0.0000
-2.6561 <s> POTAGE 0.0000
-2.3551 <s> POTATO 0.0000
-2.4800 <s> QUESTION 0.0000
-2.6561 <s> REACH 0.0000
-2.9571 <s> ROBOT 0.0000
-1.7530 <s> ROOM 0.0000
-2.4800 <s> SAY 0.0000
-2.6561 <s> SET 0.0000
-2.6561 <s> SHELF 0.0000
-2.6561 <s> SIDE 0.0000
-2.6561 <s> SOFA 0.0000
-2.3551 <s> SOUP 0.0000
-2.4800 <s> SPEAK 0.0000
-2.6561 <s> STICK 0.0000
-2.6561 <s> STRAWBERRY 0.0000
-1.8779 <s> TABLE 0.0000
-2.6561 <s> TAKE 0.0000
-2.3551 <s> TEA 0.0000
-2.4800 <s> TEAM 0.0000
-2.6561 <s> TELEVISION 0.0000
-1.9571 <s> TELL 0.0000
-1.4008 <s> THE 0.0000
-2.1790 <s> TIME 0.0000
-1.9571 <s> TO 0.0000
-2.1790 <s> TODAY 0.0000
-2.4800 <s> TOMORROW 0.0000
-2.6561 <s> TRAY 0.0000
-2.6561 <s> TV 0.0000
-2.9571 <s> WAVING 0.0000
-2.9571 <s> WE 0.0000
-2.9571 <s> WEATHER 0.0000
-2.4800 <s> WEEK 0.0000
-2.0029 <s> WHAT 0.0000
-2.6561 <s> WHERE 0.0000
-2.9571 <s> WHICH 0.0000
-2.9571 <s> YES 0.0000
-2.9571 <s> YOU 0.0000
-2.0540 <s> YOUR 0.0000
-0.3010 A </s> -0.3010
-0.3010 AFFILIATION </s> -0.3010
-0.3010 AN </s> -0.3010
-0.3010 AND </s> -0.3010
-0.3010 ANSWER </s> -0.3010
-0.3010 APPLE </s> -0.3010
-0.3010 ARE </s> -0.3010
-0.3010 AT </s> -0.3010
-0.3010 AU </s> -0.3010
-0.3010 BOARD </s> -0.3010
-0.3010 BOOK </s> -0.3010
-0.3010 BOWL </s> -0.3010
-0.3010 BRING </s> -0.3010
-0.3010 CAFE </s> -0.3010
-0.3010 CALLING </s> -0.3010
-0.3010 CARRY </s> -0.3010
-0.3010 CHIPS </s> -0.3010
-0.3010 COOKIE </s> -0.3010
-0.3010 CORRIDOR </s> -0.3010
-0.3010 CUP </s> -0.3010
-0.3010 DATE </s> -0.3010
-0.3010 DAY </s> -0.3010
-0.3010 DELIVER </s> -0.3010
-0.3010 DETECT </s> -0.3010
-0.3010 DINING </s> -0.3010
-0.3010 EGG </s> -0.3010
-0.3010 FIND </s> -0.3010
-0.3010 FOLLOW </s> -0.3010
-0.3010 FOR </s> -0.3010
-0.3010 FROM </s> -0.3010
-0.3010 GET </s> -0.3010
-0.3010 GO </s> -0.3010
-0.3010 GRASP </s> -0.3010
-0.3010 GREEN </s> -0.3010
-0.3010 HER </s> -0.3010
-0.3010 HIM </s> -0.3010
-0.3010 HOW </s> -0.3010
-0.3010 ICED </s> -0.3010
-0.3010 IN </s> -0.3010
-0.3010 INTO </s> -0.3010
-0.3010 IS </s> -0.3010
-0.3010 IT </s> -0.3010
-0.3010 JUICE </s> -0.3010
-0.3010 LAIT </s> -0.3010
-0.3010 LIBRARY </s> -0.3010
-0.3010 LIVING </s> -0.3010
-0.3010 LOOK </s> -0.3010
-0.3010 ME </s> -0.3010
-0.3010 MONTH </s> -0.3010
-0.3010 MOVE </s> -0.3010
-0.3010 NAME </s> -0.3010
-0.3010 NAVIGATE </s> -0.3010
-0.3010 NO </s> -0.3010
-0.3010 OF </s> -0.3010
-0.3010 ORANGE </s> -0.3010
-0.3010 PERSON </s> -0.3010
-0.3010 PLEASE </s> -0.3010
-0.3010 POTAGE </s> -0.3010
-0.3010 POTATO </s> -0.3010
-0.3010 QUESTION </s> -0.3010
-0.3010 REACH </s> -0.3010
-0.3010 ROBOT </s> -0.3010
-0.3010 ROOM </s> -0.3010
-0.3010 SAY </s> -0.3010
-0.3010 SET </s> -0.3010
-0.3010 SHELF </s> -0.3010
-0.3010 SIDE </s> -0.3010
-0.3010 SOFA </s> -0.3010
-0.3010 SOUP </s> -0.3010
-0.3010 SPEAK </s> -0.3010
-0.3010 STICK </s> -0.3010
-0.3010 STRAWBERRY </s> -0.3010
-0.3010 TABLE </s> -0.3010
-0.3010 TAKE </s> -0.3010
-0.3010 TEA </s> -0.3010
-0.3010 TEAM </s> -0.3010
-0.3010 TELEVISION </s> -0.3010
-0.3010 TELL </s> -0.3010
-0.3010 THE </s> -0.3010
-0.3010 TIME </s> -0.3010
-0.3010 TO </s> -0.3010
-0.3010 TODAY </s> -0.3010
-0.3010 TOMORROW </s> -0.3010
-0.3010 TRAY </s> -0.3010
-0.3010 TV </s> -0.3010
-0.3010 WAVING </s> -0.3010
-0.3010 WE </s> -0.3010
-0.3010 WEATHER </s> -0.3010
-0.3010 WEEK </s> -0.3010
-0.3010 WHAT </s> -0.3010
-0.3010 WHERE </s> -0.3010
-0.3010 WHICH </s> -0.3010
-0.3010 YES </s> -0.3010
-0.3010 YOU </s> -0.3010
-0.3010 YOUR </s> -0.3010

\3-grams:
-0.3010 <s> A </s>
-0.3010 <s> AFFILIATION </s>
-0.3010 <s> AN </s>
-0.3010 <s> AND </s>
-0.3010 <s> ANSWER </s>
-0.3010 <s> APPLE </s>
-0.3010 <s> ARE </s>
-0.3010 <s> AT </s>
-0.3010 <s> AU </s>
-0.3010 <s> BOARD </s>
-0.3010 <s> BOOK </s>
-0.3010 <s> BOWL </s>
-0.3010 <s> BRING </s>
-0.3010 <s> CAFE </s>
-0.3010 <s> CALLING </s>
-0.3010 <s> CARRY </s>
-0.3010 <s> CHIPS </s>
-0.3010 <s> COOKIE </s>
-0.3010 <s> CORRIDOR </s>
-0.3010 <s> CUP </s>
-0.3010 <s> DATE </s>
-0.3010 <s> DAY </s>
-0.3010 <s> DELIVER </s>
-0.3010 <s> DETECT </s>
-0.3010 <s> DINING </s>
-0.3010 <s> EGG </s>
-0.3010 <s> FIND </s>
-0.3010 <s> FOLLOW </s>
-0.3010 <s> FOR </s>
-0.3010 <s> FROM </s>
-0.3010 <s> GET </s>
-0.3010 <s> GO </s>
-0.3010 <s> GRASP </s>
-0.3010 <s> GREEN </s>
-0.3010 <s> HER </s>
-0.3010 <s> HIM </s>
-0.3010 <s> HOW </s>
-0.3010 <s> ICED </s>
-0.3010 <s> IN </s>
-0.3010 <s> INTO </s>
-0.3010 <s> IS </s>
-0.3010 <s> IT </s>
-0.3010 <s> JUICE </s>
-0.3010 <s> LAIT </s>
-0.3010 <s> LIBRARY </s>
-0.3010 <s> LIVING </s>
-0.3010 <s> LOOK </s>
-0.3010 <s> ME </s>
-0.3010 <s> MONTH </s>
-0.3010 <s> MOVE </s>
-0.3010 <s> NAME </s>
-0.3010 <s> NAVIGATE </s>
-0.3010 <s> NO </s>
-0.3010 <s> OF </s>
-0.3010 <s> ORANGE </s>
-0.3010 <s> PERSON </s>
-0.3010 <s> PLEASE </s>
-0.3010 <s> POTAGE </s>
-0.3010 <s> POTATO </s>
-0.3010 <s> QUESTION </s>
-0.3010 <s> REACH </s>
-0.3010 <s> ROBOT </s>
-0.3010 <s> ROOM </s>
-0.3010 <s> SAY </s>
-0.3010 <s> SET </s>
-0.3010 <s> SHELF </s>
-0.3010 <s> SIDE </s>
-0.3010 <s> SOFA </s>
-0.3010 <s> SOUP </s>
-0.3010 <s> SPEAK </s>
-0.3010 <s> STICK </s>
-0.3010 <s> STRAWBERRY </s>
-0.3010 <s> TABLE </s>
-0.3010 <s> TAKE </s>
-0.3010 <s> TEA </s>
-0.3010 <s> TEAM </s>
-0.3010 <s> TELEVISION </s>
-0.3010 <s> TELL </s>
-0.3010 <s> THE </s>
-0.3010 <s> TIME </s>
-0.3010 <s> TO </s>
-0.3010 <s> TODAY </s>
-0.3010 <s> TOMORROW </s>
-0.3010 <s> TRAY </s>
-0.3010 <s> TV </s>
-0.3010 <s> WAVING </s>
-0.3010 <s> WE </s>
-0.3010 <s> WEATHER </s>
-0.3010 <s> WEEK </s>
-0.3010 <s> WHAT </s>
-0.3010 <s> WHERE </s>
-0.3010 <s> WHICH </s>
-0.3010 <s> YES </s>
-0.3010 <s> YOU </s>
-0.3010 <s> YOUR </s>

\end\
