Language model created by QuickLM on Sat Jul  2 03:37:40 EDT 2016
Copyright (c) 1996-2010 Carnegie Mellon University and Alexander I. Rudnicky

The model is in standard ARPA format, designed by Doug Paul while he was at MITRE.

The code that was used to produce this language model is available in Open Source.
Please visit http://www.speech.cs.cmu.edu/tools/ for more information

The (fixed) discount mass is 0.5. The backoffs are computed using the ratio method.
This model based on a corpus of 147 sentences and 53 words

\data\
ngram 1=53
ngram 2=102
ngram 3=51

\1-grams:
-0.7782 </s> -0.3010
-0.7782 <s> -0.2218
-2.1673 A -0.2218
-2.1673 AN -0.2218
-2.6444 AND -0.2218
-2.3434 APPLE -0.2218
-2.3434 BABY -0.2218
-2.4683 BAR -0.2218
-2.6444 BEER -0.2218
-2.3434 BISQUITS -0.2218
-2.9455 BRING -0.2218
-2.3434 CHIPS -0.2218
-2.3434 CHOCO -0.2218
-2.6444 COCONUT -0.2218
-2.6444 COKE -0.2218
-2.3434 EGG -0.2218
-2.9455 FOLLOW -0.2218
-2.4683 FOUR -0.2218
-2.9455 GET -0.2218
-2.9455 GO -0.2218
-2.6444 I -0.2218
-2.9455 IS -0.2218
-2.1673 KITCHEN -0.2218
-2.9455 LEFT -0.2218
-2.9455 ME -0.2218
-2.6444 MILK -0.2218
-2.9455 MY -0.2218
-2.3434 NICKEL -0.2218
-2.9455 NO -0.2218
-2.9455 ON -0.2218
-2.4683 ONE -0.2218
-2.9455 ORDER -0.2218
-2.3434 PAPRIKA -0.2218
-2.3434 PRETZELS -0.2218
-2.3434 PRINGLES -0.2218
-2.3434 PUMPER -0.2218
-2.9455 RIGHT -0.2218
-2.4683 ROBOT -0.2218
-2.9455 STOP -0.2218
-2.3434 SWEETS -0.2218
-2.3434 SYRUP -0.2218
-1.8663 TABLE -0.2218
-2.4683 TAKE -0.2218
-2.6444 TEA -0.2218
-2.1004 THE -0.2218
-2.4683 THREE -0.2218
-2.6444 TO -0.2218
-2.4683 TWO -0.2218
-2.9455 WAITING -0.2218
-2.6444 WANT -0.2218
-2.6444 WILL -0.2218
-2.6444 WITH -0.2218
-2.9455 YES -0.2218

\2-grams:
-1.6902 <s> A 0.0000
-1.6902 <s> AN 0.0000
-2.1673 <s> AND 0.0000
-1.8663 <s> APPLE 0.0000
-1.8663 <s> BABY 0.0000
-1.9912 <s> BAR 0.0000
-2.1673 <s> BEER 0.0000
-1.8663 <s> BISQUITS 0.0000
-2.4683 <s> BRING 0.0000
-1.8663 <s> CHIPS 0.0000
-1.8663 <s> CHOCO 0.0000
-2.1673 <s> COCONUT 0.0000
-2.1673 <s> COKE 0.0000
-1.8663 <s> EGG 0.0000
-2.4683 <s> FOLLOW 0.0000
-1.9912 <s> FOUR 0.0000
-2.4683 <s> GET 0.0000
-2.4683 <s> GO 0.0000
-2.1673 <s> I 0.0000
-2.4683 <s> IS 0.0000
-1.6902 <s> KITCHEN 0.0000
-2.4683 <s> LEFT 0.0000
-2.4683 <s> ME 0.0000
-2.1673 <s> MILK 0.0000
-2.4683 <s> MY 0.0000
-1.8663 <s> NICKEL 0.0000
-2.4683 <s> NO 0.0000
-2.4683 <s> ON 0.0000
-1.9912 <s> ONE 0.0000
-2.4683 <s> ORDER 0.0000
-1.8663 <s> PAPRIKA 0.0000
-1.8663 <s> PRETZELS 0.0000
-1.8663 <s> PRINGLES 0.0000
-1.8663 <s> PUMPER 0.0000
-2.4683 <s> RIGHT 0.0000
-1.9912 <s> ROBOT 0.0000
-2.4683 <s> STOP 0.0000
-1.8663 <s> SWEETS 0.0000
-1.8663 <s> SYRUP 0.0000
-1.3892 <s> TABLE 0.0000
-1.9912 <s> TAKE 0.0000
-2.1673 <s> TEA 0.0000
-1.6232 <s> THE 0.0000
-1.9912 <s> THREE 0.0000
-2.1673 <s> TO 0.0000
-1.9912 <s> TWO 0.0000
-2.4683 <s> WAITING 0.0000
-2.1673 <s> WANT 0.0000
-2.1673 <s> WILL 0.0000
-2.1673 <s> WITH 0.0000
-2.4683 <s> YES 0.0000
-0.3010 A </s> -0.3010
-0.3010 AN </s> -0.3010
-0.3010 AND </s> -0.3010
-0.3010 APPLE </s> -0.3010
-0.3010 BABY </s> -0.3010
-0.3010 BAR </s> -0.3010
-0.3010 BEER </s> -0.3010
-0.3010 BISQUITS </s> -0.3010
-0.3010 BRING </s> -0.3010
-0.3010 CHIPS </s> -0.3010
-0.3010 CHOCO </s> -0.3010
-0.3010 COCONUT </s> -0.3010
-0.3010 COKE </s> -0.3010
-0.3010 EGG </s> -0.3010
-0.3010 FOLLOW </s> -0.3010
-0.3010 FOUR </s> -0.3010
-0.3010 GET </s> -0.3010
-0.3010 GO </s> -0.3010
-0.3010 I </s> -0.3010
-0.3010 IS </s> -0.3010
-0.3010 KITCHEN </s> -0.3010
-0.3010 LEFT </s> -0.3010
-0.3010 ME </s> -0.3010
-0.3010 MILK </s> -0.3010
-0.3010 MY </s> -0.3010
-0.3010 NICKEL </s> -0.3010
-0.3010 NO </s> -0.3010
-0.3010 ON </s> -0.3010
-0.3010 ONE </s> -0.3010
-0.3010 ORDER </s> -0.3010
-0.3010 PAPRIKA </s> -0.3010
-0.3010 PRETZELS </s> -0.3010
-0.3010 PRINGLES </s> -0.3010
-0.3010 PUMPER </s> -0.3010
-0.3010 RIGHT </s> -0.3010
-0.3010 ROBOT </s> -0.3010
-0.3010 STOP </s> -0.3010
-0.3010 SWEETS </s> -0.3010
-0.3010 SYRUP </s> -0.3010
-0.3010 TABLE </s> -0.3010
-0.3010 TAKE </s> -0.3010
-0.3010 TEA </s> -0.3010
-0.3010 THE </s> -0.3010
-0.3010 THREE </s> -0.3010
-0.3010 TO </s> -0.3010
-0.3010 TWO </s> -0.3010
-0.3010 WAITING </s> -0.3010
-0.3010 WANT </s> -0.3010
-0.3010 WILL </s> -0.3010
-0.3010 WITH </s> -0.3010
-0.3010 YES </s> -0.3010

\3-grams:
-0.3010 <s> A </s>
-0.3010 <s> AN </s>
-0.3010 <s> AND </s>
-0.3010 <s> APPLE </s>
-0.3010 <s> BABY </s>
-0.3010 <s> BAR </s>
-0.3010 <s> BEER </s>
-0.3010 <s> BISQUITS </s>
-0.3010 <s> BRING </s>
-0.3010 <s> CHIPS </s>
-0.3010 <s> CHOCO </s>
-0.3010 <s> COCONUT </s>
-0.3010 <s> COKE </s>
-0.3010 <s> EGG </s>
-0.3010 <s> FOLLOW </s>
-0.3010 <s> FOUR </s>
-0.3010 <s> GET </s>
-0.3010 <s> GO </s>
-0.3010 <s> I </s>
-0.3010 <s> IS </s>
-0.3010 <s> KITCHEN </s>
-0.3010 <s> LEFT </s>
-0.3010 <s> ME </s>
-0.3010 <s> MILK </s>
-0.3010 <s> MY </s>
-0.3010 <s> NICKEL </s>
-0.3010 <s> NO </s>
-0.3010 <s> ON </s>
-0.3010 <s> ONE </s>
-0.3010 <s> ORDER </s>
-0.3010 <s> PAPRIKA </s>
-0.3010 <s> PRETZELS </s>
-0.3010 <s> PRINGLES </s>
-0.3010 <s> PUMPER </s>
-0.3010 <s> RIGHT </s>
-0.3010 <s> ROBOT </s>
-0.3010 <s> STOP </s>
-0.3010 <s> SWEETS </s>
-0.3010 <s> SYRUP </s>
-0.3010 <s> TABLE </s>
-0.3010 <s> TAKE </s>
-0.3010 <s> TEA </s>
-0.3010 <s> THE </s>
-0.3010 <s> THREE </s>
-0.3010 <s> TO </s>
-0.3010 <s> TWO </s>
-0.3010 <s> WAITING </s>
-0.3010 <s> WANT </s>
-0.3010 <s> WILL </s>
-0.3010 <s> WITH </s>
-0.3010 <s> YES </s>

\end\
