Language model created by QuickLM on Thu Mar 24 03:14:42 EDT 2016
Copyright (c) 1996-2010 Carnegie Mellon University and Alexander I. Rudnicky

The model is in standard ARPA format, designed by Doug Paul while he was at MITRE.

The code that was used to produce this language model is available in Open Source.
Please visit http://www.speech.cs.cmu.edu/tools/ for more information

The (fixed) discount mass is 0.5. The backoffs are computed using the ratio method.
This model based on a corpus of 346 sentences and 105 words

\data\
ngram 1=105
ngram 2=206
ngram 3=103

\1-grams:
-0.7782 </s> -0.3010
-0.7782 <s> -0.2218
-1.9555 A -0.2218
-3.3172 AFFILIATION -0.2218
-1.9555 AN -0.2218
-2.7152 AND -0.2218
-3.0162 ANSWER -0.2218
-3.0162 APARTMENT -0.2218
-3.0162 APPLE -0.2218
-3.0162 ARE -0.2218
-3.3172 AT -0.2218
-3.0162 AU -0.2218
-3.0162 BAR -0.2218
-2.7152 BATHROOM -0.2218
-3.0162 BED -0.2218
-2.7152 BEDROOM -0.2218
-2.7152 BEDSIDE -0.2218
-3.0162 BOOKCASE -0.2218
-3.0162 BOWL -0.2218
-3.3172 BRING -0.2218
-3.0162 CAFE -0.2218
-3.3172 CARRY -0.2218
-3.0162 CASE -0.2218
-3.0162 CHIPS -0.2218
-3.0162 COOKIE -0.2218
-3.0162 COUCH -0.2218
-3.0162 COUNTER -0.2218
-3.0162 CUP -0.2218
-3.0162 CUPBOARD -0.2218
-2.8401 DATE -0.2218
-2.6183 DAY -0.2218
-3.3172 DELIVER -0.2218
-3.0162 DESK -0.2218
-3.0162 DINNER -0.2218
-3.0162 DOOR -0.2218
-3.0162 EGG -0.2218
-2.8401 FIND -0.2218
-3.3172 FOLLOW -0.2218
-2.8401 FOR -0.2218
-3.0162 FROM -0.2218
-3.0162 GET -0.2218
-3.3172 GO -0.2218
-3.3172 GRASP -0.2218
-3.0162 GREEN -0.2218
-2.5391 HALLWAY -0.2218
-3.3172 HER -0.2218
-3.3172 HOW -0.2218
-3.0162 ICED -0.2218
-2.8401 IN -0.2218
-3.3172 INTO -0.2218
-2.3630 IS -0.2218
-2.8401 IT -0.2218
-2.7152 JUICE -0.2218
-2.4141 KITCHEN -0.2218
-3.0162 LAIT -0.2218
-3.0162 LEFT -0.2218
-2.7152 LIVING -0.2218
-2.8401 LOOK -0.2218
-3.0162 ME -0.2218
-3.0162 MONTH -0.2218
-2.4721 NAME -0.2218
-3.3172 NAVIGATE -0.2218
-3.3172 NO -0.2218
-2.6183 OF -0.2218
-2.7152 ORANGE -0.2218
-3.0162 PERSON -0.2218
-3.3172 PLEASE -0.2218
-3.0162 POTAGE -0.2218
-2.7152 POTATO -0.2218
-3.0162 QUESTION -0.2218
-3.3172 REACH -0.2218
-3.0162 RECEPTION -0.2218
-3.0162 RIGHT -0.2218
-3.3172 ROBOT -0.2218
-2.7152 ROOM -0.2218
-3.0162 SAY -0.2218
-3.0162 SHOW -0.2218
-3.0162 SIDE -0.2218
-3.0162 SINK -0.2218
-3.0162 SMALL -0.2218
-3.0162 SOFA -0.2218
-2.7152 SOUP -0.2218
-3.0162 SPEAK -0.2218
-3.0162 STICK -0.2218
-3.0162 STRAWBERRY -0.2218
-2.0620 TABLE -0.2218
-3.0162 TAKE -0.2218
-2.7152 TEA -0.2218
-2.8401 TEAM -0.2218
-2.4721 TELL -0.2218
-1.9193 THE -0.2218
-2.7152 TIME -0.2218
-2.7152 TO -0.2218
-2.6183 TODAY -0.2218
-3.0162 TOMORROW -0.2218
-3.0162 TRAY -0.2218
-3.3172 WE -0.2218
-3.3172 WEATHER -0.2218
-3.0162 WEEK -0.2218
-2.4721 WHAT -0.2218
-3.0162 WHERE -0.2218
-3.3172 WHICH -0.2218
-3.3172 YES -0.2218
-3.3172 YOU -0.2218
-2.4141 YOUR -0.2218

\2-grams:
-1.4784 <s> A 0.0000
-2.8401 <s> AFFILIATION 0.0000
-1.4784 <s> AN 0.0000
-2.2380 <s> AND 0.0000
-2.5391 <s> ANSWER 0.0000
-2.5391 <s> APARTMENT 0.0000
-2.5391 <s> APPLE 0.0000
-2.5391 <s> ARE 0.0000
-2.8401 <s> AT 0.0000
-2.5391 <s> AU 0.0000
-2.5391 <s> BAR 0.0000
-2.2380 <s> BATHROOM 0.0000
-2.5391 <s> BED 0.0000
-2.2380 <s> BEDROOM 0.0000
-2.2380 <s> BEDSIDE 0.0000
-2.5391 <s> BOOKCASE 0.0000
-2.5391 <s> BOWL 0.0000
-2.8401 <s> BRING 0.0000
-2.5391 <s> CAFE 0.0000
-2.8401 <s> CARRY 0.0000
-2.5391 <s> CASE 0.0000
-2.5391 <s> CHIPS 0.0000
-2.5391 <s> COOKIE 0.0000
-2.5391 <s> COUCH 0.0000
-2.5391 <s> COUNTER 0.0000
-2.5391 <s> CUP 0.0000
-2.5391 <s> CUPBOARD 0.0000
-2.3630 <s> DATE 0.0000
-2.1411 <s> DAY 0.0000
-2.8401 <s> DELIVER 0.0000
-2.5391 <s> DESK 0.0000
-2.5391 <s> DINNER 0.0000
-2.5391 <s> DOOR 0.0000
-2.5391 <s> EGG 0.0000
-2.3630 <s> FIND 0.0000
-2.8401 <s> FOLLOW 0.0000
-2.3630 <s> FOR 0.0000
-2.5391 <s> FROM 0.0000
-2.5391 <s> GET 0.0000
-2.8401 <s> GO 0.0000
-2.8401 <s> GRASP 0.0000
-2.5391 <s> GREEN 0.0000
-2.0620 <s> HALLWAY 0.0000
-2.8401 <s> HER 0.0000
-2.8401 <s> HOW 0.0000
-2.5391 <s> ICED 0.0000
-2.3630 <s> IN 0.0000
-2.8401 <s> INTO 0.0000
-1.8859 <s> IS 0.0000
-2.3630 <s> IT 0.0000
-2.2380 <s> JUICE 0.0000
-1.9370 <s> KITCHEN 0.0000
-2.5391 <s> LAIT 0.0000
-2.5391 <s> LEFT 0.0000
-2.2380 <s> LIVING 0.0000
-2.3630 <s> LOOK 0.0000
-2.5391 <s> ME 0.0000
-2.5391 <s> MONTH 0.0000
-1.9950 <s> NAME 0.0000
-2.8401 <s> NAVIGATE 0.0000
-2.8401 <s> NO 0.0000
-2.1411 <s> OF 0.0000
-2.2380 <s> ORANGE 0.0000
-2.5391 <s> PERSON 0.0000
-2.8401 <s> PLEASE 0.0000
-2.5391 <s> POTAGE 0.0000
-2.2380 <s> POTATO 0.0000
-2.5391 <s> QUESTION 0.0000
-2.8401 <s> REACH 0.0000
-2.5391 <s> RECEPTION 0.0000
-2.5391 <s> RIGHT 0.0000
-2.8401 <s> ROBOT 0.0000
-2.2380 <s> ROOM 0.0000
-2.5391 <s> SAY 0.0000
-2.5391 <s> SHOW 0.0000
-2.5391 <s> SIDE 0.0000
-2.5391 <s> SINK 0.0000
-2.5391 <s> SMALL 0.0000
-2.5391 <s> SOFA 0.0000
-2.2380 <s> SOUP 0.0000
-2.5391 <s> SPEAK 0.0000
-2.5391 <s> STICK 0.0000
-2.5391 <s> STRAWBERRY 0.0000
-1.5848 <s> TABLE 0.0000
-2.5391 <s> TAKE 0.0000
-2.2380 <s> TEA 0.0000
-2.3630 <s> TEAM 0.0000
-1.9950 <s> TELL 0.0000
-1.4422 <s> THE 0.0000
-2.2380 <s> TIME 0.0000
-2.2380 <s> TO 0.0000
-2.1411 <s> TODAY 0.0000
-2.5391 <s> TOMORROW 0.0000
-2.5391 <s> TRAY 0.0000
-2.8401 <s> WE 0.0000
-2.8401 <s> WEATHER 0.0000
-2.5391 <s> WEEK 0.0000
-1.9950 <s> WHAT 0.0000
-2.5391 <s> WHERE 0.0000
-2.8401 <s> WHICH 0.0000
-2.8401 <s> YES 0.0000
-2.8401 <s> YOU 0.0000
-1.9370 <s> YOUR 0.0000
-0.3010 A </s> -0.3010
-0.3010 AFFILIATION </s> -0.3010
-0.3010 AN </s> -0.3010
-0.3010 AND </s> -0.3010
-0.3010 ANSWER </s> -0.3010
-0.3010 APARTMENT </s> -0.3010
-0.3010 APPLE </s> -0.3010
-0.3010 ARE </s> -0.3010
-0.3010 AT </s> -0.3010
-0.3010 AU </s> -0.3010
-0.3010 BAR </s> -0.3010
-0.3010 BATHROOM </s> -0.3010
-0.3010 BED </s> -0.3010
-0.3010 BEDROOM </s> -0.3010
-0.3010 BEDSIDE </s> -0.3010
-0.3010 BOOKCASE </s> -0.3010
-0.3010 BOWL </s> -0.3010
-0.3010 BRING </s> -0.3010
-0.3010 CAFE </s> -0.3010
-0.3010 CARRY </s> -0.3010
-0.3010 CASE </s> -0.3010
-0.3010 CHIPS </s> -0.3010
-0.3010 COOKIE </s> -0.3010
-0.3010 COUCH </s> -0.3010
-0.3010 COUNTER </s> -0.3010
-0.3010 CUP </s> -0.3010
-0.3010 CUPBOARD </s> -0.3010
-0.3010 DATE </s> -0.3010
-0.3010 DAY </s> -0.3010
-0.3010 DELIVER </s> -0.3010
-0.3010 DESK </s> -0.3010
-0.3010 DINNER </s> -0.3010
-0.3010 DOOR </s> -0.3010
-0.3010 EGG </s> -0.3010
-0.3010 FIND </s> -0.3010
-0.3010 FOLLOW </s> -0.3010
-0.3010 FOR </s> -0.3010
-0.3010 FROM </s> -0.3010
-0.3010 GET </s> -0.3010
-0.3010 GO </s> -0.3010
-0.3010 GRASP </s> -0.3010
-0.3010 GREEN </s> -0.3010
-0.3010 HALLWAY </s> -0.3010
-0.3010 HER </s> -0.3010
-0.3010 HOW </s> -0.3010
-0.3010 ICED </s> -0.3010
-0.3010 IN </s> -0.3010
-0.3010 INTO </s> -0.3010
-0.3010 IS </s> -0.3010
-0.3010 IT </s> -0.3010
-0.3010 JUICE </s> -0.3010
-0.3010 KITCHEN </s> -0.3010
-0.3010 LAIT </s> -0.3010
-0.3010 LEFT </s> -0.3010
-0.3010 LIVING </s> -0.3010
-0.3010 LOOK </s> -0.3010
-0.3010 ME </s> -0.3010
-0.3010 MONTH </s> -0.3010
-0.3010 NAME </s> -0.3010
-0.3010 NAVIGATE </s> -0.3010
-0.3010 NO </s> -0.3010
-0.3010 OF </s> -0.3010
-0.3010 ORANGE </s> -0.3010
-0.3010 PERSON </s> -0.3010
-0.3010 PLEASE </s> -0.3010
-0.3010 POTAGE </s> -0.3010
-0.3010 POTATO </s> -0.3010
-0.3010 QUESTION </s> -0.3010
-0.3010 REACH </s> -0.3010
-0.3010 RECEPTION </s> -0.3010
-0.3010 RIGHT </s> -0.3010
-0.3010 ROBOT </s> -0.3010
-0.3010 ROOM </s> -0.3010
-0.3010 SAY </s> -0.3010
-0.3010 SHOW </s> -0.3010
-0.3010 SIDE </s> -0.3010
-0.3010 SINK </s> -0.3010
-0.3010 SMALL </s> -0.3010
-0.3010 SOFA </s> -0.3010
-0.3010 SOUP </s> -0.3010
-0.3010 SPEAK </s> -0.3010
-0.3010 STICK </s> -0.3010
-0.3010 STRAWBERRY </s> -0.3010
-0.3010 TABLE </s> -0.3010
-0.3010 TAKE </s> -0.3010
-0.3010 TEA </s> -0.3010
-0.3010 TEAM </s> -0.3010
-0.3010 TELL </s> -0.3010
-0.3010 THE </s> -0.3010
-0.3010 TIME </s> -0.3010
-0.3010 TO </s> -0.3010
-0.3010 TODAY </s> -0.3010
-0.3010 TOMORROW </s> -0.3010
-0.3010 TRAY </s> -0.3010
-0.3010 WE </s> -0.3010
-0.3010 WEATHER </s> -0.3010
-0.3010 WEEK </s> -0.3010
-0.3010 WHAT </s> -0.3010
-0.3010 WHERE </s> -0.3010
-0.3010 WHICH </s> -0.3010
-0.3010 YES </s> -0.3010
-0.3010 YOU </s> -0.3010
-0.3010 YOUR </s> -0.3010

\3-grams:
-0.3010 <s> A </s>
-0.3010 <s> AFFILIATION </s>
-0.3010 <s> AN </s>
-0.3010 <s> AND </s>
-0.3010 <s> ANSWER </s>
-0.3010 <s> APARTMENT </s>
-0.3010 <s> APPLE </s>
-0.3010 <s> ARE </s>
-0.3010 <s> AT </s>
-0.3010 <s> AU </s>
-0.3010 <s> BAR </s>
-0.3010 <s> BATHROOM </s>
-0.3010 <s> BED </s>
-0.3010 <s> BEDROOM </s>
-0.3010 <s> BEDSIDE </s>
-0.3010 <s> BOOKCASE </s>
-0.3010 <s> BOWL </s>
-0.3010 <s> BRING </s>
-0.3010 <s> CAFE </s>
-0.3010 <s> CARRY </s>
-0.3010 <s> CASE </s>
-0.3010 <s> CHIPS </s>
-0.3010 <s> COOKIE </s>
-0.3010 <s> COUCH </s>
-0.3010 <s> COUNTER </s>
-0.3010 <s> CUP </s>
-0.3010 <s> CUPBOARD </s>
-0.3010 <s> DATE </s>
-0.3010 <s> DAY </s>
-0.3010 <s> DELIVER </s>
-0.3010 <s> DESK </s>
-0.3010 <s> DINNER </s>
-0.3010 <s> DOOR </s>
-0.3010 <s> EGG </s>
-0.3010 <s> FIND </s>
-0.3010 <s> FOLLOW </s>
-0.3010 <s> FOR </s>
-0.3010 <s> FROM </s>
-0.3010 <s> GET </s>
-0.3010 <s> GO </s>
-0.3010 <s> GRASP </s>
-0.3010 <s> GREEN </s>
-0.3010 <s> HALLWAY </s>
-0.3010 <s> HER </s>
-0.3010 <s> HOW </s>
-0.3010 <s> ICED </s>
-0.3010 <s> IN </s>
-0.3010 <s> INTO </s>
-0.3010 <s> IS </s>
-0.3010 <s> IT </s>
-0.3010 <s> JUICE </s>
-0.3010 <s> KITCHEN </s>
-0.3010 <s> LAIT </s>
-0.3010 <s> LEFT </s>
-0.3010 <s> LIVING </s>
-0.3010 <s> LOOK </s>
-0.3010 <s> ME </s>
-0.3010 <s> MONTH </s>
-0.3010 <s> NAME </s>
-0.3010 <s> NAVIGATE </s>
-0.3010 <s> NO </s>
-0.3010 <s> OF </s>
-0.3010 <s> ORANGE </s>
-0.3010 <s> PERSON </s>
-0.3010 <s> PLEASE </s>
-0.3010 <s> POTAGE </s>
-0.3010 <s> POTATO </s>
-0.3010 <s> QUESTION </s>
-0.3010 <s> REACH </s>
-0.3010 <s> RECEPTION </s>
-0.3010 <s> RIGHT </s>
-0.3010 <s> ROBOT </s>
-0.3010 <s> ROOM </s>
-0.3010 <s> SAY </s>
-0.3010 <s> SHOW </s>
-0.3010 <s> SIDE </s>
-0.3010 <s> SINK </s>
-0.3010 <s> SMALL </s>
-0.3010 <s> SOFA </s>
-0.3010 <s> SOUP </s>
-0.3010 <s> SPEAK </s>
-0.3010 <s> STICK </s>
-0.3010 <s> STRAWBERRY </s>
-0.3010 <s> TABLE </s>
-0.3010 <s> TAKE </s>
-0.3010 <s> TEA </s>
-0.3010 <s> TEAM </s>
-0.3010 <s> TELL </s>
-0.3010 <s> THE </s>
-0.3010 <s> TIME </s>
-0.3010 <s> TO </s>
-0.3010 <s> TODAY </s>
-0.3010 <s> TOMORROW </s>
-0.3010 <s> TRAY </s>
-0.3010 <s> WE </s>
-0.3010 <s> WEATHER </s>
-0.3010 <s> WEEK </s>
-0.3010 <s> WHAT </s>
-0.3010 <s> WHERE </s>
-0.3010 <s> WHICH </s>
-0.3010 <s> YES </s>
-0.3010 <s> YOU </s>
-0.3010 <s> YOUR </s>

\end\
