Language model created by QuickLM on Mon Mar 21 15:08:30 EDT 2016
Copyright (c) 1996-2010 Carnegie Mellon University and Alexander I. Rudnicky

The model is in standard ARPA format, designed by Doug Paul while he was at MITRE.

The code that was used to produce this language model is available in Open Source.
Please visit http://www.speech.cs.cmu.edu/tools/ for more information

The (fixed) discount mass is 0.5. The backoffs are computed using the ratio method.
This model based on a corpus of 302 sentences and 113 words

\data\
ngram 1=113
ngram 2=222
ngram 3=111

\1-grams:
-0.7782 </s> -0.3010
-0.7782 <s> -0.2218
-2.6561 A -0.2218
-2.6561 AND -0.2218
-2.9571 ANSWER -0.2218
-2.9571 APARTMENT -0.2218
-3.2582 AT -0.2218
-2.9571 BALLS -0.2218
-2.9571 BANANA -0.2218
-2.9571 BAR -0.2218
-2.9571 BARBECUE -0.2218
-2.6561 BATHROOM -0.2218
-2.9571 BEAN -0.2218
-2.9571 BED -0.2218
-2.6561 BEDROOM -0.2218
-2.6561 BEDSIDE -0.2218
-2.9571 BEER -0.2218
-2.9571 BISCUITS -0.2218
-2.9571 BOOKCASE -0.2218
-3.2582 BRING -0.2218
-2.9571 BUBBLE -0.2218
-2.9571 CAKE -0.2218
-3.2582 CARRY -0.2218
-2.9571 CASE -0.2218
-2.9571 CEREALS -0.2218
-2.4800 CHIPS -0.2218
-2.9571 CHOCOLATES -0.2218
-2.9571 COCO -0.2218
-2.9571 COCONUT -0.2218
-2.9571 COFFEE -0.2218
-2.9571 COKE -0.2218
-2.9571 COUCH -0.2218
-2.9571 COUNTER -0.2218
-2.9571 CRACKERS -0.2218
-2.9571 CUP -0.2218
-2.9571 CUPBOARD -0.2218
-2.9571 DATE -0.2218
-2.6561 DAY -0.2218
-3.2582 DELIVER -0.2218
-2.9571 DESK -0.2218
-2.9571 DINNER -0.2218
-2.9571 DOOR -0.2218
-2.9571 EGG -0.2218
-2.7810 FIND -0.2218
-3.2582 FOLLOW -0.2218
-2.7810 FOR -0.2218
-3.2582 FROM -0.2218
-2.9571 GET -0.2218
-3.2582 GO -0.2218
-2.9571 GRAM -0.2218
-3.2582 GRASP -0.2218
-2.6561 GREEN -0.2218
-2.9571 GUM -0.2218
-2.4800 HALLWAY -0.2218
-3.2582 HER -0.2218
-2.9571 HONEY -0.2218
-2.7810 IN -0.2218
-3.2582 INTO -0.2218
-2.5592 IS -0.2218
-2.7810 IT -0.2218
-2.9571 JUICE -0.2218
-2.3551 KITCHEN -0.2218
-2.9571 LEFT -0.2218
-2.6561 LIVING -0.2218
-2.7810 LOOK -0.2218
-2.9571 LOTION -0.2218
-3.2582 ME -0.2218
-2.6561 MILK -0.2218
-2.9571 MONTH -0.2218
-2.4800 NAME -0.2218
-3.2582 NAVIGATE -0.2218
-3.2582 NO -0.2218
-2.5592 OF -0.2218
-2.9571 ORANGE -0.2218
-2.9571 PAPAYA -0.2218
-2.9571 PERSON -0.2218
-2.9571 PURE -0.2218
-2.9571 QUESTION -0.2218
-3.2582 REACH -0.2218
-2.9571 RECEPTION -0.2218
-2.9571 RIGHT -0.2218
-3.2582 ROBOT -0.2218
-2.6561 ROOM -0.2218
-2.9571 SAUCE -0.2218
-2.9571 SAY -0.2218
-2.9571 SHOW -0.2218
-2.9571 SIDE -0.2218
-2.9571 SINK -0.2218
-2.9571 SMALL -0.2218
-2.9571 SOAP -0.2218
-2.9571 SODA -0.2218
-2.9571 SOFA -0.2218
-2.9571 SOUP -0.2218
-2.9571 SPEAK -0.2218
-2.9571 STARS -0.2218
-2.0029 TABLE -0.2218
-2.9571 TAKE -0.2218
-2.9571 TEA -0.2218
-2.7810 TEAM -0.2218
-2.4800 TELL -0.2218
-1.9794 THE -0.2218
-2.6561 TIME -0.2218
-2.6561 TO -0.2218
-2.9571 TODAY -0.2218
-2.9571 TOMATO -0.2218
-2.9571 TOMORROW -0.2218
-2.9571 TOY -0.2218
-2.9571 WATER -0.2218
-2.9571 WEEK -0.2218
-2.6561 WHAT -0.2218
-3.2582 WHICH -0.2218
-3.2582 YES -0.2218
-2.4800 YOUR -0.2218

\2-grams:
-2.1790 <s> A 0.0000
-2.1790 <s> AND 0.0000
-2.4800 <s> ANSWER 0.0000
-2.4800 <s> APARTMENT 0.0000
-2.7810 <s> AT 0.0000
-2.4800 <s> BALLS 0.0000
-2.4800 <s> BANANA 0.0000
-2.4800 <s> BAR 0.0000
-2.4800 <s> BARBECUE 0.0000
-2.1790 <s> BATHROOM 0.0000
-2.4800 <s> BEAN 0.0000
-2.4800 <s> BED 0.0000
-2.1790 <s> BEDROOM 0.0000
-2.1790 <s> BEDSIDE 0.0000
-2.4800 <s> BEER 0.0000
-2.4800 <s> BISCUITS 0.0000
-2.4800 <s> BOOKCASE 0.0000
-2.7810 <s> BRING 0.0000
-2.4800 <s> BUBBLE 0.0000
-2.4800 <s> CAKE 0.0000
-2.7810 <s> CARRY 0.0000
-2.4800 <s> CASE 0.0000
-2.4800 <s> CEREALS 0.0000
-2.0029 <s> CHIPS 0.0000
-2.4800 <s> CHOCOLATES 0.0000
-2.4800 <s> COCO 0.0000
-2.4800 <s> COCONUT 0.0000
-2.4800 <s> COFFEE 0.0000
-2.4800 <s> COKE 0.0000
-2.4800 <s> COUCH 0.0000
-2.4800 <s> COUNTER 0.0000
-2.4800 <s> CRACKERS 0.0000
-2.4800 <s> CUP 0.0000
-2.4800 <s> CUPBOARD 0.0000
-2.4800 <s> DATE 0.0000
-2.1790 <s> DAY 0.0000
-2.7810 <s> DELIVER 0.0000
-2.4800 <s> DESK 0.0000
-2.4800 <s> DINNER 0.0000
-2.4800 <s> DOOR 0.0000
-2.4800 <s> EGG 0.0000
-2.3039 <s> FIND 0.0000
-2.7810 <s> FOLLOW 0.0000
-2.3039 <s> FOR 0.0000
-2.7810 <s> FROM 0.0000
-2.4800 <s> GET 0.0000
-2.7810 <s> GO 0.0000
-2.4800 <s> GRAM 0.0000
-2.7810 <s> GRASP 0.0000
-2.1790 <s> GREEN 0.0000
-2.4800 <s> GUM 0.0000
-2.0029 <s> HALLWAY 0.0000
-2.7810 <s> HER 0.0000
-2.4800 <s> HONEY 0.0000
-2.3039 <s> IN 0.0000
-2.7810 <s> INTO 0.0000
-2.0821 <s> IS 0.0000
-2.3039 <s> IT 0.0000
-2.4800 <s> JUICE 0.0000
-1.8779 <s> KITCHEN 0.0000
-2.4800 <s> LEFT 0.0000
-2.1790 <s> LIVING 0.0000
-2.3039 <s> LOOK 0.0000
-2.4800 <s> LOTION 0.0000
-2.7810 <s> ME 0.0000
-2.1790 <s> MILK 0.0000
-2.4800 <s> MONTH 0.0000
-2.0029 <s> NAME 0.0000
-2.7810 <s> NAVIGATE 0.0000
-2.7810 <s> NO 0.0000
-2.0821 <s> OF 0.0000
-2.4800 <s> ORANGE 0.0000
-2.4800 <s> PAPAYA 0.0000
-2.4800 <s> PERSON 0.0000
-2.4800 <s> PURE 0.0000
-2.4800 <s> QUESTION 0.0000
-2.7810 <s> REACH 0.0000
-2.4800 <s> RECEPTION 0.0000
-2.4800 <s> RIGHT 0.0000
-2.7810 <s> ROBOT 0.0000
-2.1790 <s> ROOM 0.0000
-2.4800 <s> SAUCE 0.0000
-2.4800 <s> SAY 0.0000
-2.4800 <s> SHOW 0.0000
-2.4800 <s> SIDE 0.0000
-2.4800 <s> SINK 0.0000
-2.4800 <s> SMALL 0.0000
-2.4800 <s> SOAP 0.0000
-2.4800 <s> SODA 0.0000
-2.4800 <s> SOFA 0.0000
-2.4800 <s> SOUP 0.0000
-2.4800 <s> SPEAK 0.0000
-2.4800 <s> STARS 0.0000
-1.5258 <s> TABLE 0.0000
-2.4800 <s> TAKE 0.0000
-2.4800 <s> TEA 0.0000
-2.3039 <s> TEAM 0.0000
-2.0029 <s> TELL 0.0000
-1.5023 <s> THE 0.0000
-2.1790 <s> TIME 0.0000
-2.1790 <s> TO 0.0000
-2.4800 <s> TODAY 0.0000
-2.4800 <s> TOMATO 0.0000
-2.4800 <s> TOMORROW 0.0000
-2.4800 <s> TOY 0.0000
-2.4800 <s> WATER 0.0000
-2.4800 <s> WEEK 0.0000
-2.1790 <s> WHAT 0.0000
-2.7810 <s> WHICH 0.0000
-2.7810 <s> YES 0.0000
-2.0029 <s> YOUR 0.0000
-0.3010 A </s> -0.3010
-0.3010 AND </s> -0.3010
-0.3010 ANSWER </s> -0.3010
-0.3010 APARTMENT </s> -0.3010
-0.3010 AT </s> -0.3010
-0.3010 BALLS </s> -0.3010
-0.3010 BANANA </s> -0.3010
-0.3010 BAR </s> -0.3010
-0.3010 BARBECUE </s> -0.3010
-0.3010 BATHROOM </s> -0.3010
-0.3010 BEAN </s> -0.3010
-0.3010 BED </s> -0.3010
-0.3010 BEDROOM </s> -0.3010
-0.3010 BEDSIDE </s> -0.3010
-0.3010 BEER </s> -0.3010
-0.3010 BISCUITS </s> -0.3010
-0.3010 BOOKCASE </s> -0.3010
-0.3010 BRING </s> -0.3010
-0.3010 BUBBLE </s> -0.3010
-0.3010 CAKE </s> -0.3010
-0.3010 CARRY </s> -0.3010
-0.3010 CASE </s> -0.3010
-0.3010 CEREALS </s> -0.3010
-0.3010 CHIPS </s> -0.3010
-0.3010 CHOCOLATES </s> -0.3010
-0.3010 COCO </s> -0.3010
-0.3010 COCONUT </s> -0.3010
-0.3010 COFFEE </s> -0.3010
-0.3010 COKE </s> -0.3010
-0.3010 COUCH </s> -0.3010
-0.3010 COUNTER </s> -0.3010
-0.3010 CRACKERS </s> -0.3010
-0.3010 CUP </s> -0.3010
-0.3010 CUPBOARD </s> -0.3010
-0.3010 DATE </s> -0.3010
-0.3010 DAY </s> -0.3010
-0.3010 DELIVER </s> -0.3010
-0.3010 DESK </s> -0.3010
-0.3010 DINNER </s> -0.3010
-0.3010 DOOR </s> -0.3010
-0.3010 EGG </s> -0.3010
-0.3010 FIND </s> -0.3010
-0.3010 FOLLOW </s> -0.3010
-0.3010 FOR </s> -0.3010
-0.3010 FROM </s> -0.3010
-0.3010 GET </s> -0.3010
-0.3010 GO </s> -0.3010
-0.3010 GRAM </s> -0.3010
-0.3010 GRASP </s> -0.3010
-0.3010 GREEN </s> -0.3010
-0.3010 GUM </s> -0.3010
-0.3010 HALLWAY </s> -0.3010
-0.3010 HER </s> -0.3010
-0.3010 HONEY </s> -0.3010
-0.3010 IN </s> -0.3010
-0.3010 INTO </s> -0.3010
-0.3010 IS </s> -0.3010
-0.3010 IT </s> -0.3010
-0.3010 JUICE </s> -0.3010
-0.3010 KITCHEN </s> -0.3010
-0.3010 LEFT </s> -0.3010
-0.3010 LIVING </s> -0.3010
-0.3010 LOOK </s> -0.3010
-0.3010 LOTION </s> -0.3010
-0.3010 ME </s> -0.3010
-0.3010 MILK </s> -0.3010
-0.3010 MONTH </s> -0.3010
-0.3010 NAME </s> -0.3010
-0.3010 NAVIGATE </s> -0.3010
-0.3010 NO </s> -0.3010
-0.3010 OF </s> -0.3010
-0.3010 ORANGE </s> -0.3010
-0.3010 PAPAYA </s> -0.3010
-0.3010 PERSON </s> -0.3010
-0.3010 PURE </s> -0.3010
-0.3010 QUESTION </s> -0.3010
-0.3010 REACH </s> -0.3010
-0.3010 RECEPTION </s> -0.3010
-0.3010 RIGHT </s> -0.3010
-0.3010 ROBOT </s> -0.3010
-0.3010 ROOM </s> -0.3010
-0.3010 SAUCE </s> -0.3010
-0.3010 SAY </s> -0.3010
-0.3010 SHOW </s> -0.3010
-0.3010 SIDE </s> -0.3010
-0.3010 SINK </s> -0.3010
-0.3010 SMALL </s> -0.3010
-0.3010 SOAP </s> -0.3010
-0.3010 SODA </s> -0.3010
-0.3010 SOFA </s> -0.3010
-0.3010 SOUP </s> -0.3010
-0.3010 SPEAK </s> -0.3010
-0.3010 STARS </s> -0.3010
-0.3010 TABLE </s> -0.3010
-0.3010 TAKE </s> -0.3010
-0.3010 TEA </s> -0.3010
-0.3010 TEAM </s> -0.3010
-0.3010 TELL </s> -0.3010
-0.3010 THE </s> -0.3010
-0.3010 TIME </s> -0.3010
-0.3010 TO </s> -0.3010
-0.3010 TODAY </s> -0.3010
-0.3010 TOMATO </s> -0.3010
-0.3010 TOMORROW </s> -0.3010
-0.3010 TOY </s> -0.3010
-0.3010 WATER </s> -0.3010
-0.3010 WEEK </s> -0.3010
-0.3010 WHAT </s> -0.3010
-0.3010 WHICH </s> -0.3010
-0.3010 YES </s> -0.3010
-0.3010 YOUR </s> -0.3010

\3-grams:
-0.3010 <s> A </s>
-0.3010 <s> AND </s>
-0.3010 <s> ANSWER </s>
-0.3010 <s> APARTMENT </s>
-0.3010 <s> AT </s>
-0.3010 <s> BALLS </s>
-0.3010 <s> BANANA </s>
-0.3010 <s> BAR </s>
-0.3010 <s> BARBECUE </s>
-0.3010 <s> BATHROOM </s>
-0.3010 <s> BEAN </s>
-0.3010 <s> BED </s>
-0.3010 <s> BEDROOM </s>
-0.3010 <s> BEDSIDE </s>
-0.3010 <s> BEER </s>
-0.3010 <s> BISCUITS </s>
-0.3010 <s> BOOKCASE </s>
-0.3010 <s> BRING </s>
-0.3010 <s> BUBBLE </s>
-0.3010 <s> CAKE </s>
-0.3010 <s> CARRY </s>
-0.3010 <s> CASE </s>
-0.3010 <s> CEREALS </s>
-0.3010 <s> CHIPS </s>
-0.3010 <s> CHOCOLATES </s>
-0.3010 <s> COCO </s>
-0.3010 <s> COCONUT </s>
-0.3010 <s> COFFEE </s>
-0.3010 <s> COKE </s>
-0.3010 <s> COUCH </s>
-0.3010 <s> COUNTER </s>
-0.3010 <s> CRACKERS </s>
-0.3010 <s> CUP </s>
-0.3010 <s> CUPBOARD </s>
-0.3010 <s> DATE </s>
-0.3010 <s> DAY </s>
-0.3010 <s> DELIVER </s>
-0.3010 <s> DESK </s>
-0.3010 <s> DINNER </s>
-0.3010 <s> DOOR </s>
-0.3010 <s> EGG </s>
-0.3010 <s> FIND </s>
-0.3010 <s> FOLLOW </s>
-0.3010 <s> FOR </s>
-0.3010 <s> FROM </s>
-0.3010 <s> GET </s>
-0.3010 <s> GO </s>
-0.3010 <s> GRAM </s>
-0.3010 <s> GRASP </s>
-0.3010 <s> GREEN </s>
-0.3010 <s> GUM </s>
-0.3010 <s> HALLWAY </s>
-0.3010 <s> HER </s>
-0.3010 <s> HONEY </s>
-0.3010 <s> IN </s>
-0.3010 <s> INTO </s>
-0.3010 <s> IS </s>
-0.3010 <s> IT </s>
-0.3010 <s> JUICE </s>
-0.3010 <s> KITCHEN </s>
-0.3010 <s> LEFT </s>
-0.3010 <s> LIVING </s>
-0.3010 <s> LOOK </s>
-0.3010 <s> LOTION </s>
-0.3010 <s> ME </s>
-0.3010 <s> MILK </s>
-0.3010 <s> MONTH </s>
-0.3010 <s> NAME </s>
-0.3010 <s> NAVIGATE </s>
-0.3010 <s> NO </s>
-0.3010 <s> OF </s>
-0.3010 <s> ORANGE </s>
-0.3010 <s> PAPAYA </s>
-0.3010 <s> PERSON </s>
-0.3010 <s> PURE </s>
-0.3010 <s> QUESTION </s>
-0.3010 <s> REACH </s>
-0.3010 <s> RECEPTION </s>
-0.3010 <s> RIGHT </s>
-0.3010 <s> ROBOT </s>
-0.3010 <s> ROOM </s>
-0.3010 <s> SAUCE </s>
-0.3010 <s> SAY </s>
-0.3010 <s> SHOW </s>
-0.3010 <s> SIDE </s>
-0.3010 <s> SINK </s>
-0.3010 <s> SMALL </s>
-0.3010 <s> SOAP </s>
-0.3010 <s> SODA </s>
-0.3010 <s> SOFA </s>
-0.3010 <s> SOUP </s>
-0.3010 <s> SPEAK </s>
-0.3010 <s> STARS </s>
-0.3010 <s> TABLE </s>
-0.3010 <s> TAKE </s>
-0.3010 <s> TEA </s>
-0.3010 <s> TEAM </s>
-0.3010 <s> TELL </s>
-0.3010 <s> THE </s>
-0.3010 <s> TIME </s>
-0.3010 <s> TO </s>
-0.3010 <s> TODAY </s>
-0.3010 <s> TOMATO </s>
-0.3010 <s> TOMORROW </s>
-0.3010 <s> TOY </s>
-0.3010 <s> WATER </s>
-0.3010 <s> WEEK </s>
-0.3010 <s> WHAT </s>
-0.3010 <s> WHICH </s>
-0.3010 <s> YES </s>
-0.3010 <s> YOUR </s>

\end\
