Language model created by QuickLM on Thu Mar 24 01:55:14 EDT 2016
Copyright (c) 1996-2010 Carnegie Mellon University and Alexander I. Rudnicky

The model is in standard ARPA format, designed by Doug Paul while he was at MITRE.

The code that was used to produce this language model is available in Open Source.
Please visit http://www.speech.cs.cmu.edu/tools/ for more information

The (fixed) discount mass is 0.5. The backoffs are computed using the ratio method.
This model based on a corpus of 272 sentences and 97 words

\data\
ngram 1=97
ngram 2=190
ngram 3=95

\1-grams:
-0.7782 </s> -0.3010
-0.7782 <s> -0.2218
-2.6107 A -0.2218
-3.2127 AN -0.2218
-2.4346 AND -0.2218
-2.9117 ANSWER -0.2218
-2.9117 APARTMENT -0.2218
-2.9117 APPLE -0.2218
-3.2127 AT -0.2218
-3.2127 AU -0.2218
-2.9117 BAR -0.2218
-2.6107 BATHROOM -0.2218
-2.9117 BED -0.2218
-2.6107 BEDROOM -0.2218
-2.6107 BEDSIDE -0.2218
-2.9117 BOOKCASE -0.2218
-2.9117 BOWL -0.2218
-3.2127 BRING -0.2218
-3.2127 CAFE -0.2218
-3.2127 CARRY -0.2218
-2.9117 CASE -0.2218
-2.9117 CHIPS -0.2218
-2.9117 COOKIE -0.2218
-2.9117 COUCH -0.2218
-2.9117 COUNTER -0.2218
-2.9117 CUP -0.2218
-2.9117 CUPBOARD -0.2218
-2.9117 DATE -0.2218
-2.6107 DAY -0.2218
-3.2127 DELIVER -0.2218
-2.9117 DESK -0.2218
-2.9117 DINNER -0.2218
-2.9117 DOOR -0.2218
-2.9117 EGG -0.2218
-2.7356 FIND -0.2218
-3.2127 FOLLOW -0.2218
-2.7356 FOR -0.2218
-3.2127 FROM -0.2218
-2.9117 GET -0.2218
-3.2127 GO -0.2218
-3.2127 GRASP -0.2218
-2.9117 GREEN -0.2218
-2.4346 HALLWAY -0.2218
-3.2127 HER -0.2218
-2.9117 ICED -0.2218
-2.7356 IN -0.2218
-3.2127 INTO -0.2218
-2.5138 IS -0.2218
-2.7356 IT -0.2218
-2.6107 JUICE -0.2218
-2.3096 KITCHEN -0.2218
-3.2127 LAIT -0.2218
-2.9117 LEFT -0.2218
-2.6107 LIVING -0.2218
-2.7356 LOOK -0.2218
-3.2127 ME -0.2218
-2.9117 MONTH -0.2218
-2.4346 NAME -0.2218
-3.2127 NAVIGATE -0.2218
-3.2127 NO -0.2218
-2.5138 OF -0.2218
-2.6107 ORANGE -0.2218
-2.9117 PERSON -0.2218
-2.9117 POTAGE -0.2218
-2.6107 POTATO -0.2218
-2.9117 QUESTION -0.2218
-3.2127 REACH -0.2218
-2.9117 RECEPTION -0.2218
-2.9117 RIGHT -0.2218
-3.2127 ROBOT -0.2218
-2.6107 ROOM -0.2218
-2.9117 SAY -0.2218
-2.9117 SHOW -0.2218
-2.9117 SIDE -0.2218
-2.9117 SINK -0.2218
-2.9117 SMALL -0.2218
-2.9117 SOFA -0.2218
-2.6107 SOUP -0.2218
-2.9117 SPEAK -0.2218
-2.9117 STICK -0.2218
-2.9117 STRAWBERRY -0.2218
-1.9574 TABLE -0.2218
-2.9117 TAKE -0.2218
-2.6107 TEA -0.2218
-2.7356 TEAM -0.2218
-2.4346 TELL -0.2218
-1.8905 THE -0.2218
-2.6107 TIME -0.2218
-2.6107 TO -0.2218
-2.9117 TODAY -0.2218
-2.9117 TOMORROW -0.2218
-2.9117 TRAY -0.2218
-2.9117 WEEK -0.2218
-2.6107 WHAT -0.2218
-3.2127 WHICH -0.2218
-3.2127 YES -0.2218
-2.4346 YOUR -0.2218

\2-grams:
-2.1335 <s> A 0.0000
-2.7356 <s> AN 0.0000
-1.9574 <s> AND 0.0000
-2.4346 <s> ANSWER 0.0000
-2.4346 <s> APARTMENT 0.0000
-2.4346 <s> APPLE 0.0000
-2.7356 <s> AT 0.0000
-2.7356 <s> AU 0.0000
-2.4346 <s> BAR 0.0000
-2.1335 <s> BATHROOM 0.0000
-2.4346 <s> BED 0.0000
-2.1335 <s> BEDROOM 0.0000
-2.1335 <s> BEDSIDE 0.0000
-2.4346 <s> BOOKCASE 0.0000
-2.4346 <s> BOWL 0.0000
-2.7356 <s> BRING 0.0000
-2.7356 <s> CAFE 0.0000
-2.7356 <s> CARRY 0.0000
-2.4346 <s> CASE 0.0000
-2.4346 <s> CHIPS 0.0000
-2.4346 <s> COOKIE 0.0000
-2.4346 <s> COUCH 0.0000
-2.4346 <s> COUNTER 0.0000
-2.4346 <s> CUP 0.0000
-2.4346 <s> CUPBOARD 0.0000
-2.4346 <s> DATE 0.0000
-2.1335 <s> DAY 0.0000
-2.7356 <s> DELIVER 0.0000
-2.4346 <s> DESK 0.0000
-2.4346 <s> DINNER 0.0000
-2.4346 <s> DOOR 0.0000
-2.4346 <s> EGG 0.0000
-2.2585 <s> FIND 0.0000
-2.7356 <s> FOLLOW 0.0000
-2.2585 <s> FOR 0.0000
-2.7356 <s> FROM 0.0000
-2.4346 <s> GET 0.0000
-2.7356 <s> GO 0.0000
-2.7356 <s> GRASP 0.0000
-2.4346 <s> GREEN 0.0000
-1.9574 <s> HALLWAY 0.0000
-2.7356 <s> HER 0.0000
-2.4346 <s> ICED 0.0000
-2.2585 <s> IN 0.0000
-2.7356 <s> INTO 0.0000
-2.0366 <s> IS 0.0000
-2.2585 <s> IT 0.0000
-2.1335 <s> JUICE 0.0000
-1.8325 <s> KITCHEN 0.0000
-2.7356 <s> LAIT 0.0000
-2.4346 <s> LEFT 0.0000
-2.1335 <s> LIVING 0.0000
-2.2585 <s> LOOK 0.0000
-2.7356 <s> ME 0.0000
-2.4346 <s> MONTH 0.0000
-1.9574 <s> NAME 0.0000
-2.7356 <s> NAVIGATE 0.0000
-2.7356 <s> NO 0.0000
-2.0366 <s> OF 0.0000
-2.1335 <s> ORANGE 0.0000
-2.4346 <s> PERSON 0.0000
-2.4346 <s> POTAGE 0.0000
-2.1335 <s> POTATO 0.0000
-2.4346 <s> QUESTION 0.0000
-2.7356 <s> REACH 0.0000
-2.4346 <s> RECEPTION 0.0000
-2.4346 <s> RIGHT 0.0000
-2.7356 <s> ROBOT 0.0000
-2.1335 <s> ROOM 0.0000
-2.4346 <s> SAY 0.0000
-2.4346 <s> SHOW 0.0000
-2.4346 <s> SIDE 0.0000
-2.4346 <s> SINK 0.0000
-2.4346 <s> SMALL 0.0000
-2.4346 <s> SOFA 0.0000
-2.1335 <s> SOUP 0.0000
-2.4346 <s> SPEAK 0.0000
-2.4346 <s> STICK 0.0000
-2.4346 <s> STRAWBERRY 0.0000
-1.4803 <s> TABLE 0.0000
-2.4346 <s> TAKE 0.0000
-2.1335 <s> TEA 0.0000
-2.2585 <s> TEAM 0.0000
-1.9574 <s> TELL 0.0000
-1.4134 <s> THE 0.0000
-2.1335 <s> TIME 0.0000
-2.1335 <s> TO 0.0000
-2.4346 <s> TODAY 0.0000
-2.4346 <s> TOMORROW 0.0000
-2.4346 <s> TRAY 0.0000
-2.4346 <s> WEEK 0.0000
-2.1335 <s> WHAT 0.0000
-2.7356 <s> WHICH 0.0000
-2.7356 <s> YES 0.0000
-1.9574 <s> YOUR 0.0000
-0.3010 A </s> -0.3010
-0.3010 AN </s> -0.3010
-0.3010 AND </s> -0.3010
-0.3010 ANSWER </s> -0.3010
-0.3010 APARTMENT </s> -0.3010
-0.3010 APPLE </s> -0.3010
-0.3010 AT </s> -0.3010
-0.3010 AU </s> -0.3010
-0.3010 BAR </s> -0.3010
-0.3010 BATHROOM </s> -0.3010
-0.3010 BED </s> -0.3010
-0.3010 BEDROOM </s> -0.3010
-0.3010 BEDSIDE </s> -0.3010
-0.3010 BOOKCASE </s> -0.3010
-0.3010 BOWL </s> -0.3010
-0.3010 BRING </s> -0.3010
-0.3010 CAFE </s> -0.3010
-0.3010 CARRY </s> -0.3010
-0.3010 CASE </s> -0.3010
-0.3010 CHIPS </s> -0.3010
-0.3010 COOKIE </s> -0.3010
-0.3010 COUCH </s> -0.3010
-0.3010 COUNTER </s> -0.3010
-0.3010 CUP </s> -0.3010
-0.3010 CUPBOARD </s> -0.3010
-0.3010 DATE </s> -0.3010
-0.3010 DAY </s> -0.3010
-0.3010 DELIVER </s> -0.3010
-0.3010 DESK </s> -0.3010
-0.3010 DINNER </s> -0.3010
-0.3010 DOOR </s> -0.3010
-0.3010 EGG </s> -0.3010
-0.3010 FIND </s> -0.3010
-0.3010 FOLLOW </s> -0.3010
-0.3010 FOR </s> -0.3010
-0.3010 FROM </s> -0.3010
-0.3010 GET </s> -0.3010
-0.3010 GO </s> -0.3010
-0.3010 GRASP </s> -0.3010
-0.3010 GREEN </s> -0.3010
-0.3010 HALLWAY </s> -0.3010
-0.3010 HER </s> -0.3010
-0.3010 ICED </s> -0.3010
-0.3010 IN </s> -0.3010
-0.3010 INTO </s> -0.3010
-0.3010 IS </s> -0.3010
-0.3010 IT </s> -0.3010
-0.3010 JUICE </s> -0.3010
-0.3010 KITCHEN </s> -0.3010
-0.3010 LAIT </s> -0.3010
-0.3010 LEFT </s> -0.3010
-0.3010 LIVING </s> -0.3010
-0.3010 LOOK </s> -0.3010
-0.3010 ME </s> -0.3010
-0.3010 MONTH </s> -0.3010
-0.3010 NAME </s> -0.3010
-0.3010 NAVIGATE </s> -0.3010
-0.3010 NO </s> -0.3010
-0.3010 OF </s> -0.3010
-0.3010 ORANGE </s> -0.3010
-0.3010 PERSON </s> -0.3010
-0.3010 POTAGE </s> -0.3010
-0.3010 POTATO </s> -0.3010
-0.3010 QUESTION </s> -0.3010
-0.3010 REACH </s> -0.3010
-0.3010 RECEPTION </s> -0.3010
-0.3010 RIGHT </s> -0.3010
-0.3010 ROBOT </s> -0.3010
-0.3010 ROOM </s> -0.3010
-0.3010 SAY </s> -0.3010
-0.3010 SHOW </s> -0.3010
-0.3010 SIDE </s> -0.3010
-0.3010 SINK </s> -0.3010
-0.3010 SMALL </s> -0.3010
-0.3010 SOFA </s> -0.3010
-0.3010 SOUP </s> -0.3010
-0.3010 SPEAK </s> -0.3010
-0.3010 STICK </s> -0.3010
-0.3010 STRAWBERRY </s> -0.3010
-0.3010 TABLE </s> -0.3010
-0.3010 TAKE </s> -0.3010
-0.3010 TEA </s> -0.3010
-0.3010 TEAM </s> -0.3010
-0.3010 TELL </s> -0.3010
-0.3010 THE </s> -0.3010
-0.3010 TIME </s> -0.3010
-0.3010 TO </s> -0.3010
-0.3010 TODAY </s> -0.3010
-0.3010 TOMORROW </s> -0.3010
-0.3010 TRAY </s> -0.3010
-0.3010 WEEK </s> -0.3010
-0.3010 WHAT </s> -0.3010
-0.3010 WHICH </s> -0.3010
-0.3010 YES </s> -0.3010
-0.3010 YOUR </s> -0.3010

\3-grams:
-0.3010 <s> A </s>
-0.3010 <s> AN </s>
-0.3010 <s> AND </s>
-0.3010 <s> ANSWER </s>
-0.3010 <s> APARTMENT </s>
-0.3010 <s> APPLE </s>
-0.3010 <s> AT </s>
-0.3010 <s> AU </s>
-0.3010 <s> BAR </s>
-0.3010 <s> BATHROOM </s>
-0.3010 <s> BED </s>
-0.3010 <s> BEDROOM </s>
-0.3010 <s> BEDSIDE </s>
-0.3010 <s> BOOKCASE </s>
-0.3010 <s> BOWL </s>
-0.3010 <s> BRING </s>
-0.3010 <s> CAFE </s>
-0.3010 <s> CARRY </s>
-0.3010 <s> CASE </s>
-0.3010 <s> CHIPS </s>
-0.3010 <s> COOKIE </s>
-0.3010 <s> COUCH </s>
-0.3010 <s> COUNTER </s>
-0.3010 <s> CUP </s>
-0.3010 <s> CUPBOARD </s>
-0.3010 <s> DATE </s>
-0.3010 <s> DAY </s>
-0.3010 <s> DELIVER </s>
-0.3010 <s> DESK </s>
-0.3010 <s> DINNER </s>
-0.3010 <s> DOOR </s>
-0.3010 <s> EGG </s>
-0.3010 <s> FIND </s>
-0.3010 <s> FOLLOW </s>
-0.3010 <s> FOR </s>
-0.3010 <s> FROM </s>
-0.3010 <s> GET </s>
-0.3010 <s> GO </s>
-0.3010 <s> GRASP </s>
-0.3010 <s> GREEN </s>
-0.3010 <s> HALLWAY </s>
-0.3010 <s> HER </s>
-0.3010 <s> ICED </s>
-0.3010 <s> IN </s>
-0.3010 <s> INTO </s>
-0.3010 <s> IS </s>
-0.3010 <s> IT </s>
-0.3010 <s> JUICE </s>
-0.3010 <s> KITCHEN </s>
-0.3010 <s> LAIT </s>
-0.3010 <s> LEFT </s>
-0.3010 <s> LIVING </s>
-0.3010 <s> LOOK </s>
-0.3010 <s> ME </s>
-0.3010 <s> MONTH </s>
-0.3010 <s> NAME </s>
-0.3010 <s> NAVIGATE </s>
-0.3010 <s> NO </s>
-0.3010 <s> OF </s>
-0.3010 <s> ORANGE </s>
-0.3010 <s> PERSON </s>
-0.3010 <s> POTAGE </s>
-0.3010 <s> POTATO </s>
-0.3010 <s> QUESTION </s>
-0.3010 <s> REACH </s>
-0.3010 <s> RECEPTION </s>
-0.3010 <s> RIGHT </s>
-0.3010 <s> ROBOT </s>
-0.3010 <s> ROOM </s>
-0.3010 <s> SAY </s>
-0.3010 <s> SHOW </s>
-0.3010 <s> SIDE </s>
-0.3010 <s> SINK </s>
-0.3010 <s> SMALL </s>
-0.3010 <s> SOFA </s>
-0.3010 <s> SOUP </s>
-0.3010 <s> SPEAK </s>
-0.3010 <s> STICK </s>
-0.3010 <s> STRAWBERRY </s>
-0.3010 <s> TABLE </s>
-0.3010 <s> TAKE </s>
-0.3010 <s> TEA </s>
-0.3010 <s> TEAM </s>
-0.3010 <s> TELL </s>
-0.3010 <s> THE </s>
-0.3010 <s> TIME </s>
-0.3010 <s> TO </s>
-0.3010 <s> TODAY </s>
-0.3010 <s> TOMORROW </s>
-0.3010 <s> TRAY </s>
-0.3010 <s> WEEK </s>
-0.3010 <s> WHAT </s>
-0.3010 <s> WHICH </s>
-0.3010 <s> YES </s>
-0.3010 <s> YOUR </s>

\end\
