Language model created by QuickLM on Fri May  1 15:13:11 EDT 2015
Copyright (c) 1996-2010 Carnegie Mellon University and Alexander I. Rudnicky

The model is in standard ARPA format, designed by Doug Paul while he was at MITRE.

The code that was used to produce this language model is available in Open Source.
Please visit http://www.speech.cs.cmu.edu/tools/ for more information

The (fixed) discount mass is 0.5. The backoffs are computed using the ratio method.
This model based on a corpus of 121 sentences and 55 words

\data\
ngram 1=55
ngram 2=140
ngram 3=170

\1-grams:
-1.0996 </s> -0.3010
-1.0996 <s> -0.1592
-3.1824 APARTMENT -0.2651
-2.5804 BATH -0.2982
-2.5804 BLEACH -0.2418
-2.5804 BLUE -0.2964
-1.3373 BRING -0.2342
-2.5804 BROWN -0.2953
-2.5804 CHIP -0.2987
-2.1824 CLEANER -0.2405
-2.5804 CLOTH -0.2982
-2.2793 CUP -0.2964
-2.2793 DRESSING -0.2418
-2.8814 DRINK -0.2638
-2.5804 EGG -0.2987
-3.1824 FOLLOW -0.3007
-2.8814 FOOD -0.2638
-3.1824 GET -0.3007
-2.5804 GREEN -0.2953
-3.1824 HALTING -0.2651
-2.3373 IS -0.2740
-2.2793 JAPANESE -0.2930
-2.2793 JUICE -0.2418
-2.5804 KOREAN -0.2987
-3.1824 LEAVE -0.3007
-2.5804 LEMON -0.2953
-1.3016 LOCATION -0.2402
-2.5804 LONG -0.2964
-3.1824 ME -0.2651
-3.1824 NO -0.2651
-2.2793 NOODLE -0.2418
-1.7674 ONE -0.2651
-2.5804 ONION -0.2987
-2.5804 ORANGE -0.2987
-3.1824 OUT -0.2651
-1.9783 POTATO -0.2418
-2.5804 PRINGLES -0.2418
-2.2793 RED -0.2906
-2.4834 ROBOT -0.2996
-2.5804 SEAFOOD -0.2987
-2.5804 SHELF -0.2651
-2.8814 SNACK -0.2638
-2.5804 SOFTENER -0.2418
-2.2793 SOUP -0.2418
-2.2793 STAR -0.2418
-2.5804 STICK -0.2964
-3.1824 STOP -0.2651
-2.5804 STRAWBERRY -0.2987
-1.8814 TEA -0.2418
-2.3373 THIS -0.2990
-1.7674 THREE -0.2651
-1.3191 TO -0.2408
-1.7674 TWO -0.2651
-3.1824 WAITING -0.2651
-3.1824 YES -0.2651

\2-grams:
-2.3838 <s> BATH 0.0000
-2.3838 <s> BLEACH -0.2430
-2.3838 <s> BLUE 0.0000
-0.5387 <s> BRING -0.0000
-2.3838 <s> BROWN 0.0000
-2.3838 <s> CHIP 0.0000
-2.3838 <s> CLEANER -0.2304
-2.3838 <s> CLOTH 0.0000
-2.0828 <s> CUP 0.0000
-2.3838 <s> DRINK -0.1761
-2.3838 <s> EGG 0.0000
-2.3838 <s> FOLLOW 0.0000
-2.3838 <s> FOOD -0.1761
-2.3838 <s> GET 0.0000
-2.3838 <s> GREEN 0.0000
-2.0828 <s> JAPANESE 0.0000
-2.3838 <s> KOREAN 0.0000
-2.3838 <s> LEAVE 0.0000
-2.3838 <s> LEMON 0.0000
-2.3838 <s> LOCATION -0.2982
-2.3838 <s> LONG 0.0000
-2.3838 <s> ONE 0.0000
-2.3838 <s> ONION 0.0000
-2.3838 <s> ORANGE 0.0000
-2.3838 <s> PRINGLES -0.2430
-1.6848 <s> RED 0.0000
-1.6848 <s> ROBOT 0.0000
-2.3838 <s> SEAFOOD 0.0000
-2.3838 <s> SNACK -0.1761
-2.3838 <s> SOFTENER -0.2430
-2.3838 <s> STICK 0.0000
-2.3838 <s> STRAWBERRY 0.0000
-1.5387 <s> THIS 0.0000
-2.3838 <s> THREE 0.0000
-2.3838 <s> TO -0.2980
-2.3838 <s> TWO 0.0000
-0.3010 APARTMENT </s> -0.3010
-0.3010 BATH CLEANER -0.0414
-0.9031 BLEACH </s> -0.3010
-0.4260 BLEACH TO -0.0059
-0.3010 BLUE POTATO 0.0000
-2.1461 BRING </s> -0.3010
-1.6690 BRING BATH 0.0000
-1.6690 BRING BLEACH -0.0969
-1.6690 BRING BLUE 0.0000
-1.6690 BRING BROWN 0.0000
-1.6690 BRING CHIP 0.0000
-1.6690 BRING CLOTH 0.0000
-1.3680 BRING CUP 0.0000
-1.6690 BRING EGG 0.0000
-1.6690 BRING GREEN 0.0000
-1.3680 BRING JAPANESE 0.0000
-1.6690 BRING KOREAN 0.0000
-1.6690 BRING LEMON 0.0000
-1.6690 BRING LONG 0.0000
-1.6690 BRING ONION 0.0000
-1.6690 BRING ORANGE 0.0000
-1.6690 BRING PRINGLES -0.0969
-1.6690 BRING RED -0.1761
-1.6690 BRING SEAFOOD 0.0000
-1.6690 BRING SOFTENER -0.0969
-1.6690 BRING STICK 0.0000
-1.6690 BRING STRAWBERRY 0.0000
-0.3010 BROWN TEA 0.0000
-0.3010 CHIP STAR 0.0000
-0.8239 CLEANER </s> -0.3010
-1.3010 CLEANER SHELF 0.0000
-0.5229 CLEANER TO -0.0059
-0.3010 CLOTH CLEANER -0.0414
-0.6021 CUP NOODLE 0.0000
-0.6021 CUP STAR 0.0000
-0.9031 DRESSING </s> -0.3010
-0.4260 DRESSING TO -0.0059
-0.6021 DRINK </s> -0.3010
-0.6021 DRINK SHELF 0.0000
-0.3010 EGG SOUP 0.0000
-0.3010 FOLLOW ME 0.0000
-0.6021 FOOD </s> -0.3010
-0.6021 FOOD SHELF 0.0000
-0.3010 GET OUT 0.0000
-0.3010 GREEN TEA 0.0000
-0.3010 HALTING </s> -0.3010
-1.1461 IS CLEANER -0.2788
-1.1461 IS DRINK -0.1761
-1.1461 IS FOOD -0.1761
-0.6690 IS LOCATION -0.0057
-1.1461 IS SNACK -0.1761
-0.6021 JAPANESE DRESSING 0.0000
-0.6021 JAPANESE TEA 0.0000
-0.9031 JUICE </s> -0.3010
-0.4260 JUICE TO -0.0059
-0.3010 KOREAN SOUP 0.0000
-0.3010 LEAVE APARTMENT 0.0000
-0.3010 LEMON TEA 0.0000
-2.1818 LOCATION </s> -0.3010
-0.7839 LOCATION ONE 0.0000
-0.7839 LOCATION THREE 0.0000
-0.7839 LOCATION TWO 0.0000
-0.3010 LONG POTATO 0.0000
-0.3010 ME </s> -0.3010
-0.3010 NO </s> -0.3010
-0.9031 NOODLE </s> -0.3010
-0.4260 NOODLE TO -0.0059
-0.3010 ONE </s> -0.3010
-0.3010 ONION DRESSING 0.0000
-0.3010 ORANGE JUICE 0.0000
-0.3010 OUT </s> -0.3010
-0.9031 POTATO </s> -0.3010
-0.4260 POTATO TO -0.0059
-0.9031 PRINGLES </s> -0.3010
-0.4260 PRINGLES TO -0.0059
-0.6021 RED POTATO 0.0000
-0.6021 RED TEA 0.0000
-1.0000 ROBOT HALTING 0.0000
-1.0000 ROBOT NO 0.0000
-1.0000 ROBOT STOP 0.0000
-1.0000 ROBOT WAITING 0.0000
-1.0000 ROBOT YES 0.0000
-0.3010 SEAFOOD NOODLE 0.0000
-0.3010 SHELF </s> -0.3010
-0.6021 SNACK </s> -0.3010
-0.6021 SNACK SHELF 0.0000
-0.9031 SOFTENER </s> -0.3010
-0.4260 SOFTENER TO -0.0059
-0.9031 SOUP </s> -0.3010
-0.4260 SOUP TO -0.0059
-0.9031 STAR </s> -0.3010
-0.4260 STAR TO -0.0059
-0.3010 STICK POTATO 0.0000
-0.3010 STOP </s> -0.3010
-0.3010 STRAWBERRY JUICE 0.0000
-0.9031 TEA </s> -0.3010
-0.4260 TEA TO -0.0059
-0.3010 THIS IS 0.0000
-0.3010 THREE </s> -0.3010
-2.1644 TO </s> -0.3010
-0.3070 TO LOCATION -0.0057
-0.3010 TWO </s> -0.3010
-0.3010 WAITING </s> -0.3010
-0.3010 YES </s> -0.3010

\3-grams:
-0.3010 <s> BATH CLEANER
-0.3010 <s> BLEACH </s>
-0.3010 <s> BLUE POTATO
-2.1461 <s> BRING </s>
-1.6690 <s> BRING BATH
-1.6690 <s> BRING BLEACH
-1.6690 <s> BRING BLUE
-1.6690 <s> BRING BROWN
-1.6690 <s> BRING CHIP
-1.6690 <s> BRING CLOTH
-1.3680 <s> BRING CUP
-1.6690 <s> BRING EGG
-1.6690 <s> BRING GREEN
-1.3680 <s> BRING JAPANESE
-1.6690 <s> BRING KOREAN
-1.6690 <s> BRING LEMON
-1.6690 <s> BRING LONG
-1.6690 <s> BRING ONION
-1.6690 <s> BRING ORANGE
-1.6690 <s> BRING PRINGLES
-1.6690 <s> BRING RED
-1.6690 <s> BRING SEAFOOD
-1.6690 <s> BRING SOFTENER
-1.6690 <s> BRING STICK
-1.6690 <s> BRING STRAWBERRY
-0.3010 <s> BROWN TEA
-0.3010 <s> CHIP STAR
-0.3010 <s> CLEANER </s>
-0.3010 <s> CLOTH CLEANER
-0.6021 <s> CUP NOODLE
-0.6021 <s> CUP STAR
-0.3010 <s> DRINK </s>
-0.3010 <s> EGG SOUP
-0.3010 <s> FOLLOW ME
-0.3010 <s> FOOD </s>
-0.3010 <s> GET OUT
-0.3010 <s> GREEN TEA
-0.6021 <s> JAPANESE DRESSING
-0.6021 <s> JAPANESE TEA
-0.3010 <s> KOREAN SOUP
-0.3010 <s> LEAVE APARTMENT
-0.3010 <s> LEMON TEA
-0.3010 <s> LOCATION </s>
-0.3010 <s> LONG POTATO
-0.3010 <s> ONE </s>
-0.3010 <s> ONION DRESSING
-0.3010 <s> ORANGE JUICE
-0.3010 <s> PRINGLES </s>
-0.3979 <s> RED POTATO
-1.0000 <s> RED TEA
-1.0000 <s> ROBOT HALTING
-1.0000 <s> ROBOT NO
-1.0000 <s> ROBOT STOP
-1.0000 <s> ROBOT WAITING
-1.0000 <s> ROBOT YES
-0.3010 <s> SEAFOOD NOODLE
-0.3010 <s> SNACK </s>
-0.3010 <s> SOFTENER </s>
-0.3010 <s> STICK POTATO
-0.3010 <s> STRAWBERRY JUICE
-0.3010 <s> THIS IS
-0.3010 <s> THREE </s>
-0.3010 <s> TO </s>
-0.3010 <s> TWO </s>
-0.9031 BATH CLEANER </s>
-0.4260 BATH CLEANER TO
-0.3010 BLEACH TO LOCATION
-0.9031 BLUE POTATO </s>
-0.4260 BLUE POTATO TO
-0.3010 BRING BATH CLEANER
-0.3010 BRING BLEACH TO
-0.3010 BRING BLUE POTATO
-0.3010 BRING BROWN TEA
-0.3010 BRING CHIP STAR
-0.3010 BRING CLOTH CLEANER
-0.6021 BRING CUP NOODLE
-0.6021 BRING CUP STAR
-0.3010 BRING EGG SOUP
-0.3010 BRING GREEN TEA
-0.6021 BRING JAPANESE DRESSING
-0.6021 BRING JAPANESE TEA
-0.3010 BRING KOREAN SOUP
-0.3010 BRING LEMON TEA
-0.3010 BRING LONG POTATO
-0.3010 BRING ONION DRESSING
-0.3010 BRING ORANGE JUICE
-0.3010 BRING PRINGLES TO
-0.3010 BRING RED TEA
-0.3010 BRING SEAFOOD NOODLE
-0.3010 BRING SOFTENER TO
-0.3010 BRING STICK POTATO
-0.3010 BRING STRAWBERRY JUICE
-0.9031 BROWN TEA </s>
-0.4260 BROWN TEA TO
-0.9031 CHIP STAR </s>
-0.4260 CHIP STAR TO
-0.3010 CLEANER SHELF </s>
-0.3010 CLEANER TO LOCATION
-0.9031 CLOTH CLEANER </s>
-0.4260 CLOTH CLEANER TO
-0.9031 CUP NOODLE </s>
-0.4260 CUP NOODLE TO
-0.9031 CUP STAR </s>
-0.4260 CUP STAR TO
-0.3010 DRESSING TO LOCATION
-0.3010 DRINK SHELF </s>
-0.9031 EGG SOUP </s>
-0.4260 EGG SOUP TO
-0.3010 FOLLOW ME </s>
-0.3010 FOOD SHELF </s>
-0.3010 GET OUT </s>
-0.9031 GREEN TEA </s>
-0.4260 GREEN TEA TO
-0.3010 IS CLEANER SHELF
-0.3010 IS DRINK SHELF
-0.3010 IS FOOD SHELF
-0.7782 IS LOCATION ONE
-0.7782 IS LOCATION THREE
-0.7782 IS LOCATION TWO
-0.3010 IS SNACK SHELF
-0.9031 JAPANESE DRESSING </s>
-0.4260 JAPANESE DRESSING TO
-0.9031 JAPANESE TEA </s>
-0.4260 JAPANESE TEA TO
-0.3010 JUICE TO LOCATION
-0.9031 KOREAN SOUP </s>
-0.4260 KOREAN SOUP TO
-0.3010 LEAVE APARTMENT </s>
-0.9031 LEMON TEA </s>
-0.4260 LEMON TEA TO
-0.3010 LOCATION ONE </s>
-0.3010 LOCATION THREE </s>
-0.3010 LOCATION TWO </s>
-0.9031 LONG POTATO </s>
-0.4260 LONG POTATO TO
-0.3010 NOODLE TO LOCATION
-0.9031 ONION DRESSING </s>
-0.4260 ONION DRESSING TO
-0.9031 ORANGE JUICE </s>
-0.4260 ORANGE JUICE TO
-0.3010 POTATO TO LOCATION
-0.3010 PRINGLES TO LOCATION
-0.9031 RED POTATO </s>
-0.4260 RED POTATO TO
-0.9031 RED TEA </s>
-0.4260 RED TEA TO
-0.3010 ROBOT HALTING </s>
-0.3010 ROBOT NO </s>
-0.3010 ROBOT STOP </s>
-0.3010 ROBOT WAITING </s>
-0.3010 ROBOT YES </s>
-0.9031 SEAFOOD NOODLE </s>
-0.4260 SEAFOOD NOODLE TO
-0.3010 SNACK SHELF </s>
-0.3010 SOFTENER TO LOCATION
-0.3010 SOUP TO LOCATION
-0.3010 STAR TO LOCATION
-0.9031 STICK POTATO </s>
-0.4260 STICK POTATO TO
-0.9031 STRAWBERRY JUICE </s>
-0.4260 STRAWBERRY JUICE TO
-0.3010 TEA TO LOCATION
-1.1461 THIS IS CLEANER
-1.1461 THIS IS DRINK
-1.1461 THIS IS FOOD
-0.6690 THIS IS LOCATION
-1.1461 THIS IS SNACK
-0.7782 TO LOCATION ONE
-0.7782 TO LOCATION THREE
-0.7782 TO LOCATION TWO

\end\
