Language model created by QuickLM on Sun May  5 00:12:52 EDT 2013
Copyright (c) 1996-2010 Carnegie Mellon University and Alexander I. Rudnicky

The model is in standard ARPA format, designed by Doug Paul while he was at MITRE.

The code that was used to produce this language model is available in Open Source.
Please visit http://www.speech.cs.cmu.edu/tools/ for more information

The (fixed) discount mass is 0.5. The backoffs are computed using the ratio method.
This model based on a corpus of 13 sentences and 22 words

\data\
ngram 1=22
ngram 2=33
ngram 3=22

\1-grams:
-0.8683 </s> -0.3010
-0.8683 <s> -0.2378
-1.6812 CHECK -0.2919
-1.9823 CLEAN -0.2965
-1.9823 COME -0.2965
-1.9823 FOLLOW -0.2919
-1.9823 GOOD -0.2965
-1.9823 HALT -0.2378
-1.9823 HERE -0.2378
-1.9823 IN -0.2378
-1.9823 JOB -0.2378
-1.6812 ME -0.2378
-1.9823 NO -0.2378
-1.9823 OUT -0.2378
-1.9823 STOP -0.2378
-1.9823 THANK -0.2965
-1.9823 UP -0.2378
-1.9823 WAIT -0.2965
-1.9823 WAITING -0.2378
-1.9823 WITH -0.2919
-1.9823 YES -0.2378
-1.9823 YOU -0.2378

\2-grams:
-1.1139 <s> CHECK 0.0000
-1.4150 <s> CLEAN 0.0000
-1.4150 <s> COME 0.0000
-1.4150 <s> FOLLOW 0.0000
-1.4150 <s> GOOD 0.0000
-1.4150 <s> HALT 0.0000
-1.4150 <s> NO 0.0000
-1.4150 <s> STOP 0.0000
-1.4150 <s> THANK 0.0000
-1.4150 <s> WAIT 0.0000
-1.4150 <s> WAITING 0.0000
-1.4150 <s> YES 0.0000
-0.6021 CHECK IN 0.0000
-0.6021 CHECK OUT 0.0000
-0.3010 CLEAN UP 0.0000
-0.3010 COME WITH 0.0000
-0.3010 FOLLOW ME 0.0000
-0.3010 GOOD JOB 0.0000
-0.3010 HALT </s> -0.3010
-0.3010 HERE </s> -0.3010
-0.3010 IN </s> -0.3010
-0.3010 JOB </s> -0.3010
-0.3010 ME </s> -0.3010
-0.3010 NO </s> -0.3010
-0.3010 OUT </s> -0.3010
-0.3010 STOP </s> -0.3010
-0.3010 THANK YOU 0.0000
-0.3010 UP </s> -0.3010
-0.3010 WAIT HERE 0.0000
-0.3010 WAITING </s> -0.3010
-0.3010 WITH ME 0.0000
-0.3010 YES </s> -0.3010
-0.3010 YOU </s> -0.3010

\3-grams:
-0.6021 <s> CHECK IN
-0.6021 <s> CHECK OUT
-0.3010 <s> CLEAN UP
-0.3010 <s> COME WITH
-0.3010 <s> FOLLOW ME
-0.3010 <s> GOOD JOB
-0.3010 <s> HALT </s>
-0.3010 <s> NO </s>
-0.3010 <s> STOP </s>
-0.3010 <s> THANK YOU
-0.3010 <s> WAIT HERE
-0.3010 <s> WAITING </s>
-0.3010 <s> YES </s>
-0.3010 CHECK IN </s>
-0.3010 CHECK OUT </s>
-0.3010 CLEAN UP </s>
-0.3010 COME WITH ME
-0.3010 FOLLOW ME </s>
-0.3010 GOOD JOB </s>
-0.3010 THANK YOU </s>
-0.3010 WAIT HERE </s>
-0.3010 WITH ME </s>

\end\
