Language model created by QuickLM on Fri Jul  1 04:18:44 EDT 2016
Copyright (c) 1996-2010 Carnegie Mellon University and Alexander I. Rudnicky

The model is in standard ARPA format, designed by Doug Paul while he was at MITRE.

The code that was used to produce this language model is available in Open Source.
Please visit http://www.speech.cs.cmu.edu/tools/ for more information

The (fixed) discount mass is 0.5. The backoffs are computed using the ratio method.
This model based on a corpus of 6196 sentences and 280 words

\data\
ngram 1=280
ngram 2=556
ngram 3=278

\1-grams:
-3.7921 1989 -0.2218
-3.4911 28 -0.2218
-3.4911 31 -0.2218
-0.7782 </s> -0.3010
-0.7782 <s> -0.2218
-2.8144 A -0.2218
-3.7921 A-TEAM -0.2218
-3.8713 ABOUT -0.2218
-3.8713 AFFILIATION -0.2218
-3.7921 ALAN -0.2218
-2.9171 ALEXANDER -0.2218
-3.7921 AN -0.2218
-3.0517 AND -0.2218
-3.7921 ANDROID -0.2218
-2.9171 ANGEL -0.2218
-3.7921 ANSWER -0.2218
-3.7921 ANY -0.2218
-3.7921 APOLLO -0.2218
-3.1231 APPLE -0.2218
-3.0140 ARE -0.2218
-3.3661 ARM -0.2218
-3.7921 ARMS -0.2218
-3.7921 ASIMO -0.2218
-3.8713 AT -0.2218
-2.9171 AVA -0.2218
-3.1231 BABY -0.2218
-3.7921 BACH -0.2218
-3.0651 BAR -0.2218
-3.7921 BE -0.2218
-2.7921 BED -0.2218
-2.8299 BEDROOM -0.2218
-3.0651 BEDSIDE -0.2218
-3.1231 BEER -0.2218
-3.7921 BETWEEN -0.2218
-3.7921 BIG -0.2218
-3.1231 BISQUITS -0.2218
-3.0651 BOOKCASE -0.2218
-3.1231 BOWL -0.2218
-3.4911 BRING -0.2218
-3.7921 BUG -0.2218
-3.7921 BURIED -0.2218
-3.7921 C -0.2218
-2.6065 CABINET -0.2218
-3.7921 CAPITAL -0.2218
-3.7921 CHANCELLOR -0.2218
-3.7921 CHARACTER -0.2218
-2.9171 CHARLOTTE -0.2218
-3.1231 CHIPS -0.2218
-3.1231 CHOCO -0.2218
-3.1901 CITY -0.2218
-3.1231 CLOTH -0.2218
-3.7921 CLUMSY -0.2218
-3.1231 COCONUT -0.2218
-3.7921 COFFEE -0.2218
-3.1231 COKE -0.2218
-3.7921 COLOURS -0.2218
-3.7921 COME -0.2218
-3.4911 COMPANY -0.2218
-3.7921 COMPOSERS -0.2218
-3.7921 COMPUTER -0.2218
-3.7921 CONTINUOUS -0.2218
-2.8299 CORRIDOR -0.2218
-3.8713 COUNTRY -0.2218
-3.7921 COUNTY -0.2218
-3.7921 CREATE -0.2218
-3.0651 CUPBOARD -0.2218
-3.7921 CURRY -0.2218
-3.4911 CYBORG -0.2218
-2.9171 DANIEL -0.2218
-3.7921 DARK -0.2218
-3.5703 DAY -0.2218
-3.0140 DAYS -0.2218
-3.1389 DELIVER -0.2218
-2.6065 DESK -0.2218
-3.7921 DEVELOPED -0.2218
-3.4911 DID -0.2218
-3.7921 DIFFERENCE -0.2218
-2.4029 DINING -0.2218
-3.4911 DO -0.2218
-3.7921 DOES -0.2218
-3.7921 DOG -0.2218
-3.7921 DONALD -0.2218
-3.7921 DRAGON -0.2218
-3.0651 DRAWER -0.2218
-3.7921 DREAMS -0.2218
-3.7921 DUCK'S -0.2218
-3.7921 EACH -0.2218
-3.7921 EATEN -0.2218
-3.1231 EGG -0.2218
-3.7921 ELEMENT -0.2218
-3.7921 ELEVEN -0.2218
-2.9171 EMILY -0.2218
-2.9171 EMMA -0.2218
-3.2480 ESCORT -0.2218
-2.9171 ETHAN -0.2218
-3.7921 EUROPE'S -0.2218
-3.2480 EXIT -0.2218
-3.7921 FAIR -0.2218
-3.0140 FALSE -0.2218
-3.7921 FEBRUARY -0.2218
-3.7921 FESTIVALS -0.2218
-2.8627 FIND -0.2218
-3.4911 FIRST -0.2218
-3.7921 FLAG -0.2218
-3.2915 FOLLOW -0.2218
-2.8627 FOR -0.2218
-3.1079 FROM -0.2218
-3.7921 FUNNY -0.2218
-3.4911 GALAXY -0.2218
-3.4911 GERMAN -0.2218
-3.1901 GERMANY -0.2218
-3.4911 GET -0.2218
-3.4911 GIVE -0.2218
-3.8713 GO -0.2218
-3.4911 GRASP -0.2218
-3.7921 GREATEST -0.2218
-3.1389 GUIDE -0.2218
-3.7921 HAMLET -0.2218
-3.4911 HAND -0.2218
-3.3150 HAS -0.2218
-3.4911 HAVE -0.2218
-3.7921 HEAVIEST -0.2218
-3.7921 HELICOPTER -0.2218
-3.5289 HER -0.2218
-3.7921 HEY -0.2218
-3.2915 HIM -0.2218
-3.7921 HITCHHIKER'S -0.2218
-3.0140 HOSTED -0.2218
-3.7921 HOW -0.2218
-2.4399 IN -0.2218
-3.7921 INDUSTRIAL -0.2218
-3.7921 INTEREST -0.2218
-3.7921 INVENTOR -0.2218
-3.7921 INVENTORS -0.2218
-2.8543 IS -0.2218
-2.9171 ISABELLA -0.2218
-3.2480 IT -0.2218
-2.9171 JACOB -0.2218
-2.9171 JAMES -0.2218
-3.7921 JANUARY -0.2218
-3.7921 JOHANN -0.2218
-3.8713 JOKE -0.2218
-2.8299 KITCHEN -0.2218
-3.7921 KNOW -0.2218
-3.7921 LAND -0.2218
-3.4911 LANGUAGE -0.2218
-3.7921 LARGEST -0.2218
-3.3150 LAST -0.2218
-3.3661 LEFT -0.2218
-3.7921 LEIPZIG -0.2218
-2.9171 LIAM -0.2218
-3.7921 LIVE -0.2218
-2.3174 LIVING -0.2218
-2.8627 LOCATE -0.2218
-3.7921 LOCATED -0.2218
-2.8627 LOOK -0.2218
-3.7921 LORD -0.2218
-3.7921 LOVE -0.2218
-2.9171 MADISON -0.2218
-3.7921 MAIN -0.2218
-3.4911 MAKES -0.2218
-3.7921 MAN -0.2218
-3.7921 MANY -0.2218
-2.9171 MASON -0.2218
-3.5703 ME -0.2218
-3.7921 METRES -0.2218
-2.9171 MICHAEL -0.2218
-3.7921 MILE -0.2218
-3.1231 MILK -0.2218
-3.8713 MONTH -0.2218
-3.4911 MOON -0.2218
-3.4911 MOVIE -0.2218
-3.7921 MUSIC -0.2218
-3.3398 NAME -0.2218
-3.7921 NAMES -0.2218
-3.8713 NAVIGATE -0.2218
-3.7921 NEPHEWS -0.2218
-3.7921 NEW -0.2218
-3.7921 NEXT -0.2218
-3.1231 NICKEL -0.2218
-4.5703 NO -0.2218
-2.9171 NOAH -0.2218
-2.5925 OF -0.2218
-2.8299 OFFICE -0.2218
-3.4911 OLDEST -0.2218
-3.1389 ON -0.2218
-3.4911 ONE -0.2218
-3.0140 OR -0.2218
-3.7921 ORIGIN -0.2218
-3.1231 PAPRIKA -0.2218
-3.7921 PEACEFUL -0.2218
-3.7921 PEOPLE -0.2218
-3.6672 PERSON -0.2218
-3.4911 PICK -0.2218
-3.7921 PILOT -0.2218
-3.3942 PLACE -0.2218
-3.1231 PLATE -0.2218
-3.7921 PLAY -0.2218
-3.3661 POINTING -0.2218
-3.7921 PREQUELS -0.2218
-3.7921 PRESIDENT -0.2218
-3.1231 PRETZELS -0.2218
-3.1231 PRINGLES -0.2218
-3.4911 PROGRAMMING -0.2218
-3.1231 PUMPER -0.2218
-3.3942 PUT -0.2218
-3.7921 PYTHON -0.2218
-3.7921 REVOLUTION -0.2218
-3.3661 RIGHT -0.2218
-3.7921 RINGS -0.2218
-3.3661 RISING -0.2218
-3.7921 RIVERS -0.2218
-2.9171 ROBIN -0.2218
-3.3150 ROBOCUP -0.2218
-3.0789 ROBOT -0.2218
-2.5289 ROOM -0.2218
-3.7921 ROUND -0.2218
-3.7921 SAUSAGES -0.2218
-3.8713 SAY -0.2218
-3.7921 SEBASTIAN -0.2218
-3.7921 SET -0.2218
-3.7921 SEVEN -0.2218
-3.1231 SHAMPOO -0.2218
-3.0651 SHELF -0.2218
-3.7921 SHOP -0.2218
-3.0651 SIDESHELF -0.2218
-2.6065 SINK -0.2218
-3.1231 SOAP -0.2218
-3.8713 SOMETHING -0.2218
-2.9171 SOPHIA -0.2218
-3.1231 SPPONGE -0.2218
-2.6065 STAND -0.2218
-3.3150 STAR -0.2218
-3.7921 START -0.2218
-3.7921 STEP -0.2218
-3.7921 SURROUNDING -0.2218
-3.1231 SWEETS -0.2218
-3.1231 SYRUP -0.2218
-2.3054 TABLE -0.2218
-3.0517 TAKE -0.2218
-2.9171 TAYLOR -0.2218
-3.1231 TEA -0.2218
-3.8713 TEAM'S -0.2218
-3.8713 TELL -0.2218
-3.7921 TERM -0.2218
-1.9871 THE -0.2218
-3.7921 THERE -0.2218
-3.4911 THIS -0.2218
-3.8713 TIME -0.2218
-2.8221 TO -0.2218
-3.8713 TODAY -0.2218
-3.8713 TOMORROW -0.2218
-3.7921 TRADE -0.2218
-3.1231 TRAY -0.2218
-3.0140 TRUE -0.2218
-3.7921 TURING -0.2218
-2.6065 TV -0.2218
-3.3150 UP -0.2218
-3.7921 USED -0.2218
-3.4911 WALL-E -0.2218
-3.4911 WARS -0.2218
-3.3150 WAS -0.2218
-3.6672 WAVING -0.2218
-3.3398 WEEK -0.2218
-3.5289 WHAT -0.2218
-3.4911 WHAT'S -0.2218
-3.7921 WHERE -0.2218
-3.4911 WHICH -0.2218
-3.5289 WHO -0.2218
-3.7921 WILL -0.2218
-2.9171 WILLIAM -0.2218
-3.4911 WORD -0.2218
-3.4911 WORLD'S -0.2218
-3.7921 YEAR -0.2218
-3.3150 YEAR'S -0.2218
-4.5703 YES -0.2218
-3.3150 YOU -0.2218
-3.8713 YOUR -0.2218
-3.8713 YOURSELF -0.2218
-3.7921 ZOO -0.2218

\2-grams:
-0.3010 1989 </s> -0.3010
-0.3010 28 </s> -0.3010
-0.3010 31 </s> -0.3010
-3.3150 <s> 1989 0.0000
-3.0140 <s> 28 0.0000
-3.0140 <s> 31 0.0000
-2.3373 <s> A 0.0000
-3.3150 <s> A-TEAM 0.0000
-3.3942 <s> ABOUT 0.0000
-3.3942 <s> AFFILIATION 0.0000
-3.3150 <s> ALAN 0.0000
-2.4399 <s> ALEXANDER 0.0000
-3.3150 <s> AN 0.0000
-2.5746 <s> AND 0.0000
-3.3150 <s> ANDROID 0.0000
-2.4399 <s> ANGEL 0.0000
-3.3150 <s> ANSWER 0.0000
-3.3150 <s> ANY 0.0000
-3.3150 <s> APOLLO 0.0000
-2.6460 <s> APPLE 0.0000
-2.5368 <s> ARE 0.0000
-2.8890 <s> ARM 0.0000
-3.3150 <s> ARMS 0.0000
-3.3150 <s> ASIMO 0.0000
-3.3942 <s> AT 0.0000
-2.4399 <s> AVA 0.0000
-2.6460 <s> BABY 0.0000
-3.3150 <s> BACH 0.0000
-2.5880 <s> BAR 0.0000
-3.3150 <s> BE 0.0000
-2.3150 <s> BED 0.0000
-2.3528 <s> BEDROOM 0.0000
-2.5880 <s> BEDSIDE 0.0000
-2.6460 <s> BEER 0.0000
-3.3150 <s> BETWEEN 0.0000
-3.3150 <s> BIG 0.0000
-2.6460 <s> BISQUITS 0.0000
-2.5880 <s> BOOKCASE 0.0000
-2.6460 <s> BOWL 0.0000
-3.0140 <s> BRING 0.0000
-3.3150 <s> BUG 0.0000
-3.3150 <s> BURIED 0.0000
-3.3150 <s> C 0.0000
-2.1294 <s> CABINET 0.0000
-3.3150 <s> CAPITAL 0.0000
-3.3150 <s> CHANCELLOR 0.0000
-3.3150 <s> CHARACTER 0.0000
-2.4399 <s> CHARLOTTE 0.0000
-2.6460 <s> CHIPS 0.0000
-2.6460 <s> CHOCO 0.0000
-2.7129 <s> CITY 0.0000
-2.6460 <s> CLOTH 0.0000
-3.3150 <s> CLUMSY 0.0000
-2.6460 <s> COCONUT 0.0000
-3.3150 <s> COFFEE 0.0000
-2.6460 <s> COKE 0.0000
-3.3150 <s> COLOURS 0.0000
-3.3150 <s> COME 0.0000
-3.0140 <s> COMPANY 0.0000
-3.3150 <s> COMPOSERS 0.0000
-3.3150 <s> COMPUTER 0.0000
-3.3150 <s> CONTINUOUS 0.0000
-2.3528 <s> CORRIDOR 0.0000
-3.3942 <s> COUNTRY 0.0000
-3.3150 <s> COUNTY 0.0000
-3.3150 <s> CREATE 0.0000
-2.5880 <s> CUPBOARD 0.0000
-3.3150 <s> CURRY 0.0000
-3.0140 <s> CYBORG 0.0000
-2.4399 <s> DANIEL 0.0000
-3.3150 <s> DARK 0.0000
-3.0931 <s> DAY 0.0000
-2.5368 <s> DAYS 0.0000
-2.6618 <s> DELIVER 0.0000
-2.1294 <s> DESK 0.0000
-3.3150 <s> DEVELOPED 0.0000
-3.0140 <s> DID 0.0000
-3.3150 <s> DIFFERENCE 0.0000
-1.9258 <s> DINING 0.0000
-3.0140 <s> DO 0.0000
-3.3150 <s> DOES 0.0000
-3.3150 <s> DOG 0.0000
-3.3150 <s> DONALD 0.0000
-3.3150 <s> DRAGON 0.0000
-2.5880 <s> DRAWER 0.0000
-3.3150 <s> DREAMS 0.0000
-3.3150 <s> DUCK'S 0.0000
-3.3150 <s> EACH 0.0000
-3.3150 <s> EATEN 0.0000
-2.6460 <s> EGG 0.0000
-3.3150 <s> ELEMENT 0.0000
-3.3150 <s> ELEVEN 0.0000
-2.4399 <s> EMILY 0.0000
-2.4399 <s> EMMA 0.0000
-2.7709 <s> ESCORT 0.0000
-2.4399 <s> ETHAN 0.0000
-3.3150 <s> EUROPE'S 0.0000
-2.7709 <s> EXIT 0.0000
-3.3150 <s> FAIR 0.0000
-2.5368 <s> FALSE 0.0000
-3.3150 <s> FEBRUARY 0.0000
-3.3150 <s> FESTIVALS 0.0000
-2.3856 <s> FIND 0.0000
-3.0140 <s> FIRST 0.0000
-3.3150 <s> FLAG 0.0000
-2.8144 <s> FOLLOW 0.0000
-2.3856 <s> FOR 0.0000
-2.6307 <s> FROM 0.0000
-3.3150 <s> FUNNY 0.0000
-3.0140 <s> GALAXY 0.0000
-3.0140 <s> GERMAN 0.0000
-2.7129 <s> GERMANY 0.0000
-3.0140 <s> GET 0.0000
-3.0140 <s> GIVE 0.0000
-3.3942 <s> GO 0.0000
-3.0140 <s> GRASP 0.0000
-3.3150 <s> GREATEST 0.0000
-2.6618 <s> GUIDE 0.0000
-3.3150 <s> HAMLET 0.0000
-3.0140 <s> HAND 0.0000
-2.8379 <s> HAS 0.0000
-3.0140 <s> HAVE 0.0000
-3.3150 <s> HEAVIEST 0.0000
-3.3150 <s> HELICOPTER 0.0000
-3.0517 <s> HER 0.0000
-3.3150 <s> HEY 0.0000
-2.8144 <s> HIM 0.0000
-3.3150 <s> HITCHHIKER'S 0.0000
-2.5368 <s> HOSTED 0.0000
-3.3150 <s> HOW 0.0000
-1.9628 <s> IN 0.0000
-3.3150 <s> INDUSTRIAL 0.0000
-3.3150 <s> INTEREST 0.0000
-3.3150 <s> INVENTOR 0.0000
-3.3150 <s> INVENTORS 0.0000
-2.3771 <s> IS 0.0000
-2.4399 <s> ISABELLA 0.0000
-2.7709 <s> IT 0.0000
-2.4399 <s> JACOB 0.0000
-2.4399 <s> JAMES 0.0000
-3.3150 <s> JANUARY 0.0000
-3.3150 <s> JOHANN 0.0000
-3.3942 <s> JOKE 0.0000
-2.3528 <s> KITCHEN 0.0000
-3.3150 <s> KNOW 0.0000
-3.3150 <s> LAND 0.0000
-3.0140 <s> LANGUAGE 0.0000
-3.3150 <s> LARGEST 0.0000
-2.8379 <s> LAST 0.0000
-2.8890 <s> LEFT 0.0000
-3.3150 <s> LEIPZIG 0.0000
-2.4399 <s> LIAM 0.0000
-3.3150 <s> LIVE 0.0000
-1.8403 <s> LIVING 0.0000
-2.3856 <s> LOCATE 0.0000
-3.3150 <s> LOCATED 0.0000
-2.3856 <s> LOOK 0.0000
-3.3150 <s> LORD 0.0000
-3.3150 <s> LOVE 0.0000
-2.4399 <s> MADISON 0.0000
-3.3150 <s> MAIN 0.0000
-3.0140 <s> MAKES 0.0000
-3.3150 <s> MAN 0.0000
-3.3150 <s> MANY 0.0000
-2.4399 <s> MASON 0.0000
-3.0931 <s> ME 0.0000
-3.3150 <s> METRES 0.0000
-2.4399 <s> MICHAEL 0.0000
-3.3150 <s> MILE 0.0000
-2.6460 <s> MILK 0.0000
-3.3942 <s> MONTH 0.0000
-3.0140 <s> MOON 0.0000
-3.0140 <s> MOVIE 0.0000
-3.3150 <s> MUSIC 0.0000
-2.8627 <s> NAME 0.0000
-3.3150 <s> NAMES 0.0000
-3.3942 <s> NAVIGATE 0.0000
-3.3150 <s> NEPHEWS 0.0000
-3.3150 <s> NEW 0.0000
-3.3150 <s> NEXT 0.0000
-2.6460 <s> NICKEL 0.0000
-4.0931 <s> NO 0.0000
-2.4399 <s> NOAH 0.0000
-2.1154 <s> OF 0.0000
-2.3528 <s> OFFICE 0.0000
-3.0140 <s> OLDEST 0.0000
-2.6618 <s> ON 0.0000
-3.0140 <s> ONE 0.0000
-2.5368 <s> OR 0.0000
-3.3150 <s> ORIGIN 0.0000
-2.6460 <s> PAPRIKA 0.0000
-3.3150 <s> PEACEFUL 0.0000
-3.3150 <s> PEOPLE 0.0000
-3.1901 <s> PERSON 0.0000
-3.0140 <s> PICK 0.0000
-3.3150 <s> PILOT 0.0000
-2.9171 <s> PLACE 0.0000
-2.6460 <s> PLATE 0.0000
-3.3150 <s> PLAY 0.0000
-2.8890 <s> POINTING 0.0000
-3.3150 <s> PREQUELS 0.0000
-3.3150 <s> PRESIDENT 0.0000
-2.6460 <s> PRETZELS 0.0000
-2.6460 <s> PRINGLES 0.0000
-3.0140 <s> PROGRAMMING 0.0000
-2.6460 <s> PUMPER 0.0000
-2.9171 <s> PUT 0.0000
-3.3150 <s> PYTHON 0.0000
-3.3150 <s> REVOLUTION 0.0000
-2.8890 <s> RIGHT 0.0000
-3.3150 <s> RINGS 0.0000
-2.8890 <s> RISING 0.0000
-3.3150 <s> RIVERS 0.0000
-2.4399 <s> ROBIN 0.0000
-2.8379 <s> ROBOCUP 0.0000
-2.6018 <s> ROBOT 0.0000
-2.0517 <s> ROOM 0.0000
-3.3150 <s> ROUND 0.0000
-3.3150 <s> SAUSAGES 0.0000
-3.3942 <s> SAY 0.0000
-3.3150 <s> SEBASTIAN 0.0000
-3.3150 <s> SET 0.0000
-3.3150 <s> SEVEN 0.0000
-2.6460 <s> SHAMPOO 0.0000
-2.5880 <s> SHELF 0.0000
-3.3150 <s> SHOP 0.0000
-2.5880 <s> SIDESHELF 0.0000
-2.1294 <s> SINK 0.0000
-2.6460 <s> SOAP 0.0000
-3.3942 <s> SOMETHING 0.0000
-2.4399 <s> SOPHIA 0.0000
-2.6460 <s> SPPONGE 0.0000
-2.1294 <s> STAND 0.0000
-2.8379 <s> STAR 0.0000
-3.3150 <s> START 0.0000
-3.3150 <s> STEP 0.0000
-3.3150 <s> SURROUNDING 0.0000
-2.6460 <s> SWEETS 0.0000
-2.6460 <s> SYRUP 0.0000
-1.8283 <s> TABLE 0.0000
-2.5746 <s> TAKE 0.0000
-2.4399 <s> TAYLOR 0.0000
-2.6460 <s> TEA 0.0000
-3.3942 <s> TEAM'S 0.0000
-3.3942 <s> TELL 0.0000
-3.3150 <s> TERM 0.0000
-1.5099 <s> THE 0.0000
-3.3150 <s> THERE 0.0000
-3.0140 <s> THIS 0.0000
-3.3942 <s> TIME 0.0000
-2.3450 <s> TO 0.0000
-3.3942 <s> TODAY 0.0000
-3.3942 <s> TOMORROW 0.0000
-3.3150 <s> TRADE 0.0000
-2.6460 <s> TRAY 0.0000
-2.5368 <s> TRUE 0.0000
-3.3150 <s> TURING 0.0000
-2.1294 <s> TV 0.0000
-2.8379 <s> UP 0.0000
-3.3150 <s> USED 0.0000
-3.0140 <s> WALL-E 0.0000
-3.0140 <s> WARS 0.0000
-2.8379 <s> WAS 0.0000
-3.1901 <s> WAVING 0.0000
-2.8627 <s> WEEK 0.0000
-3.0517 <s> WHAT 0.0000
-3.0140 <s> WHAT'S 0.0000
-3.3150 <s> WHERE 0.0000
-3.0140 <s> WHICH 0.0000
-3.0517 <s> WHO 0.0000
-3.3150 <s> WILL 0.0000
-2.4399 <s> WILLIAM 0.0000
-3.0140 <s> WORD 0.0000
-3.0140 <s> WORLD'S 0.0000
-3.3150 <s> YEAR 0.0000
-2.8379 <s> YEAR'S 0.0000
-4.0931 <s> YES 0.0000
-2.8379 <s> YOU 0.0000
-3.3942 <s> YOUR 0.0000
-3.3942 <s> YOURSELF 0.0000
-3.3150 <s> ZOO 0.0000
-0.3010 A </s> -0.3010
-0.3010 A-TEAM </s> -0.3010
-0.3010 ABOUT </s> -0.3010
-0.3010 AFFILIATION </s> -0.3010
-0.3010 ALAN </s> -0.3010
-0.3010 ALEXANDER </s> -0.3010
-0.3010 AN </s> -0.3010
-0.3010 AND </s> -0.3010
-0.3010 ANDROID </s> -0.3010
-0.3010 ANGEL </s> -0.3010
-0.3010 ANSWER </s> -0.3010
-0.3010 ANY </s> -0.3010
-0.3010 APOLLO </s> -0.3010
-0.3010 APPLE </s> -0.3010
-0.3010 ARE </s> -0.3010
-0.3010 ARM </s> -0.3010
-0.3010 ARMS </s> -0.3010
-0.3010 ASIMO </s> -0.3010
-0.3010 AT </s> -0.3010
-0.3010 AVA </s> -0.3010
-0.3010 BABY </s> -0.3010
-0.3010 BACH </s> -0.3010
-0.3010 BAR </s> -0.3010
-0.3010 BE </s> -0.3010
-0.3010 BED </s> -0.3010
-0.3010 BEDROOM </s> -0.3010
-0.3010 BEDSIDE </s> -0.3010
-0.3010 BEER </s> -0.3010
-0.3010 BETWEEN </s> -0.3010
-0.3010 BIG </s> -0.3010
-0.3010 BISQUITS </s> -0.3010
-0.3010 BOOKCASE </s> -0.3010
-0.3010 BOWL </s> -0.3010
-0.3010 BRING </s> -0.3010
-0.3010 BUG </s> -0.3010
-0.3010 BURIED </s> -0.3010
-0.3010 C </s> -0.3010
-0.3010 CABINET </s> -0.3010
-0.3010 CAPITAL </s> -0.3010
-0.3010 CHANCELLOR </s> -0.3010
-0.3010 CHARACTER </s> -0.3010
-0.3010 CHARLOTTE </s> -0.3010
-0.3010 CHIPS </s> -0.3010
-0.3010 CHOCO </s> -0.3010
-0.3010 CITY </s> -0.3010
-0.3010 CLOTH </s> -0.3010
-0.3010 CLUMSY </s> -0.3010
-0.3010 COCONUT </s> -0.3010
-0.3010 COFFEE </s> -0.3010
-0.3010 COKE </s> -0.3010
-0.3010 COLOURS </s> -0.3010
-0.3010 COME </s> -0.3010
-0.3010 COMPANY </s> -0.3010
-0.3010 COMPOSERS </s> -0.3010
-0.3010 COMPUTER </s> -0.3010
-0.3010 CONTINUOUS </s> -0.3010
-0.3010 CORRIDOR </s> -0.3010
-0.3010 COUNTRY </s> -0.3010
-0.3010 COUNTY </s> -0.3010
-0.3010 CREATE </s> -0.3010
-0.3010 CUPBOARD </s> -0.3010
-0.3010 CURRY </s> -0.3010
-0.3010 CYBORG </s> -0.3010
-0.3010 DANIEL </s> -0.3010
-0.3010 DARK </s> -0.3010
-0.3010 DAY </s> -0.3010
-0.3010 DAYS </s> -0.3010
-0.3010 DELIVER </s> -0.3010
-0.3010 DESK </s> -0.3010
-0.3010 DEVELOPED </s> -0.3010
-0.3010 DID </s> -0.3010
-0.3010 DIFFERENCE </s> -0.3010
-0.3010 DINING </s> -0.3010
-0.3010 DO </s> -0.3010
-0.3010 DOES </s> -0.3010
-0.3010 DOG </s> -0.3010
-0.3010 DONALD </s> -0.3010
-0.3010 DRAGON </s> -0.3010
-0.3010 DRAWER </s> -0.3010
-0.3010 DREAMS </s> -0.3010
-0.3010 DUCK'S </s> -0.3010
-0.3010 EACH </s> -0.3010
-0.3010 EATEN </s> -0.3010
-0.3010 EGG </s> -0.3010
-0.3010 ELEMENT </s> -0.3010
-0.3010 ELEVEN </s> -0.3010
-0.3010 EMILY </s> -0.3010
-0.3010 EMMA </s> -0.3010
-0.3010 ESCORT </s> -0.3010
-0.3010 ETHAN </s> -0.3010
-0.3010 EUROPE'S </s> -0.3010
-0.3010 EXIT </s> -0.3010
-0.3010 FAIR </s> -0.3010
-0.3010 FALSE </s> -0.3010
-0.3010 FEBRUARY </s> -0.3010
-0.3010 FESTIVALS </s> -0.3010
-0.3010 FIND </s> -0.3010
-0.3010 FIRST </s> -0.3010
-0.3010 FLAG </s> -0.3010
-0.3010 FOLLOW </s> -0.3010
-0.3010 FOR </s> -0.3010
-0.3010 FROM </s> -0.3010
-0.3010 FUNNY </s> -0.3010
-0.3010 GALAXY </s> -0.3010
-0.3010 GERMAN </s> -0.3010
-0.3010 GERMANY </s> -0.3010
-0.3010 GET </s> -0.3010
-0.3010 GIVE </s> -0.3010
-0.3010 GO </s> -0.3010
-0.3010 GRASP </s> -0.3010
-0.3010 GREATEST </s> -0.3010
-0.3010 GUIDE </s> -0.3010
-0.3010 HAMLET </s> -0.3010
-0.3010 HAND </s> -0.3010
-0.3010 HAS </s> -0.3010
-0.3010 HAVE </s> -0.3010
-0.3010 HEAVIEST </s> -0.3010
-0.3010 HELICOPTER </s> -0.3010
-0.3010 HER </s> -0.3010
-0.3010 HEY </s> -0.3010
-0.3010 HIM </s> -0.3010
-0.3010 HITCHHIKER'S </s> -0.3010
-0.3010 HOSTED </s> -0.3010
-0.3010 HOW </s> -0.3010
-0.3010 IN </s> -0.3010
-0.3010 INDUSTRIAL </s> -0.3010
-0.3010 INTEREST </s> -0.3010
-0.3010 INVENTOR </s> -0.3010
-0.3010 INVENTORS </s> -0.3010
-0.3010 IS </s> -0.3010
-0.3010 ISABELLA </s> -0.3010
-0.3010 IT </s> -0.3010
-0.3010 JACOB </s> -0.3010
-0.3010 JAMES </s> -0.3010
-0.3010 JANUARY </s> -0.3010
-0.3010 JOHANN </s> -0.3010
-0.3010 JOKE </s> -0.3010
-0.3010 KITCHEN </s> -0.3010
-0.3010 KNOW </s> -0.3010
-0.3010 LAND </s> -0.3010
-0.3010 LANGUAGE </s> -0.3010
-0.3010 LARGEST </s> -0.3010
-0.3010 LAST </s> -0.3010
-0.3010 LEFT </s> -0.3010
-0.3010 LEIPZIG </s> -0.3010
-0.3010 LIAM </s> -0.3010
-0.3010 LIVE </s> -0.3010
-0.3010 LIVING </s> -0.3010
-0.3010 LOCATE </s> -0.3010
-0.3010 LOCATED </s> -0.3010
-0.3010 LOOK </s> -0.3010
-0.3010 LORD </s> -0.3010
-0.3010 LOVE </s> -0.3010
-0.3010 MADISON </s> -0.3010
-0.3010 MAIN </s> -0.3010
-0.3010 MAKES </s> -0.3010
-0.3010 MAN </s> -0.3010
-0.3010 MANY </s> -0.3010
-0.3010 MASON </s> -0.3010
-0.3010 ME </s> -0.3010
-0.3010 METRES </s> -0.3010
-0.3010 MICHAEL </s> -0.3010
-0.3010 MILE </s> -0.3010
-0.3010 MILK </s> -0.3010
-0.3010 MONTH </s> -0.3010
-0.3010 MOON </s> -0.3010
-0.3010 MOVIE </s> -0.3010
-0.3010 MUSIC </s> -0.3010
-0.3010 NAME </s> -0.3010
-0.3010 NAMES </s> -0.3010
-0.3010 NAVIGATE </s> -0.3010
-0.3010 NEPHEWS </s> -0.3010
-0.3010 NEW </s> -0.3010
-0.3010 NEXT </s> -0.3010
-0.3010 NICKEL </s> -0.3010
-0.3010 NO </s> -0.3010
-0.3010 NOAH </s> -0.3010
-0.3010 OF </s> -0.3010
-0.3010 OFFICE </s> -0.3010
-0.3010 OLDEST </s> -0.3010
-0.3010 ON </s> -0.3010
-0.3010 ONE </s> -0.3010
-0.3010 OR </s> -0.3010
-0.3010 ORIGIN </s> -0.3010
-0.3010 PAPRIKA </s> -0.3010
-0.3010 PEACEFUL </s> -0.3010
-0.3010 PEOPLE </s> -0.3010
-0.3010 PERSON </s> -0.3010
-0.3010 PICK </s> -0.3010
-0.3010 PILOT </s> -0.3010
-0.3010 PLACE </s> -0.3010
-0.3010 PLATE </s> -0.3010
-0.3010 PLAY </s> -0.3010
-0.3010 POINTING </s> -0.3010
-0.3010 PREQUELS </s> -0.3010
-0.3010 PRESIDENT </s> -0.3010
-0.3010 PRETZELS </s> -0.3010
-0.3010 PRINGLES </s> -0.3010
-0.3010 PROGRAMMING </s> -0.3010
-0.3010 PUMPER </s> -0.3010
-0.3010 PUT </s> -0.3010
-0.3010 PYTHON </s> -0.3010
-0.3010 REVOLUTION </s> -0.3010
-0.3010 RIGHT </s> -0.3010
-0.3010 RINGS </s> -0.3010
-0.3010 RISING </s> -0.3010
-0.3010 RIVERS </s> -0.3010
-0.3010 ROBIN </s> -0.3010
-0.3010 ROBOCUP </s> -0.3010
-0.3010 ROBOT </s> -0.3010
-0.3010 ROOM </s> -0.3010
-0.3010 ROUND </s> -0.3010
-0.3010 SAUSAGES </s> -0.3010
-0.3010 SAY </s> -0.3010
-0.3010 SEBASTIAN </s> -0.3010
-0.3010 SET </s> -0.3010
-0.3010 SEVEN </s> -0.3010
-0.3010 SHAMPOO </s> -0.3010
-0.3010 SHELF </s> -0.3010
-0.3010 SHOP </s> -0.3010
-0.3010 SIDESHELF </s> -0.3010
-0.3010 SINK </s> -0.3010
-0.3010 SOAP </s> -0.3010
-0.3010 SOMETHING </s> -0.3010
-0.3010 SOPHIA </s> -0.3010
-0.3010 SPPONGE </s> -0.3010
-0.3010 STAND </s> -0.3010
-0.3010 STAR </s> -0.3010
-0.3010 START </s> -0.3010
-0.3010 STEP </s> -0.3010
-0.3010 SURROUNDING </s> -0.3010
-0.3010 SWEETS </s> -0.3010
-0.3010 SYRUP </s> -0.3010
-0.3010 TABLE </s> -0.3010
-0.3010 TAKE </s> -0.3010
-0.3010 TAYLOR </s> -0.3010
-0.3010 TEA </s> -0.3010
-0.3010 TEAM'S </s> -0.3010
-0.3010 TELL </s> -0.3010
-0.3010 TERM </s> -0.3010
-0.3010 THE </s> -0.3010
-0.3010 THERE </s> -0.3010
-0.3010 THIS </s> -0.3010
-0.3010 TIME </s> -0.3010
-0.3010 TO </s> -0.3010
-0.3010 TODAY </s> -0.3010
-0.3010 TOMORROW </s> -0.3010
-0.3010 TRADE </s> -0.3010
-0.3010 TRAY </s> -0.3010
-0.3010 TRUE </s> -0.3010
-0.3010 TURING </s> -0.3010
-0.3010 TV </s> -0.3010
-0.3010 UP </s> -0.3010
-0.3010 USED </s> -0.3010
-0.3010 WALL-E </s> -0.3010
-0.3010 WARS </s> -0.3010
-0.3010 WAS </s> -0.3010
-0.3010 WAVING </s> -0.3010
-0.3010 WEEK </s> -0.3010
-0.3010 WHAT </s> -0.3010
-0.3010 WHAT'S </s> -0.3010
-0.3010 WHERE </s> -0.3010
-0.3010 WHICH </s> -0.3010
-0.3010 WHO </s> -0.3010
-0.3010 WILL </s> -0.3010
-0.3010 WILLIAM </s> -0.3010
-0.3010 WORD </s> -0.3010
-0.3010 WORLD'S </s> -0.3010
-0.3010 YEAR </s> -0.3010
-0.3010 YEAR'S </s> -0.3010
-0.3010 YES </s> -0.3010
-0.3010 YOU </s> -0.3010
-0.3010 YOUR </s> -0.3010
-0.3010 YOURSELF </s> -0.3010
-0.3010 ZOO </s> -0.3010

\3-grams:
-0.3010 <s> 1989 </s>
-0.3010 <s> 28 </s>
-0.3010 <s> 31 </s>
-0.3010 <s> A </s>
-0.3010 <s> A-TEAM </s>
-0.3010 <s> ABOUT </s>
-0.3010 <s> AFFILIATION </s>
-0.3010 <s> ALAN </s>
-0.3010 <s> ALEXANDER </s>
-0.3010 <s> AN </s>
-0.3010 <s> AND </s>
-0.3010 <s> ANDROID </s>
-0.3010 <s> ANGEL </s>
-0.3010 <s> ANSWER </s>
-0.3010 <s> ANY </s>
-0.3010 <s> APOLLO </s>
-0.3010 <s> APPLE </s>
-0.3010 <s> ARE </s>
-0.3010 <s> ARM </s>
-0.3010 <s> ARMS </s>
-0.3010 <s> ASIMO </s>
-0.3010 <s> AT </s>
-0.3010 <s> AVA </s>
-0.3010 <s> BABY </s>
-0.3010 <s> BACH </s>
-0.3010 <s> BAR </s>
-0.3010 <s> BE </s>
-0.3010 <s> BED </s>
-0.3010 <s> BEDROOM </s>
-0.3010 <s> BEDSIDE </s>
-0.3010 <s> BEER </s>
-0.3010 <s> BETWEEN </s>
-0.3010 <s> BIG </s>
-0.3010 <s> BISQUITS </s>
-0.3010 <s> BOOKCASE </s>
-0.3010 <s> BOWL </s>
-0.3010 <s> BRING </s>
-0.3010 <s> BUG </s>
-0.3010 <s> BURIED </s>
-0.3010 <s> C </s>
-0.3010 <s> CABINET </s>
-0.3010 <s> CAPITAL </s>
-0.3010 <s> CHANCELLOR </s>
-0.3010 <s> CHARACTER </s>
-0.3010 <s> CHARLOTTE </s>
-0.3010 <s> CHIPS </s>
-0.3010 <s> CHOCO </s>
-0.3010 <s> CITY </s>
-0.3010 <s> CLOTH </s>
-0.3010 <s> CLUMSY </s>
-0.3010 <s> COCONUT </s>
-0.3010 <s> COFFEE </s>
-0.3010 <s> COKE </s>
-0.3010 <s> COLOURS </s>
-0.3010 <s> COME </s>
-0.3010 <s> COMPANY </s>
-0.3010 <s> COMPOSERS </s>
-0.3010 <s> COMPUTER </s>
-0.3010 <s> CONTINUOUS </s>
-0.3010 <s> CORRIDOR </s>
-0.3010 <s> COUNTRY </s>
-0.3010 <s> COUNTY </s>
-0.3010 <s> CREATE </s>
-0.3010 <s> CUPBOARD </s>
-0.3010 <s> CURRY </s>
-0.3010 <s> CYBORG </s>
-0.3010 <s> DANIEL </s>
-0.3010 <s> DARK </s>
-0.3010 <s> DAY </s>
-0.3010 <s> DAYS </s>
-0.3010 <s> DELIVER </s>
-0.3010 <s> DESK </s>
-0.3010 <s> DEVELOPED </s>
-0.3010 <s> DID </s>
-0.3010 <s> DIFFERENCE </s>
-0.3010 <s> DINING </s>
-0.3010 <s> DO </s>
-0.3010 <s> DOES </s>
-0.3010 <s> DOG </s>
-0.3010 <s> DONALD </s>
-0.3010 <s> DRAGON </s>
-0.3010 <s> DRAWER </s>
-0.3010 <s> DREAMS </s>
-0.3010 <s> DUCK'S </s>
-0.3010 <s> EACH </s>
-0.3010 <s> EATEN </s>
-0.3010 <s> EGG </s>
-0.3010 <s> ELEMENT </s>
-0.3010 <s> ELEVEN </s>
-0.3010 <s> EMILY </s>
-0.3010 <s> EMMA </s>
-0.3010 <s> ESCORT </s>
-0.3010 <s> ETHAN </s>
-0.3010 <s> EUROPE'S </s>
-0.3010 <s> EXIT </s>
-0.3010 <s> FAIR </s>
-0.3010 <s> FALSE </s>
-0.3010 <s> FEBRUARY </s>
-0.3010 <s> FESTIVALS </s>
-0.3010 <s> FIND </s>
-0.3010 <s> FIRST </s>
-0.3010 <s> FLAG </s>
-0.3010 <s> FOLLOW </s>
-0.3010 <s> FOR </s>
-0.3010 <s> FROM </s>
-0.3010 <s> FUNNY </s>
-0.3010 <s> GALAXY </s>
-0.3010 <s> GERMAN </s>
-0.3010 <s> GERMANY </s>
-0.3010 <s> GET </s>
-0.3010 <s> GIVE </s>
-0.3010 <s> GO </s>
-0.3010 <s> GRASP </s>
-0.3010 <s> GREATEST </s>
-0.3010 <s> GUIDE </s>
-0.3010 <s> HAMLET </s>
-0.3010 <s> HAND </s>
-0.3010 <s> HAS </s>
-0.3010 <s> HAVE </s>
-0.3010 <s> HEAVIEST </s>
-0.3010 <s> HELICOPTER </s>
-0.3010 <s> HER </s>
-0.3010 <s> HEY </s>
-0.3010 <s> HIM </s>
-0.3010 <s> HITCHHIKER'S </s>
-0.3010 <s> HOSTED </s>
-0.3010 <s> HOW </s>
-0.3010 <s> IN </s>
-0.3010 <s> INDUSTRIAL </s>
-0.3010 <s> INTEREST </s>
-0.3010 <s> INVENTOR </s>
-0.3010 <s> INVENTORS </s>
-0.3010 <s> IS </s>
-0.3010 <s> ISABELLA </s>
-0.3010 <s> IT </s>
-0.3010 <s> JACOB </s>
-0.3010 <s> JAMES </s>
-0.3010 <s> JANUARY </s>
-0.3010 <s> JOHANN </s>
-0.3010 <s> JOKE </s>
-0.3010 <s> KITCHEN </s>
-0.3010 <s> KNOW </s>
-0.3010 <s> LAND </s>
-0.3010 <s> LANGUAGE </s>
-0.3010 <s> LARGEST </s>
-0.3010 <s> LAST </s>
-0.3010 <s> LEFT </s>
-0.3010 <s> LEIPZIG </s>
-0.3010 <s> LIAM </s>
-0.3010 <s> LIVE </s>
-0.3010 <s> LIVING </s>
-0.3010 <s> LOCATE </s>
-0.3010 <s> LOCATED </s>
-0.3010 <s> LOOK </s>
-0.3010 <s> LORD </s>
-0.3010 <s> LOVE </s>
-0.3010 <s> MADISON </s>
-0.3010 <s> MAIN </s>
-0.3010 <s> MAKES </s>
-0.3010 <s> MAN </s>
-0.3010 <s> MANY </s>
-0.3010 <s> MASON </s>
-0.3010 <s> ME </s>
-0.3010 <s> METRES </s>
-0.3010 <s> MICHAEL </s>
-0.3010 <s> MILE </s>
-0.3010 <s> MILK </s>
-0.3010 <s> MONTH </s>
-0.3010 <s> MOON </s>
-0.3010 <s> MOVIE </s>
-0.3010 <s> MUSIC </s>
-0.3010 <s> NAME </s>
-0.3010 <s> NAMES </s>
-0.3010 <s> NAVIGATE </s>
-0.3010 <s> NEPHEWS </s>
-0.3010 <s> NEW </s>
-0.3010 <s> NEXT </s>
-0.3010 <s> NICKEL </s>
-0.3010 <s> NO </s>
-0.3010 <s> NOAH </s>
-0.3010 <s> OF </s>
-0.3010 <s> OFFICE </s>
-0.3010 <s> OLDEST </s>
-0.3010 <s> ON </s>
-0.3010 <s> ONE </s>
-0.3010 <s> OR </s>
-0.3010 <s> ORIGIN </s>
-0.3010 <s> PAPRIKA </s>
-0.3010 <s> PEACEFUL </s>
-0.3010 <s> PEOPLE </s>
-0.3010 <s> PERSON </s>
-0.3010 <s> PICK </s>
-0.3010 <s> PILOT </s>
-0.3010 <s> PLACE </s>
-0.3010 <s> PLATE </s>
-0.3010 <s> PLAY </s>
-0.3010 <s> POINTING </s>
-0.3010 <s> PREQUELS </s>
-0.3010 <s> PRESIDENT </s>
-0.3010 <s> PRETZELS </s>
-0.3010 <s> PRINGLES </s>
-0.3010 <s> PROGRAMMING </s>
-0.3010 <s> PUMPER </s>
-0.3010 <s> PUT </s>
-0.3010 <s> PYTHON </s>
-0.3010 <s> REVOLUTION </s>
-0.3010 <s> RIGHT </s>
-0.3010 <s> RINGS </s>
-0.3010 <s> RISING </s>
-0.3010 <s> RIVERS </s>
-0.3010 <s> ROBIN </s>
-0.3010 <s> ROBOCUP </s>
-0.3010 <s> ROBOT </s>
-0.3010 <s> ROOM </s>
-0.3010 <s> ROUND </s>
-0.3010 <s> SAUSAGES </s>
-0.3010 <s> SAY </s>
-0.3010 <s> SEBASTIAN </s>
-0.3010 <s> SET </s>
-0.3010 <s> SEVEN </s>
-0.3010 <s> SHAMPOO </s>
-0.3010 <s> SHELF </s>
-0.3010 <s> SHOP </s>
-0.3010 <s> SIDESHELF </s>
-0.3010 <s> SINK </s>
-0.3010 <s> SOAP </s>
-0.3010 <s> SOMETHING </s>
-0.3010 <s> SOPHIA </s>
-0.3010 <s> SPPONGE </s>
-0.3010 <s> STAND </s>
-0.3010 <s> STAR </s>
-0.3010 <s> START </s>
-0.3010 <s> STEP </s>
-0.3010 <s> SURROUNDING </s>
-0.3010 <s> SWEETS </s>
-0.3010 <s> SYRUP </s>
-0.3010 <s> TABLE </s>
-0.3010 <s> TAKE </s>
-0.3010 <s> TAYLOR </s>
-0.3010 <s> TEA </s>
-0.3010 <s> TEAM'S </s>
-0.3010 <s> TELL </s>
-0.3010 <s> TERM </s>
-0.3010 <s> THE </s>
-0.3010 <s> THERE </s>
-0.3010 <s> THIS </s>
-0.3010 <s> TIME </s>
-0.3010 <s> TO </s>
-0.3010 <s> TODAY </s>
-0.3010 <s> TOMORROW </s>
-0.3010 <s> TRADE </s>
-0.3010 <s> TRAY </s>
-0.3010 <s> TRUE </s>
-0.3010 <s> TURING </s>
-0.3010 <s> TV </s>
-0.3010 <s> UP </s>
-0.3010 <s> USED </s>
-0.3010 <s> WALL-E </s>
-0.3010 <s> WARS </s>
-0.3010 <s> WAS </s>
-0.3010 <s> WAVING </s>
-0.3010 <s> WEEK </s>
-0.3010 <s> WHAT </s>
-0.3010 <s> WHAT'S </s>
-0.3010 <s> WHERE </s>
-0.3010 <s> WHICH </s>
-0.3010 <s> WHO </s>
-0.3010 <s> WILL </s>
-0.3010 <s> WILLIAM </s>
-0.3010 <s> WORD </s>
-0.3010 <s> WORLD'S </s>
-0.3010 <s> YEAR </s>
-0.3010 <s> YEAR'S </s>
-0.3010 <s> YES </s>
-0.3010 <s> YOU </s>
-0.3010 <s> YOUR </s>
-0.3010 <s> YOURSELF </s>
-0.3010 <s> ZOO </s>

\end\
