Language model created by QuickLM on Sat May  2 22:58:18 EDT 2015
Copyright (c) 1996-2010 Carnegie Mellon University and Alexander I. Rudnicky

The model is in standard ARPA format, designed by Doug Paul while he was at MITRE.

The code that was used to produce this language model is available in Open Source.
Please visit http://www.speech.cs.cmu.edu/tools/ for more information

The (fixed) discount mass is 0.5. The backoffs are computed using the ratio method.
This model based on a corpus of 43 sentences and 48 words

\data\
ngram 1=48
ngram 2=90
ngram 3=55

\1-grams:
-0.8168 </s> -0.3010
-0.8168 <s> -0.2255
-2.4502 A -0.2292
-2.4502 ALEXIS -0.2292
-2.4502 AN -0.2292
-2.4502 ANDREW -0.2292
-2.4502 ASHLEY -0.2292
-2.4502 BROWN -0.2933
-2.4502 CHRISTOPHER -0.2292
-2.4502 DANIEL -0.2292
-2.4502 EMILY -0.2292
-2.4502 EMMA -0.2292
-2.4502 ETHAN -0.2292
-2.4502 GET -0.2995
-2.4502 GREEN -0.2933
-2.4502 HANNAH -0.2292
-2.4502 I -0.2292
-2.1492 IS -0.2292
-2.4502 ISABELLA -0.2292
-2.4502 JACOB -0.2292
-2.4502 JAPANESE -0.2933
-2.4502 JOSEPH -0.2292
-2.4502 JOSHUA -0.2292
-2.1492 JUICE -0.2292
-2.4502 LEMON -0.2933
-2.4502 MADISON -0.2292
-2.4502 MATTHEW -0.2292
-2.4502 MICHAEL -0.2292
-2.1492 MY -0.2255
-2.1492 NAME -0.2255
-2.4502 NEED -0.2292
-2.4502 NO -0.2292
-2.4502 OLIVIA -0.2292
-2.4502 ONE -0.2292
-2.4502 ORANGE -0.2979
-2.4502 OUT -0.2292
-2.4502 RED -0.2933
-2.1492 ROBOT -0.2979
-2.4502 SAMANTHA -0.2292
-2.4502 SARAH -0.2292
-2.4502 SOME -0.2292
-2.4502 STOP -0.2292
-2.4502 STRAWBERRY -0.2979
-1.7513 TEA -0.2292
-2.4502 THE -0.2292
-2.4502 WANT -0.2292
-2.4502 WILLIAM -0.2292
-2.4502 YES -0.2292

\2-grams:
-1.9345 <s> A 0.0000
-1.9345 <s> ALEXIS 0.0000
-1.9345 <s> AN 0.0000
-1.9345 <s> ANDREW 0.0000
-1.9345 <s> ASHLEY 0.0000
-1.9345 <s> BROWN 0.0000
-1.9345 <s> CHRISTOPHER 0.0000
-1.9345 <s> DANIEL 0.0000
-1.9345 <s> EMILY 0.0000
-1.9345 <s> EMMA 0.0000
-1.9345 <s> ETHAN 0.0000
-1.9345 <s> GET 0.0000
-1.9345 <s> GREEN 0.0000
-1.9345 <s> HANNAH 0.0000
-1.9345 <s> I 0.0000
-1.9345 <s> IS 0.0000
-1.9345 <s> ISABELLA 0.0000
-1.9345 <s> JACOB 0.0000
-1.9345 <s> JAPANESE 0.0000
-1.9345 <s> JOSEPH 0.0000
-1.9345 <s> JOSHUA 0.0000
-1.9345 <s> LEMON 0.0000
-1.9345 <s> MADISON 0.0000
-1.9345 <s> MATTHEW 0.0000
-1.9345 <s> MICHAEL 0.0000
-1.6335 <s> MY 0.0000
-1.9345 <s> NAME -0.1761
-1.9345 <s> NEED 0.0000
-1.9345 <s> OLIVIA 0.0000
-1.9345 <s> ONE 0.0000
-1.9345 <s> ORANGE 0.0000
-1.9345 <s> RED 0.0000
-1.6335 <s> ROBOT 0.0000
-1.9345 <s> SAMANTHA 0.0000
-1.9345 <s> SARAH 0.0000
-1.9345 <s> SOME 0.0000
-1.9345 <s> STOP 0.0000
-1.9345 <s> STRAWBERRY 0.0000
-1.9345 <s> THE 0.0000
-1.9345 <s> WANT 0.0000
-1.9345 <s> WILLIAM 0.0000
-0.3010 A </s> -0.3010
-0.3010 ALEXIS </s> -0.3010
-0.3010 AN </s> -0.3010
-0.3010 ANDREW </s> -0.3010
-0.3010 ASHLEY </s> -0.3010
-0.3010 BROWN TEA 0.0000
-0.3010 CHRISTOPHER </s> -0.3010
-0.3010 DANIEL </s> -0.3010
-0.3010 EMILY </s> -0.3010
-0.3010 EMMA </s> -0.3010
-0.3010 ETHAN </s> -0.3010
-0.3010 GET OUT 0.0000
-0.3010 GREEN TEA 0.0000
-0.3010 HANNAH </s> -0.3010
-0.3010 I </s> -0.3010
-0.3010 IS </s> -0.3010
-0.3010 ISABELLA </s> -0.3010
-0.3010 JACOB </s> -0.3010
-0.3010 JAPANESE TEA 0.0000
-0.3010 JOSEPH </s> -0.3010
-0.3010 JOSHUA </s> -0.3010
-0.3010 JUICE </s> -0.3010
-0.3010 LEMON TEA 0.0000
-0.3010 MADISON </s> -0.3010
-0.3010 MATTHEW </s> -0.3010
-0.3010 MICHAEL </s> -0.3010
-0.6021 MY </s> -0.3010
-0.6021 MY NAME -0.1761
-0.6021 NAME </s> -0.3010
-0.6021 NAME IS 0.0000
-0.3010 NEED </s> -0.3010
-0.3010 NO </s> -0.3010
-0.3010 OLIVIA </s> -0.3010
-0.3010 ONE </s> -0.3010
-0.3010 ORANGE JUICE 0.0000
-0.3010 OUT </s> -0.3010
-0.3010 RED TEA 0.0000
-0.6021 ROBOT NO 0.0000
-0.6021 ROBOT YES 0.0000
-0.3010 SAMANTHA </s> -0.3010
-0.3010 SARAH </s> -0.3010
-0.3010 SOME </s> -0.3010
-0.3010 STOP </s> -0.3010
-0.3010 STRAWBERRY JUICE 0.0000
-0.3010 TEA </s> -0.3010
-0.3010 THE </s> -0.3010
-0.3010 WANT </s> -0.3010
-0.3010 WILLIAM </s> -0.3010
-0.3010 YES </s> -0.3010

\3-grams:
-0.3010 <s> A </s>
-0.3010 <s> ALEXIS </s>
-0.3010 <s> AN </s>
-0.3010 <s> ANDREW </s>
-0.3010 <s> ASHLEY </s>
-0.3010 <s> BROWN TEA
-0.3010 <s> CHRISTOPHER </s>
-0.3010 <s> DANIEL </s>
-0.3010 <s> EMILY </s>
-0.3010 <s> EMMA </s>
-0.3010 <s> ETHAN </s>
-0.3010 <s> GET OUT
-0.3010 <s> GREEN TEA
-0.3010 <s> HANNAH </s>
-0.3010 <s> I </s>
-0.3010 <s> IS </s>
-0.3010 <s> ISABELLA </s>
-0.3010 <s> JACOB </s>
-0.3010 <s> JAPANESE TEA
-0.3010 <s> JOSEPH </s>
-0.3010 <s> JOSHUA </s>
-0.3010 <s> LEMON TEA
-0.3010 <s> MADISON </s>
-0.3010 <s> MATTHEW </s>
-0.3010 <s> MICHAEL </s>
-0.6021 <s> MY </s>
-0.6021 <s> MY NAME
-0.3010 <s> NAME </s>
-0.3010 <s> NEED </s>
-0.3010 <s> OLIVIA </s>
-0.3010 <s> ONE </s>
-0.3010 <s> ORANGE JUICE
-0.3010 <s> RED TEA
-0.6021 <s> ROBOT NO
-0.6021 <s> ROBOT YES
-0.3010 <s> SAMANTHA </s>
-0.3010 <s> SARAH </s>
-0.3010 <s> SOME </s>
-0.3010 <s> STOP </s>
-0.3010 <s> STRAWBERRY JUICE
-0.3010 <s> THE </s>
-0.3010 <s> WANT </s>
-0.3010 <s> WILLIAM </s>
-0.3010 BROWN TEA </s>
-0.3010 GET OUT </s>
-0.3010 GREEN TEA </s>
-0.3010 JAPANESE TEA </s>
-0.3010 LEMON TEA </s>
-0.3010 MY NAME IS
-0.3010 NAME IS </s>
-0.3010 ORANGE JUICE </s>
-0.3010 RED TEA </s>
-0.3010 ROBOT NO </s>
-0.3010 ROBOT YES </s>
-0.3010 STRAWBERRY JUICE </s>

\end\
