Language model created by QuickLM on Thu Jun 30 05:59:35 EDT 2016
Copyright (c) 1996-2010 Carnegie Mellon University and Alexander I. Rudnicky

The model is in standard ARPA format, designed by Doug Paul while he was at MITRE.

The code that was used to produce this language model is available in Open Source.
Please visit http://www.speech.cs.cmu.edu/tools/ for more information

The (fixed) discount mass is 0.5. The backoffs are computed using the ratio method.
This model based on a corpus of 17 sentences and 14 words

\data\
ngram 1=14
ngram 2=24
ngram 3=12

\1-grams:
-0.7782 </s> -0.3010
-0.7782 <s> -0.2218
-2.0086 ARENA -0.2218
-2.0086 BACK -0.2218
-2.0086 FOLLOW -0.2218
-2.0086 GET -0.2218
-2.0086 GO -0.2218
-2.0086 LEAVE -0.2218
-2.0086 ME -0.2218
-2.0086 NO -0.2218
-2.0086 OUT -0.2218
-1.2304 ROBOT -0.2218
-2.0086 STOP -0.2218
-2.0086 YES -0.2218

\2-grams:
-1.5315 <s> ARENA 0.0000
-1.5315 <s> BACK 0.0000
-1.5315 <s> FOLLOW 0.0000
-1.5315 <s> GET 0.0000
-1.5315 <s> GO 0.0000
-1.5315 <s> LEAVE 0.0000
-1.5315 <s> ME 0.0000
-1.5315 <s> NO 0.0000
-1.5315 <s> OUT 0.0000
-0.7533 <s> ROBOT 0.0000
-1.5315 <s> STOP 0.0000
-1.5315 <s> YES 0.0000
-0.3010 ARENA </s> -0.3010
-0.3010 BACK </s> -0.3010
-0.3010 FOLLOW </s> -0.3010
-0.3010 GET </s> -0.3010
-0.3010 GO </s> -0.3010
-0.3010 LEAVE </s> -0.3010
-0.3010 ME </s> -0.3010
-0.3010 NO </s> -0.3010
-0.3010 OUT </s> -0.3010
-0.3010 ROBOT </s> -0.3010
-0.3010 STOP </s> -0.3010
-0.3010 YES </s> -0.3010

\3-grams:
-0.3010 <s> ARENA </s>
-0.3010 <s> BACK </s>
-0.3010 <s> FOLLOW </s>
-0.3010 <s> GET </s>
-0.3010 <s> GO </s>
-0.3010 <s> LEAVE </s>
-0.3010 <s> ME </s>
-0.3010 <s> NO </s>
-0.3010 <s> OUT </s>
-0.3010 <s> ROBOT </s>
-0.3010 <s> STOP </s>
-0.3010 <s> YES </s>

\end\
