Language model created by QuickLM on Mon Jul 20 23:12:11 EDT 2015
Copyright (c) 1996-2010 Carnegie Mellon University and Alexander I. Rudnicky

The model is in standard ARPA format, designed by Doug Paul while he was at MITRE.

The code that was used to produce this language model is available in Open Source.
Please visit http://www.speech.cs.cmu.edu/tools/ for more information

The (fixed) discount mass is 0.5. The backoffs are computed using the ratio method.
This model based on a corpus of 29 sentences and 17 words

\data\
ngram 1=17
ngram 2=37
ngram 3=58

\1-grams:
-1.1105 </s> -0.3010
-1.1105 <s> -0.2660
-1.3424 A -0.2660
-1.9708 BRING -0.2251
-2.2718 CARRY -0.2440
-2.2718 DELIVER -0.2440
-2.0958 FIND -0.2440
-2.0958 FOR -0.2440
-2.0958 GET -0.2440
-2.2718 GIVE -0.2845
-2.0958 GRASP -0.2440
-2.0958 LOOK -0.2975
-1.4267 ME -0.2038
-1.1105 PILL -0.2558
-1.1105 ROBOT -0.2660
-1.7278 TAKE -0.2251
-1.6698 TO -0.2845

\2-grams:
-0.3010 <s> ROBOT 0.0000
-0.3010 A PILL 0.0000
-0.9031 BRING A 0.0000
-0.6021 BRING ME -0.1963
-0.9031 BRING PILL -0.2366
-0.6021 CARRY A 0.0000
-0.6021 CARRY PILL -0.2366
-0.6021 DELIVER A 0.0000
-0.6021 DELIVER PILL -0.2366
-0.4771 FIND A 0.0000
-0.7782 FIND PILL -0.1058
-0.4771 FOR A 0.0000
-0.7782 FOR PILL -0.1058
-0.4771 GET A 0.0000
-0.7782 GET PILL -0.1058
-0.3010 GIVE ME -0.1963
-0.4771 GRASP A 0.0000
-0.7782 GRASP PILL -0.1058
-0.3010 LOOK FOR 0.0000
-0.5441 ME </s> -0.3010
-0.9700 ME A 0.0000
-0.9700 ME PILL -0.1058
-0.4412 PILL </s> -0.3010
-0.8603 PILL TO 0.0000
-1.1614 ROBOT BRING 0.0000
-1.4624 ROBOT CARRY 0.0000
-1.4624 ROBOT DELIVER 0.0000
-1.2863 ROBOT FIND 0.0000
-1.2863 ROBOT GET 0.0000
-1.4624 ROBOT GIVE 0.0000
-1.2863 ROBOT GRASP 0.0000
-1.2863 ROBOT LOOK 0.0000
-0.9183 ROBOT TAKE 0.0000
-0.6690 TAKE A 0.0000
-0.8451 TAKE ME -0.1963
-0.8451 TAKE PILL 0.0000
-0.3010 TO ME -0.1549

\3-grams:
-1.1614 <s> ROBOT BRING
-1.4624 <s> ROBOT CARRY
-1.4624 <s> ROBOT DELIVER
-1.2863 <s> ROBOT FIND
-1.2863 <s> ROBOT GET
-1.4624 <s> ROBOT GIVE
-1.2863 <s> ROBOT GRASP
-1.2863 <s> ROBOT LOOK
-0.9183 <s> ROBOT TAKE
-0.4175 A PILL </s>
-0.9294 A PILL TO
-0.3010 BRING A PILL
-0.6021 BRING ME A
-0.6021 BRING ME PILL
-0.3010 BRING PILL TO
-0.3010 CARRY A PILL
-0.3010 CARRY PILL TO
-0.3010 DELIVER A PILL
-0.3010 DELIVER PILL TO
-0.3010 FIND A PILL
-0.3010 FIND PILL </s>
-0.3010 FOR A PILL
-0.3010 FOR PILL </s>
-0.3010 GET A PILL
-0.3010 GET PILL </s>
-0.6021 GIVE ME A
-0.6021 GIVE ME PILL
-0.3010 GRASP A PILL
-0.3010 GRASP PILL </s>
-0.4771 LOOK FOR A
-0.7782 LOOK FOR PILL
-0.3010 ME A PILL
-0.3010 ME PILL </s>
-0.3010 PILL TO ME
-0.9031 ROBOT BRING A
-0.6021 ROBOT BRING ME
-0.9031 ROBOT BRING PILL
-0.6021 ROBOT CARRY A
-0.6021 ROBOT CARRY PILL
-0.6021 ROBOT DELIVER A
-0.6021 ROBOT DELIVER PILL
-0.4771 ROBOT FIND A
-0.7782 ROBOT FIND PILL
-0.4771 ROBOT GET A
-0.7782 ROBOT GET PILL
-0.3010 ROBOT GIVE ME
-0.4771 ROBOT GRASP A
-0.7782 ROBOT GRASP PILL
-0.3010 ROBOT LOOK FOR
-0.6690 ROBOT TAKE A
-0.8451 ROBOT TAKE ME
-0.8451 ROBOT TAKE PILL
-0.3010 TAKE A PILL
-0.6021 TAKE ME A
-0.6021 TAKE ME PILL
-0.6021 TAKE PILL </s>
-0.6021 TAKE PILL TO
-0.3010 TO ME </s>

\end\
