Language model created by QuickLM on Tue Jul 21 02:32:24 EDT 2015
Copyright (c) 1996-2010 Carnegie Mellon University and Alexander I. Rudnicky

The model is in standard ARPA format, designed by Doug Paul while he was at MITRE.

The code that was used to produce this language model is available in Open Source.
Please visit http://www.speech.cs.cmu.edu/tools/ for more information

The (fixed) discount mass is 0.5. The backoffs are computed using the ratio method.
This model based on a corpus of 346 sentences and 66 words

\data\
ngram 1=66
ngram 2=153
ngram 3=235

\1-grams:
-1.1630 </s> -0.3010
-1.1630 <s> -0.2182
-2.7990 A -0.2687
-1.2549 AND -0.2498
-1.8570 APPLE -0.2434
-3.0031 B -0.2701
-1.8570 BALLS -0.2434
-1.8570 BEAN -0.2950
-3.0031 BEER -0.2701
-1.9097 BRING -0.2846
-3.0031 C -0.2701
-1.8570 CEREALS -0.2434
-1.8570 COCO -0.2950
-1.8570 COCONUT -0.2950
-3.7021 COMMAND -0.2701
-3.7021 DESCRIBE -0.2701
-1.8570 EGG -0.2950
-3.7021 FOLLOW -0.2846
-3.7021 FOR -0.3009
-3.7021 GESTURE -0.2701
-1.8825 GET -0.2842
-3.2250 GO -0.3005
-1.8570 GRAM -0.2950
-3.0031 GREEN -0.3006
-3.7021 HALT -0.2701
-1.9097 I -0.2957
-3.2250 INTO -0.2997
-3.2250 IS -0.3003
-3.0031 JUICE -0.2701
-1.8570 LEMON -0.2434
-3.7021 MAN -0.2701
-1.4302 ME -0.2117
-2.7021 MILK -0.2701
-3.7021 MOON -0.2701
-3.2250 NAVIGATE -0.3005
-3.7021 NO -0.2701
-3.0031 ORANGE -0.3006
-3.7021 OUT -0.2701
-3.0031 PAPAYA -0.3002
-1.8570 PEAR -0.2434
-3.7021 PERSON -0.2701
-3.0031 PURE -0.3002
-3.2250 REACH -0.2997
-3.0031 ROBOT -0.3006
-3.7021 ROOM -0.2701
-1.8570 SAUCE -0.2434
-3.7021 SAY -0.2701
-3.7021 SEX -0.2701
-1.8570 SOUP -0.2434
-3.7021 SPEAK -0.2701
-1.8570 STARS -0.2434
-3.7021 STOP -0.2701
-3.7021 SUN -0.2701
-2.5260 TABLE -0.2995
-1.9097 TAKE -0.2846
-3.0031 TEA -0.2701
-3.7021 TELL -0.2701
-3.2250 THIS -0.3008
-2.9239 TO -0.2997
-3.7021 VISIT -0.2701
-3.7021 WAIT -0.3009
-1.9097 WANT -0.2469
-3.0031 WATER -0.2701
-3.7021 WHAT -0.2701
-3.7021 WOMAN -0.2701
-3.7021 YES -0.2701

\2-grams:
-1.9950 <s> APPLE -0.1761
-1.9950 <s> BEAN 0.0000
-2.8401 <s> BEER 0.0000
-1.0477 <s> BRING 0.0000
-1.9950 <s> COCO 0.0000
-1.9950 <s> COCONUT 0.0000
-2.8401 <s> DESCRIBE 0.0000
-1.9950 <s> EGG 0.0000
-2.8401 <s> FOLLOW 0.0000
-2.8401 <s> GESTURE 0.0000
-1.0206 <s> GET 0.0000
-2.3630 <s> GO 0.0000
-1.9950 <s> GRAM 0.0000
-2.8401 <s> GREEN 0.0000
-1.0477 <s> I 0.0000
-1.9950 <s> LEMON -0.1761
-2.8401 <s> MAN 0.0000
-2.8401 <s> MOON 0.0000
-2.3630 <s> NAVIGATE 0.0000
-2.8401 <s> ORANGE 0.0000
-2.8401 <s> PAPAYA 0.0000
-1.9950 <s> PEAR -0.1761
-2.8401 <s> PERSON 0.0000
-2.8401 <s> PURE 0.0000
-2.3630 <s> REACH 0.0000
-2.1411 <s> ROBOT 0.0000
-2.8401 <s> ROOM 0.0000
-2.8401 <s> SAY 0.0000
-2.8401 <s> SEX 0.0000
-2.8401 <s> SPEAK 0.0000
-2.8401 <s> SUN 0.0000
-1.0477 <s> TAKE 0.0000
-2.8401 <s> TELL 0.0000
-2.3630 <s> THIS 0.0000
-2.8401 <s> VISIT 0.0000
-2.8401 <s> WATER 0.0000
-2.8401 <s> WHAT 0.0000
-2.8401 <s> WOMAN 0.0000
-0.5051 A </s> -0.3010
-0.7270 A TABLE 0.0000
-1.2041 AND APPLE -0.1761
-1.2041 AND BEAN 0.0000
-1.2041 AND COCO 0.0000
-1.2041 AND COCONUT 0.0000
-1.2041 AND EGG 0.0000
-1.2041 AND GRAM 0.0000
-1.2041 AND LEMON -0.1761
-1.2041 AND PEAR -0.1761
-0.6021 APPLE </s> -0.3010
-0.6021 APPLE AND -0.0512
-0.3010 B </s> -0.3010
-0.6021 BALLS </s> -0.3010
-0.6021 BALLS AND -0.0512
-0.3010 BEAN SAUCE 0.0000
-0.3010 BEER </s> -0.3010
-0.3010 BRING ME -0.0023
-0.3010 C </s> -0.3010
-0.6021 CEREALS </s> -0.3010
-0.6021 CEREALS AND -0.0512
-0.3010 COCO BALLS 0.0000
-0.3010 COCONUT CEREALS 0.0000
-0.3010 COMMAND </s> -0.3010
-0.3010 DESCRIBE </s> -0.3010
-0.3010 EGG STARS 0.0000
-0.3010 FOLLOW ME -0.2999
-0.3010 FOR COMMAND 0.0000
-0.3010 GESTURE </s> -0.3010
-1.6435 GET INTO 0.0000
-0.3282 GET ME -0.0023
-2.1206 GET OUT 0.0000
-0.3010 GO TO 0.0000
-0.3010 GRAM SOUP 0.0000
-0.3010 GREEN TEA 0.0000
-0.3010 HALT </s> -0.3010
-0.3010 I WANT 0.0000
-0.3010 INTO TABLE 0.0000
-0.3010 IS A -0.2109
-0.3010 JUICE </s> -0.3010
-0.6021 LEMON </s> -0.3010
-0.6021 LEMON AND -0.0512
-0.3010 MAN </s> -0.3010
-2.5729 ME </s> -0.3010
-1.2507 ME APPLE -0.1761
-1.2507 ME BEAN 0.0000
-2.0958 ME BEER 0.0000
-1.2507 ME COCO 0.0000
-1.2507 ME COCONUT 0.0000
-1.2507 ME EGG 0.0000
-1.2507 ME GRAM 0.0000
-2.0958 ME GREEN 0.0000
-1.2507 ME LEMON -0.1761
-2.0958 ME ORANGE 0.0000
-2.0958 ME PAPAYA 0.0000
-1.2507 ME PEAR -0.1761
-2.0958 ME PURE 0.0000
-2.0958 ME WATER 0.0000
-0.3010 MILK </s> -0.3010
-0.3010 MOON </s> -0.3010
-0.3010 NAVIGATE TO 0.0000
-0.3010 NO </s> -0.3010
-0.3010 ORANGE JUICE 0.0000
-0.3010 OUT </s> -0.3010
-0.3010 PAPAYA MILK 0.0000
-0.6021 PEAR </s> -0.3010
-0.6021 PEAR AND -0.0512
-0.3010 PERSON </s> -0.3010
-0.3010 PURE MILK 0.0000
-0.3010 REACH TABLE 0.0000
-1.0000 ROBOT HALT 0.0000
-1.0000 ROBOT NO 0.0000
-1.0000 ROBOT STOP 0.0000
-1.0000 ROBOT WAIT 0.0000
-1.0000 ROBOT YES 0.0000
-0.3010 ROOM </s> -0.3010
-0.6021 SAUCE </s> -0.3010
-0.6021 SAUCE AND -0.0512
-0.3010 SAY </s> -0.3010
-0.3010 SEX </s> -0.3010
-0.6021 SOUP </s> -0.3010
-0.6021 SOUP AND -0.0512
-0.3010 SPEAK </s> -0.3010
-0.6021 STARS </s> -0.3010
-0.6021 STARS AND -0.0512
-0.3010 STOP </s> -0.3010
-0.3010 SUN </s> -0.3010
-0.7782 TABLE A -0.1383
-0.7782 TABLE B 0.0000
-0.7782 TABLE C 0.0000
-0.3010 TAKE ME -0.0023
-0.3010 TEA </s> -0.3010
-0.3010 TELL </s> -0.3010
-0.3010 THIS IS 0.0000
-0.3010 TO TABLE 0.0000
-0.3010 VISIT </s> -0.3010
-0.3010 WAIT FOR 0.0000
-1.2483 WANT APPLE -0.1761
-1.2483 WANT BEAN 0.0000
-2.0934 WANT BEER 0.0000
-1.2483 WANT COCO 0.0000
-1.2483 WANT COCONUT 0.0000
-1.2483 WANT EGG 0.0000
-1.2483 WANT GRAM 0.0000
-2.0934 WANT GREEN 0.0000
-1.2483 WANT LEMON -0.1761
-2.0934 WANT ORANGE 0.0000
-2.0934 WANT PAPAYA 0.0000
-1.2483 WANT PEAR -0.1761
-2.0934 WANT PURE 0.0000
-2.0934 WANT WATER 0.0000
-0.3010 WATER </s> -0.3010
-0.3010 WHAT </s> -0.3010
-0.3010 WOMAN </s> -0.3010
-0.3010 YES </s> -0.3010

\3-grams:
-0.3010 <s> APPLE AND
-0.3010 <s> BEAN SAUCE
-0.3010 <s> BEER </s>
-0.3010 <s> BRING ME
-0.3010 <s> COCO BALLS
-0.3010 <s> COCONUT CEREALS
-0.3010 <s> DESCRIBE </s>
-0.3010 <s> EGG STARS
-0.3010 <s> FOLLOW ME
-0.3010 <s> GESTURE </s>
-1.6435 <s> GET INTO
-0.3282 <s> GET ME
-2.1206 <s> GET OUT
-0.3010 <s> GO TO
-0.3010 <s> GRAM SOUP
-0.3010 <s> GREEN TEA
-0.3010 <s> I WANT
-0.3010 <s> LEMON AND
-0.3010 <s> MAN </s>
-0.3010 <s> MOON </s>
-0.3010 <s> NAVIGATE TO
-0.3010 <s> ORANGE JUICE
-0.3010 <s> PAPAYA MILK
-0.3010 <s> PEAR AND
-0.3010 <s> PERSON </s>
-0.3010 <s> PURE MILK
-0.3010 <s> REACH TABLE
-1.0000 <s> ROBOT HALT
-1.0000 <s> ROBOT NO
-1.0000 <s> ROBOT STOP
-1.0000 <s> ROBOT WAIT
-1.0000 <s> ROBOT YES
-0.3010 <s> ROOM </s>
-0.3010 <s> SAY </s>
-0.3010 <s> SEX </s>
-0.3010 <s> SPEAK </s>
-0.3010 <s> SUN </s>
-0.3010 <s> TAKE ME
-0.3010 <s> TELL </s>
-0.3010 <s> THIS IS
-0.3010 <s> VISIT </s>
-0.3010 <s> WATER </s>
-0.3010 <s> WHAT </s>
-0.3010 <s> WOMAN </s>
-0.7782 A TABLE A
-0.7782 A TABLE B
-0.7782 A TABLE C
-0.3010 AND APPLE </s>
-0.3010 AND BEAN SAUCE
-0.3010 AND COCO BALLS
-0.3010 AND COCONUT CEREALS
-0.3010 AND EGG STARS
-0.3010 AND GRAM SOUP
-0.3010 AND LEMON </s>
-0.3010 AND PEAR </s>
-1.1461 APPLE AND BEAN
-1.1461 APPLE AND COCO
-1.1461 APPLE AND COCONUT
-1.1461 APPLE AND EGG
-1.1461 APPLE AND GRAM
-1.1461 APPLE AND LEMON
-1.1461 APPLE AND PEAR
-1.1461 BALLS AND APPLE
-1.1461 BALLS AND BEAN
-1.1461 BALLS AND COCONUT
-1.1461 BALLS AND EGG
-1.1461 BALLS AND GRAM
-1.1461 BALLS AND LEMON
-1.1461 BALLS AND PEAR
-0.6021 BEAN SAUCE </s>
-0.6021 BEAN SAUCE AND
-1.2483 BRING ME APPLE
-1.2483 BRING ME BEAN
-2.0934 BRING ME BEER
-1.2483 BRING ME COCO
-1.2483 BRING ME COCONUT
-1.2483 BRING ME EGG
-1.2483 BRING ME GRAM
-2.0934 BRING ME GREEN
-1.2483 BRING ME LEMON
-2.0934 BRING ME ORANGE
-2.0934 BRING ME PAPAYA
-1.2483 BRING ME PEAR
-2.0934 BRING ME PURE
-2.0934 BRING ME WATER
-1.1461 CEREALS AND APPLE
-1.1461 CEREALS AND BEAN
-1.1461 CEREALS AND COCO
-1.1461 CEREALS AND EGG
-1.1461 CEREALS AND GRAM
-1.1461 CEREALS AND LEMON
-1.1461 CEREALS AND PEAR
-0.6021 COCO BALLS </s>
-0.6021 COCO BALLS AND
-0.6021 COCONUT CEREALS </s>
-0.6021 COCONUT CEREALS AND
-0.6021 EGG STARS </s>
-0.6021 EGG STARS AND
-0.3010 FOLLOW ME </s>
-0.3010 FOR COMMAND </s>
-0.3010 GET INTO TABLE
-1.2483 GET ME APPLE
-1.2483 GET ME BEAN
-2.0934 GET ME BEER
-1.2483 GET ME COCO
-1.2483 GET ME COCONUT
-1.2483 GET ME EGG
-1.2483 GET ME GRAM
-2.0934 GET ME GREEN
-1.2483 GET ME LEMON
-2.0934 GET ME ORANGE
-2.0934 GET ME PAPAYA
-1.2483 GET ME PEAR
-2.0934 GET ME PURE
-2.0934 GET ME WATER
-0.3010 GET OUT </s>
-0.3010 GO TO TABLE
-0.6021 GRAM SOUP </s>
-0.6021 GRAM SOUP AND
-0.3010 GREEN TEA </s>
-1.2483 I WANT APPLE
-1.2483 I WANT BEAN
-2.0934 I WANT BEER
-1.2483 I WANT COCO
-1.2483 I WANT COCONUT
-1.2483 I WANT EGG
-1.2483 I WANT GRAM
-2.0934 I WANT GREEN
-1.2483 I WANT LEMON
-2.0934 I WANT ORANGE
-2.0934 I WANT PAPAYA
-1.2483 I WANT PEAR
-2.0934 I WANT PURE
-2.0934 I WANT WATER
-0.7782 INTO TABLE A
-0.7782 INTO TABLE B
-0.7782 INTO TABLE C
-0.3010 IS A TABLE
-1.1461 LEMON AND APPLE
-1.1461 LEMON AND BEAN
-1.1461 LEMON AND COCO
-1.1461 LEMON AND COCONUT
-1.1461 LEMON AND EGG
-1.1461 LEMON AND GRAM
-1.1461 LEMON AND PEAR
-0.3010 ME APPLE AND
-0.3010 ME BEAN SAUCE
-0.3010 ME BEER </s>
-0.3010 ME COCO BALLS
-0.3010 ME COCONUT CEREALS
-0.3010 ME EGG STARS
-0.3010 ME GRAM SOUP
-0.3010 ME GREEN TEA
-0.3010 ME LEMON AND
-0.3010 ME ORANGE JUICE
-0.3010 ME PAPAYA MILK
-0.3010 ME PEAR AND
-0.3010 ME PURE MILK
-0.3010 ME WATER </s>
-0.3010 NAVIGATE TO TABLE
-0.3010 ORANGE JUICE </s>
-0.3010 PAPAYA MILK </s>
-1.1461 PEAR AND APPLE
-1.1461 PEAR AND BEAN
-1.1461 PEAR AND COCO
-1.1461 PEAR AND COCONUT
-1.1461 PEAR AND EGG
-1.1461 PEAR AND GRAM
-1.1461 PEAR AND LEMON
-0.3010 PURE MILK </s>
-0.7782 REACH TABLE A
-0.7782 REACH TABLE B
-0.7782 REACH TABLE C
-0.3010 ROBOT HALT </s>
-0.3010 ROBOT NO </s>
-0.3010 ROBOT STOP </s>
-0.3010 ROBOT WAIT FOR
-0.3010 ROBOT YES </s>
-1.1461 SAUCE AND APPLE
-1.1461 SAUCE AND COCO
-1.1461 SAUCE AND COCONUT
-1.1461 SAUCE AND EGG
-1.1461 SAUCE AND GRAM
-1.1461 SAUCE AND LEMON
-1.1461 SAUCE AND PEAR
-1.1461 SOUP AND APPLE
-1.1461 SOUP AND BEAN
-1.1461 SOUP AND COCO
-1.1461 SOUP AND COCONUT
-1.1461 SOUP AND EGG
-1.1461 SOUP AND LEMON
-1.1461 SOUP AND PEAR
-1.1461 STARS AND APPLE
-1.1461 STARS AND BEAN
-1.1461 STARS AND COCO
-1.1461 STARS AND COCONUT
-1.1461 STARS AND GRAM
-1.1461 STARS AND LEMON
-1.1461 STARS AND PEAR
-0.3010 TABLE A </s>
-0.3010 TABLE B </s>
-0.3010 TABLE C </s>
-1.2483 TAKE ME APPLE
-1.2483 TAKE ME BEAN
-2.0934 TAKE ME BEER
-1.2483 TAKE ME COCO
-1.2483 TAKE ME COCONUT
-1.2483 TAKE ME EGG
-1.2483 TAKE ME GRAM
-2.0934 TAKE ME GREEN
-1.2483 TAKE ME LEMON
-2.0934 TAKE ME ORANGE
-2.0934 TAKE ME PAPAYA
-1.2483 TAKE ME PEAR
-2.0934 TAKE ME PURE
-2.0934 TAKE ME WATER
-0.3010 THIS IS A
-0.7782 TO TABLE A
-0.7782 TO TABLE B
-0.7782 TO TABLE C
-0.3010 WAIT FOR COMMAND
-0.3010 WANT APPLE AND
-0.3010 WANT BEAN SAUCE
-0.3010 WANT BEER </s>
-0.3010 WANT COCO BALLS
-0.3010 WANT COCONUT CEREALS
-0.3010 WANT EGG STARS
-0.3010 WANT GRAM SOUP
-0.3010 WANT GREEN TEA
-0.3010 WANT LEMON AND
-0.3010 WANT ORANGE JUICE
-0.3010 WANT PAPAYA MILK
-0.3010 WANT PEAR AND
-0.3010 WANT PURE MILK
-0.3010 WANT WATER </s>

\end\