Language model created by QuickLM on Sun May  3 13:35:39 EDT 2015
Copyright (c) 1996-2010 Carnegie Mellon University and Alexander I. Rudnicky

The model is in standard ARPA format, designed by Doug Paul while he was at MITRE.

The code that was used to produce this language model is available in Open Source.
Please visit http://www.speech.cs.cmu.edu/tools/ for more information

The (fixed) discount mass is 0.5. The backoffs are computed using the ratio method.
This model based on a corpus of 32 sentences and 18 words

\data\
ngram 1=18
ngram 2=46
ngram 3=48

\1-grams:
-0.9294 </s> -0.3010
-0.9294 <s> -0.1697
-2.4346 A -0.2467
-1.6564 AN -0.2263
-1.3932 CRACK -0.2244
-1.3932 EGG -0.2167
-2.4346 GET -0.2994
-2.4346 HALT -0.2467
-2.4346 HALTING -0.2467
-1.6564 INTRODUCE -0.2357
-2.1335 NO -0.2467
-2.4346 OUT -0.2467
-1.5895 PLEASE -0.2148
-1.4803 ROBOT -0.2069
-2.4346 STOP -0.2467
-1.6564 THE -0.2263
-2.1335 YES -0.2467
-1.6564 YOURSELF -0.2167

\2-grams:
-1.8062 <s> A 0.0000
-1.8062 <s> AN -0.2632
-0.9611 <s> CRACK 0.0000
-1.8062 <s> EGG -0.1347
-1.8062 <s> GET 0.0000
-1.8062 <s> HALT 0.0000
-1.8062 <s> HALTING 0.0000
-1.2041 <s> INTRODUCE 0.0000
-1.8062 <s> NO 0.0000
-1.2041 <s> PLEASE 0.0000
-1.0280 <s> ROBOT 0.0000
-1.8062 <s> STOP 0.0000
-1.8062 <s> THE -0.2632
-1.8062 <s> YES 0.0000
-1.8062 <s> YOURSELF -0.1249
-0.3010 A </s> -0.3010
-1.0792 AN </s> -0.3010
-0.3802 AN EGG 0.0000
-1.3424 CRACK </s> -0.3010
-0.6435 CRACK AN -0.0669
-0.6435 CRACK THE -0.0669
-0.4973 EGG </s> -0.3010
-1.0414 EGG PLEASE -0.1549
-1.0414 EGG ROBOT -0.1919
-0.3010 GET OUT 0.0000
-0.3010 HALT </s> -0.3010
-0.3010 HALTING </s> -0.3010
-1.0792 INTRODUCE </s> -0.3010
-0.3802 INTRODUCE YOURSELF 0.0000
-0.3010 NO </s> -0.3010
-0.3010 OUT </s> -0.3010
-0.5441 PLEASE </s> -0.3010
-0.8451 PLEASE CRACK -0.0378
-1.1461 PLEASE INTRODUCE -0.0669
-0.6532 ROBOT </s> -0.3010
-0.9542 ROBOT CRACK -0.0378
-1.2553 ROBOT INTRODUCE -0.0669
-1.2553 ROBOT NO 0.0000
-1.2553 ROBOT YES 0.0000
-0.3010 STOP </s> -0.3010
-1.0792 THE </s> -0.3010
-0.3802 THE EGG 0.0000
-0.3010 YES </s> -0.3010
-0.4771 YOURSELF </s> -0.3010
-1.0792 YOURSELF PLEASE -0.1549
-1.0792 YOURSELF ROBOT -0.1919

\3-grams:
-0.3010 <s> A </s>
-0.3010 <s> AN </s>
-1.1461 <s> CRACK </s>
-0.6690 <s> CRACK AN
-0.6690 <s> CRACK THE
-0.3010 <s> EGG </s>
-0.3010 <s> GET OUT
-0.3010 <s> HALT </s>
-0.3010 <s> HALTING </s>
-0.9031 <s> INTRODUCE </s>
-0.4260 <s> INTRODUCE YOURSELF
-0.3010 <s> NO </s>
-0.9031 <s> PLEASE </s>
-0.6021 <s> PLEASE CRACK
-0.9031 <s> PLEASE INTRODUCE
-1.0792 <s> ROBOT </s>
-0.7782 <s> ROBOT CRACK
-1.0792 <s> ROBOT INTRODUCE
-1.0792 <s> ROBOT NO
-1.0792 <s> ROBOT YES
-0.3010 <s> STOP </s>
-0.3010 <s> THE </s>
-0.3010 <s> YES </s>
-0.3010 <s> YOURSELF </s>
-0.5229 AN EGG </s>
-1.0000 AN EGG PLEASE
-1.0000 AN EGG ROBOT
-0.3010 CRACK AN EGG
-0.3010 CRACK THE EGG
-0.3010 EGG PLEASE </s>
-0.3010 EGG ROBOT </s>
-0.3010 GET OUT </s>
-0.5229 INTRODUCE YOURSELF </s>
-1.0000 INTRODUCE YOURSELF PLEASE
-1.0000 INTRODUCE YOURSELF ROBOT
-0.6021 PLEASE CRACK AN
-0.6021 PLEASE CRACK THE
-0.3010 PLEASE INTRODUCE YOURSELF
-0.6021 ROBOT CRACK AN
-0.6021 ROBOT CRACK THE
-0.3010 ROBOT INTRODUCE YOURSELF
-0.3010 ROBOT NO </s>
-0.3010 ROBOT YES </s>
-0.5229 THE EGG </s>
-1.0000 THE EGG PLEASE
-1.0000 THE EGG ROBOT
-0.3010 YOURSELF PLEASE </s>
-0.3010 YOURSELF ROBOT </s>

\end\
