Language model created by QuickLM on Sat Mar 12 07:12:51 EST 2016
Copyright (c) 1996-2010 Carnegie Mellon University and Alexander I. Rudnicky

The model is in standard ARPA format, designed by Doug Paul while he was at MITRE.

The code that was used to produce this language model is available in Open Source.
Please visit http://www.speech.cs.cmu.edu/tools/ for more information

The (fixed) discount mass is 0.5. The backoffs are computed using the ratio method.
This model based on a corpus of 8 sentences and 8 words

\data\
ngram 1=8
ngram 2=12
ngram 3=6

\1-grams:
-0.7782 </s> -0.3010
-0.7782 <s> -0.2218
-1.6812 FOLLOW -0.2218
-1.6812 ME -0.2218
-1.6812 NO -0.2218
-1.2041 ROBOT -0.2218
-1.6812 STOP -0.2218
-1.6812 YES -0.2218

\2-grams:
-1.2041 <s> FOLLOW 0.0000
-1.2041 <s> ME 0.0000
-1.2041 <s> NO 0.0000
-0.7270 <s> ROBOT 0.0000
-1.2041 <s> STOP 0.0000
-1.2041 <s> YES 0.0000
-0.3010 FOLLOW </s> -0.3010
-0.3010 ME </s> -0.3010
-0.3010 NO </s> -0.3010
-0.3010 ROBOT </s> -0.3010
-0.3010 STOP </s> -0.3010
-0.3010 YES </s> -0.3010

\3-grams:
-0.3010 <s> FOLLOW </s>
-0.3010 <s> ME </s>
-0.3010 <s> NO </s>
-0.3010 <s> ROBOT </s>
-0.3010 <s> STOP </s>
-0.3010 <s> YES </s>

\end\
