Language model created by QuickLM on Tue Mar 22 00:32:03 EDT 2016
Copyright (c) 1996-2010 Carnegie Mellon University and Alexander I. Rudnicky

The model is in standard ARPA format, designed by Doug Paul while he was at MITRE.

The code that was used to produce this language model is available in Open Source.
Please visit http://www.speech.cs.cmu.edu/tools/ for more information

The (fixed) discount mass is 0.5. The backoffs are computed using the ratio method.
This model based on a corpus of 11 sentences and 10 words

\data\
ngram 1=10
ngram 2=16
ngram 3=8

\1-grams:
-0.7782 </s> -0.3010
-0.7782 <s> -0.2218
-1.8195 BACK -0.2218
-1.8195 FOLLOW -0.2218
-1.8195 GO -0.2218
-1.8195 ME -0.2218
-1.8195 NO -0.2218
-1.2175 ROBOT -0.2218
-1.8195 STOP -0.2218
-1.8195 YES -0.2218

\2-grams:
-1.3424 <s> BACK 0.0000
-1.3424 <s> FOLLOW 0.0000
-1.3424 <s> GO 0.0000
-1.3424 <s> ME 0.0000
-1.3424 <s> NO 0.0000
-0.7404 <s> ROBOT 0.0000
-1.3424 <s> STOP 0.0000
-1.3424 <s> YES 0.0000
-0.3010 BACK </s> -0.3010
-0.3010 FOLLOW </s> -0.3010
-0.3010 GO </s> -0.3010
-0.3010 ME </s> -0.3010
-0.3010 NO </s> -0.3010
-0.3010 ROBOT </s> -0.3010
-0.3010 STOP </s> -0.3010
-0.3010 YES </s> -0.3010

\3-grams:
-0.3010 <s> BACK </s>
-0.3010 <s> FOLLOW </s>
-0.3010 <s> GO </s>
-0.3010 <s> ME </s>
-0.3010 <s> NO </s>
-0.3010 <s> ROBOT </s>
-0.3010 <s> STOP </s>
-0.3010 <s> YES </s>

\end\
