Language model created by QuickLM on Thu Jun 27 07:09:19 EDT 2013
Copyright (c) 1996-2010 Carnegie Mellon University and Alexander I. Rudnicky

The model is in standard ARPA format, designed by Doug Paul while he was at MITRE.

The code that was used to produce this language model is available in Open Source.
Please visit http://www.speech.cs.cmu.edu/tools/ for more information

The (fixed) discount mass is 0.5. The backoffs are computed using the ratio method.
This model based on a corpus of 148 sentences and 77 words

\data\
ngram 1=77
ngram 2=200
ngram 3=216

\1-grams:
-0.9690 </s> -0.3010
-0.9690 <s> -0.2098
-2.6621 AMANDA -0.2517
-2.6621 ANDREW -0.2517
-2.6621 APPLE -0.2991
-2.6621 ASHLEY -0.2517
-3.1392 BEDROOM -0.2517
-2.3611 BEER -0.2991
-2.6621 BOTTLE -0.2517
-2.6621 BRITTANY -0.2517
-2.6621 BUTTER -0.2517
-2.6621 CAN -0.2517
-2.6621 CHICKEN -0.2991
-2.3611 CHOCOLATE -0.2496
-2.6621 CHRISTOPHER -0.2517
-2.6621 CLEANER -0.2517
-2.6621 COKE -0.2517
-2.6621 COOKIES -0.2517
-2.6621 CRACKERS -0.2517
-2.6621 DANIEL -0.2517
-2.6621 DAVID -0.2517
-2.6621 DEODORANT -0.2517
-2.6621 DISCS -0.2517
-2.6621 DRINK -0.2517
-2.6621 DROPS -0.2517
-2.6621 ELIZABETH -0.2517
-2.6621 ENERGY -0.3001
-2.6621 FANTA -0.2517
-3.1392 FOLLOW -0.3007
-2.6621 FRESH -0.3001
-2.6621 GARLIC -0.2991
-3.1392 GET -0.3007
-3.1392 HALLWAY -0.2517
-3.1392 HALT -0.2517
-3.1392 HALTING -0.2517
-1.4403 I -0.2850
-1.5372 IS -0.2817
-2.6621 JAMES -0.2517
-2.6621 JENNIFER -0.2517
-2.6621 JESSICA -0.2517
-2.6621 JOSEPH -0.2517
-2.6621 JOSHUA -0.2517
-2.3611 JUICE -0.2517
-2.6621 JUSTIN -0.2517
-3.1392 KITCHEN -0.2517
-2.6621 LAUREN -0.2517
-3.1392 LEAVING -0.2517
-3.1392 LIVING -0.3007
-2.6621 MARMALADE -0.2517
-2.6621 MATTHEW -0.2517
-3.1392 ME -0.2517
-2.6621 MICHAEL -0.2517
-2.3611 MILK -0.2517
-1.8382 MY -0.2882
-1.5372 NAME -0.2882
-1.7413 NEED -0.2757
-3.1392 NO -0.2517
-2.3611 NOODLES -0.2517
-2.6621 ORANGE -0.2991
-3.1392 OUT -0.2517
-2.6621 PASTE -0.2517
-2.6621 PEANUT -0.3001
-3.1392 ROOM -0.2517
-2.6621 SAMANTHA -0.2517
-2.6621 SARAH -0.2517
-2.3611 SAUCE -0.2517
-2.6621 SEVEN -0.3001
-2.6621 SPONGE -0.2517
-2.6621 STEPHANIE -0.2517
-3.1392 STOP -0.2517
-3.1392 STOPING -0.2517
-2.6621 TOMATO -0.2991
-2.6621 TOOTH -0.3001
-2.6621 UP -0.2517
-2.6621 VEGGIE -0.2991
-1.7413 WANT -0.2757
-3.1392 YES -0.2517

\2-grams:
-2.4713 <s> AMANDA 0.0000
-2.4713 <s> ANDREW 0.0000
-2.4713 <s> APPLE 0.0000
-2.4713 <s> ASHLEY 0.0000
-2.4713 <s> BEDROOM 0.0000
-2.1703 <s> BEER 0.0000
-2.4713 <s> BRITTANY 0.0000
-2.4713 <s> CHICKEN 0.0000
-2.1703 <s> CHOCOLATE 0.0000
-2.4713 <s> CHRISTOPHER 0.0000
-2.4713 <s> CLEANER 0.0000
-2.4713 <s> COKE 0.0000
-2.4713 <s> COOKIES 0.0000
-2.4713 <s> CRACKERS 0.0000
-2.4713 <s> DANIEL 0.0000
-2.4713 <s> DAVID 0.0000
-2.4713 <s> DEODORANT 0.0000
-2.4713 <s> DROPS 0.0000
-2.4713 <s> ELIZABETH 0.0000
-2.4713 <s> ENERGY 0.0000
-2.4713 <s> FANTA 0.0000
-2.4713 <s> FOLLOW 0.0000
-2.4713 <s> FRESH 0.0000
-2.4713 <s> GARLIC 0.0000
-2.4713 <s> GET 0.0000
-2.4713 <s> HALLWAY 0.0000
-2.4713 <s> HALT 0.0000
-2.4713 <s> HALTING 0.0000
-0.7723 <s> I 0.0000
-2.4713 <s> JAMES 0.0000
-2.4713 <s> JENNIFER 0.0000
-2.4713 <s> JESSICA 0.0000
-2.4713 <s> JOSEPH 0.0000
-2.4713 <s> JOSHUA 0.0000
-2.4713 <s> JUSTIN 0.0000
-2.4713 <s> KITCHEN 0.0000
-2.4713 <s> LAUREN 0.0000
-2.4713 <s> LEAVING 0.0000
-2.4713 <s> LIVING 0.0000
-2.4713 <s> MARMALADE 0.0000
-2.4713 <s> MATTHEW 0.0000
-2.4713 <s> MICHAEL 0.0000
-2.4713 <s> MILK 0.0000
-1.1703 <s> MY 0.0000
-1.1703 <s> NAME 0.0000
-2.4713 <s> NO 0.0000
-2.4713 <s> ORANGE 0.0000
-2.4713 <s> PEANUT 0.0000
-2.4713 <s> SAMANTHA 0.0000
-2.4713 <s> SARAH 0.0000
-2.4713 <s> SEVEN 0.0000
-2.4713 <s> SPONGE 0.0000
-2.4713 <s> STEPHANIE 0.0000
-2.4713 <s> STOP 0.0000
-2.4713 <s> STOPING 0.0000
-2.4713 <s> TOMATO 0.0000
-2.4713 <s> TOOTH 0.0000
-2.4713 <s> VEGGIE 0.0000
-2.4713 <s> YES 0.0000
-0.3010 AMANDA </s> -0.3010
-0.3010 ANDREW </s> -0.3010
-0.3010 APPLE JUICE 0.0000
-0.3010 ASHLEY </s> -0.3010
-0.3010 BEDROOM </s> -0.3010
-0.6021 BEER BOTTLE 0.0000
-0.6021 BEER CAN 0.0000
-0.3010 BOTTLE </s> -0.3010
-0.3010 BRITTANY </s> -0.3010
-0.3010 BUTTER </s> -0.3010
-0.3010 CAN </s> -0.3010
-0.3010 CHICKEN NOODLES 0.0000
-0.6021 CHOCOLATE </s> -0.3010
-0.6021 CHOCOLATE MILK 0.0000
-0.3010 CHRISTOPHER </s> -0.3010
-0.3010 CLEANER </s> -0.3010
-0.3010 COKE </s> -0.3010
-0.3010 COOKIES </s> -0.3010
-0.3010 CRACKERS </s> -0.3010
-0.3010 DANIEL </s> -0.3010
-0.3010 DAVID </s> -0.3010
-0.3010 DEODORANT </s> -0.3010
-0.3010 DISCS </s> -0.3010
-0.3010 DRINK </s> -0.3010
-0.3010 DROPS </s> -0.3010
-0.3010 ELIZABETH </s> -0.3010
-0.3010 ENERGY DRINK 0.0000
-0.3010 FANTA </s> -0.3010
-0.3010 FOLLOW ME 0.0000
-0.3010 FRESH DISCS 0.0000
-0.3010 GARLIC SAUCE 0.0000
-0.3010 GET OUT 0.0000
-0.3010 HALLWAY </s> -0.3010
-0.3010 HALT </s> -0.3010
-0.3010 HALTING </s> -0.3010
-0.6021 I NEED 0.0000
-0.6021 I WANT 0.0000
-1.6021 IS AMANDA 0.0000
-1.6021 IS ANDREW 0.0000
-1.6021 IS ASHLEY 0.0000
-1.6021 IS BRITTANY 0.0000
-1.6021 IS CHRISTOPHER 0.0000
-1.6021 IS DANIEL 0.0000
-1.6021 IS DAVID 0.0000
-1.6021 IS ELIZABETH 0.0000
-1.6021 IS JAMES 0.0000
-1.6021 IS JENNIFER 0.0000
-1.6021 IS JESSICA 0.0000
-1.6021 IS JOSEPH 0.0000
-1.6021 IS JOSHUA 0.0000
-1.6021 IS JUSTIN 0.0000
-1.6021 IS LAUREN 0.0000
-1.6021 IS MATTHEW 0.0000
-1.6021 IS MICHAEL 0.0000
-1.6021 IS SAMANTHA 0.0000
-1.6021 IS SARAH 0.0000
-1.6021 IS STEPHANIE 0.0000
-0.3010 JAMES </s> -0.3010
-0.3010 JENNIFER </s> -0.3010
-0.3010 JESSICA </s> -0.3010
-0.3010 JOSEPH </s> -0.3010
-0.3010 JOSHUA </s> -0.3010
-0.3010 JUICE </s> -0.3010
-0.3010 JUSTIN </s> -0.3010
-0.3010 KITCHEN </s> -0.3010
-0.3010 LAUREN </s> -0.3010
-0.3010 LEAVING </s> -0.3010
-0.3010 LIVING ROOM 0.0000
-0.3010 MARMALADE </s> -0.3010
-0.3010 MATTHEW </s> -0.3010
-0.3010 ME </s> -0.3010
-0.3010 MICHAEL </s> -0.3010
-0.3010 MILK </s> -0.3010
-0.3010 MY NAME 0.0000
-0.3010 NAME IS 0.0000
-1.6990 NEED APPLE 0.0000
-1.3979 NEED BEER 0.0000
-1.6990 NEED CHICKEN 0.0000
-1.3979 NEED CHOCOLATE 0.0000
-1.6990 NEED CLEANER 0.0000
-1.6990 NEED COKE 0.0000
-1.6990 NEED COOKIES 0.0000
-1.6990 NEED CRACKERS 0.0000
-1.6990 NEED DEODORANT 0.0000
-1.6990 NEED DROPS 0.0000
-1.6990 NEED ENERGY 0.0000
-1.6990 NEED FANTA 0.0000
-1.6990 NEED FRESH 0.0000
-1.6990 NEED GARLIC 0.0000
-1.6990 NEED MARMALADE 0.0000
-1.6990 NEED MILK 0.0000
-1.6990 NEED ORANGE 0.0000
-1.6990 NEED PEANUT 0.0000
-1.6990 NEED SEVEN 0.0000
-1.6990 NEED SPONGE 0.0000
-1.6990 NEED TOMATO 0.0000
-1.6990 NEED TOOTH 0.0000
-1.6990 NEED VEGGIE 0.0000
-0.3010 NO </s> -0.3010
-0.3010 NOODLES </s> -0.3010
-0.3010 ORANGE JUICE 0.0000
-0.3010 OUT </s> -0.3010
-0.3010 PASTE </s> -0.3010
-0.3010 PEANUT BUTTER 0.0000
-0.3010 ROOM </s> -0.3010
-0.3010 SAMANTHA </s> -0.3010
-0.3010 SARAH </s> -0.3010
-0.3010 SAUCE </s> -0.3010
-0.3010 SEVEN UP 0.0000
-0.3010 SPONGE </s> -0.3010
-0.3010 STEPHANIE </s> -0.3010
-0.3010 STOP </s> -0.3010
-0.3010 STOPING </s> -0.3010
-0.3010 TOMATO SAUCE 0.0000
-0.3010 TOOTH PASTE 0.0000
-0.3010 UP </s> -0.3010
-0.3010 VEGGIE NOODLES 0.0000
-1.6990 WANT APPLE 0.0000
-1.3979 WANT BEER 0.0000
-1.6990 WANT CHICKEN 0.0000
-1.3979 WANT CHOCOLATE 0.0000
-1.6990 WANT CLEANER 0.0000
-1.6990 WANT COKE 0.0000
-1.6990 WANT COOKIES 0.0000
-1.6990 WANT CRACKERS 0.0000
-1.6990 WANT DEODORANT 0.0000
-1.6990 WANT DROPS 0.0000
-1.6990 WANT ENERGY 0.0000
-1.6990 WANT FANTA 0.0000
-1.6990 WANT FRESH 0.0000
-1.6990 WANT GARLIC 0.0000
-1.6990 WANT MARMALADE 0.0000
-1.6990 WANT MILK 0.0000
-1.6990 WANT ORANGE 0.0000
-1.6990 WANT PEANUT 0.0000
-1.6990 WANT SEVEN 0.0000
-1.6990 WANT SPONGE 0.0000
-1.6990 WANT TOMATO 0.0000
-1.6990 WANT TOOTH 0.0000
-1.6990 WANT VEGGIE 0.0000
-0.3010 YES </s> -0.3010

\3-grams:
-0.3010 <s> AMANDA </s>
-0.3010 <s> ANDREW </s>
-0.3010 <s> APPLE JUICE
-0.3010 <s> ASHLEY </s>
-0.3010 <s> BEDROOM </s>
-0.6021 <s> BEER BOTTLE
-0.6021 <s> BEER CAN
-0.3010 <s> BRITTANY </s>
-0.3010 <s> CHICKEN NOODLES
-0.6021 <s> CHOCOLATE </s>
-0.6021 <s> CHOCOLATE MILK
-0.3010 <s> CHRISTOPHER </s>
-0.3010 <s> CLEANER </s>
-0.3010 <s> COKE </s>
-0.3010 <s> COOKIES </s>
-0.3010 <s> CRACKERS </s>
-0.3010 <s> DANIEL </s>
-0.3010 <s> DAVID </s>
-0.3010 <s> DEODORANT </s>
-0.3010 <s> DROPS </s>
-0.3010 <s> ELIZABETH </s>
-0.3010 <s> ENERGY DRINK
-0.3010 <s> FANTA </s>
-0.3010 <s> FOLLOW ME
-0.3010 <s> FRESH DISCS
-0.3010 <s> GARLIC SAUCE
-0.3010 <s> GET OUT
-0.3010 <s> HALLWAY </s>
-0.3010 <s> HALT </s>
-0.3010 <s> HALTING </s>
-0.6021 <s> I NEED
-0.6021 <s> I WANT
-0.3010 <s> JAMES </s>
-0.3010 <s> JENNIFER </s>
-0.3010 <s> JESSICA </s>
-0.3010 <s> JOSEPH </s>
-0.3010 <s> JOSHUA </s>
-0.3010 <s> JUSTIN </s>
-0.3010 <s> KITCHEN </s>
-0.3010 <s> LAUREN </s>
-0.3010 <s> LEAVING </s>
-0.3010 <s> LIVING ROOM
-0.3010 <s> MARMALADE </s>
-0.3010 <s> MATTHEW </s>
-0.3010 <s> MICHAEL </s>
-0.3010 <s> MILK </s>
-0.3010 <s> MY NAME
-0.3010 <s> NAME IS
-0.3010 <s> NO </s>
-0.3010 <s> ORANGE JUICE
-0.3010 <s> PEANUT BUTTER
-0.3010 <s> SAMANTHA </s>
-0.3010 <s> SARAH </s>
-0.3010 <s> SEVEN UP
-0.3010 <s> SPONGE </s>
-0.3010 <s> STEPHANIE </s>
-0.3010 <s> STOP </s>
-0.3010 <s> STOPING </s>
-0.3010 <s> TOMATO SAUCE
-0.3010 <s> TOOTH PASTE
-0.3010 <s> VEGGIE NOODLES
-0.3010 <s> YES </s>
-0.3010 APPLE JUICE </s>
-0.3010 BEER BOTTLE </s>
-0.3010 BEER CAN </s>
-0.3010 CHICKEN NOODLES </s>
-0.3010 CHOCOLATE MILK </s>
-0.3010 ENERGY DRINK </s>
-0.3010 FOLLOW ME </s>
-0.3010 FRESH DISCS </s>
-0.3010 GARLIC SAUCE </s>
-0.3010 GET OUT </s>
-1.6990 I NEED APPLE
-1.3979 I NEED BEER
-1.6990 I NEED CHICKEN
-1.3979 I NEED CHOCOLATE
-1.6990 I NEED CLEANER
-1.6990 I NEED COKE
-1.6990 I NEED COOKIES
-1.6990 I NEED CRACKERS
-1.6990 I NEED DEODORANT
-1.6990 I NEED DROPS
-1.6990 I NEED ENERGY
-1.6990 I NEED FANTA
-1.6990 I NEED FRESH
-1.6990 I NEED GARLIC
-1.6990 I NEED MARMALADE
-1.6990 I NEED MILK
-1.6990 I NEED ORANGE
-1.6990 I NEED PEANUT
-1.6990 I NEED SEVEN
-1.6990 I NEED SPONGE
-1.6990 I NEED TOMATO
-1.6990 I NEED TOOTH
-1.6990 I NEED VEGGIE
-1.6990 I WANT APPLE
-1.3979 I WANT BEER
-1.6990 I WANT CHICKEN
-1.3979 I WANT CHOCOLATE
-1.6990 I WANT CLEANER
-1.6990 I WANT COKE
-1.6990 I WANT COOKIES
-1.6990 I WANT CRACKERS
-1.6990 I WANT DEODORANT
-1.6990 I WANT DROPS
-1.6990 I WANT ENERGY
-1.6990 I WANT FANTA
-1.6990 I WANT FRESH
-1.6990 I WANT GARLIC
-1.6990 I WANT MARMALADE
-1.6990 I WANT MILK
-1.6990 I WANT ORANGE
-1.6990 I WANT PEANUT
-1.6990 I WANT SEVEN
-1.6990 I WANT SPONGE
-1.6990 I WANT TOMATO
-1.6990 I WANT TOOTH
-1.6990 I WANT VEGGIE
-0.3010 IS AMANDA </s>
-0.3010 IS ANDREW </s>
-0.3010 IS ASHLEY </s>
-0.3010 IS BRITTANY </s>
-0.3010 IS CHRISTOPHER </s>
-0.3010 IS DANIEL </s>
-0.3010 IS DAVID </s>
-0.3010 IS ELIZABETH </s>
-0.3010 IS JAMES </s>
-0.3010 IS JENNIFER </s>
-0.3010 IS JESSICA </s>
-0.3010 IS JOSEPH </s>
-0.3010 IS JOSHUA </s>
-0.3010 IS JUSTIN </s>
-0.3010 IS LAUREN </s>
-0.3010 IS MATTHEW </s>
-0.3010 IS MICHAEL </s>
-0.3010 IS SAMANTHA </s>
-0.3010 IS SARAH </s>
-0.3010 IS STEPHANIE </s>
-0.3010 LIVING ROOM </s>
-0.3010 MY NAME IS
-1.6021 NAME IS AMANDA
-1.6021 NAME IS ANDREW
-1.6021 NAME IS ASHLEY
-1.6021 NAME IS BRITTANY
-1.6021 NAME IS CHRISTOPHER
-1.6021 NAME IS DANIEL
-1.6021 NAME IS DAVID
-1.6021 NAME IS ELIZABETH
-1.6021 NAME IS JAMES
-1.6021 NAME IS JENNIFER
-1.6021 NAME IS JESSICA
-1.6021 NAME IS JOSEPH
-1.6021 NAME IS JOSHUA
-1.6021 NAME IS JUSTIN
-1.6021 NAME IS LAUREN
-1.6021 NAME IS MATTHEW
-1.6021 NAME IS MICHAEL
-1.6021 NAME IS SAMANTHA
-1.6021 NAME IS SARAH
-1.6021 NAME IS STEPHANIE
-0.3010 NEED APPLE JUICE
-0.6021 NEED BEER BOTTLE
-0.6021 NEED BEER CAN
-0.3010 NEED CHICKEN NOODLES
-0.6021 NEED CHOCOLATE </s>
-0.6021 NEED CHOCOLATE MILK
-0.3010 NEED CLEANER </s>
-0.3010 NEED COKE </s>
-0.3010 NEED COOKIES </s>
-0.3010 NEED CRACKERS </s>
-0.3010 NEED DEODORANT </s>
-0.3010 NEED DROPS </s>
-0.3010 NEED ENERGY DRINK
-0.3010 NEED FANTA </s>
-0.3010 NEED FRESH DISCS
-0.3010 NEED GARLIC SAUCE
-0.3010 NEED MARMALADE </s>
-0.3010 NEED MILK </s>
-0.3010 NEED ORANGE JUICE
-0.3010 NEED PEANUT BUTTER
-0.3010 NEED SEVEN UP
-0.3010 NEED SPONGE </s>
-0.3010 NEED TOMATO SAUCE
-0.3010 NEED TOOTH PASTE
-0.3010 NEED VEGGIE NOODLES
-0.3010 ORANGE JUICE </s>
-0.3010 PEANUT BUTTER </s>
-0.3010 SEVEN UP </s>
-0.3010 TOMATO SAUCE </s>
-0.3010 TOOTH PASTE </s>
-0.3010 VEGGIE NOODLES </s>
-0.3010 WANT APPLE JUICE
-0.6021 WANT BEER BOTTLE
-0.6021 WANT BEER CAN
-0.3010 WANT CHICKEN NOODLES
-0.6021 WANT CHOCOLATE </s>
-0.6021 WANT CHOCOLATE MILK
-0.3010 WANT CLEANER </s>
-0.3010 WANT COKE </s>
-0.3010 WANT COOKIES </s>
-0.3010 WANT CRACKERS </s>
-0.3010 WANT DEODORANT </s>
-0.3010 WANT DROPS </s>
-0.3010 WANT ENERGY DRINK
-0.3010 WANT FANTA </s>
-0.3010 WANT FRESH DISCS
-0.3010 WANT GARLIC SAUCE
-0.3010 WANT MARMALADE </s>
-0.3010 WANT MILK </s>
-0.3010 WANT ORANGE JUICE
-0.3010 WANT PEANUT BUTTER
-0.3010 WANT SEVEN UP
-0.3010 WANT SPONGE </s>
-0.3010 WANT TOMATO SAUCE
-0.3010 WANT TOOTH PASTE
-0.3010 WANT VEGGIE NOODLES

\end\
