Language model created by QuickLM on Sun May  5 01:22:23 EDT 2013
Copyright (c) 1996-2010 Carnegie Mellon University and Alexander I. Rudnicky

The model is in standard ARPA format, designed by Doug Paul while he was at MITRE.

The code that was used to produce this language model is available in Open Source.
Please visit http://www.speech.cs.cmu.edu/tools/ for more information

The (fixed) discount mass is 0.5. The backoffs are computed using the ratio method.
This model based on a corpus of 35 sentences and 44 words

\data\
ngram 1=44
ngram 2=77
ngram 3=44

\1-grams:
-0.8139 </s> -0.3010
-0.8139 <s> -0.2264
-2.3579 AMANDA -0.2287
-2.3579 ASHLEY -0.2287
-2.3579 BANANA -0.2991
-2.3579 CAPPUCCINO -0.2287
-2.3579 CHRISTOPHER -0.2287
-2.0569 COFFEE -0.2287
-2.3579 COME -0.2991
-2.3579 DANIEL -0.2287
-2.3579 DAVID -0.2287
-2.3579 DRINK -0.2287
-2.3579 ELIZABETH -0.2287
-2.3579 ENERGY -0.2991
-2.3579 FOLLOW -0.2972
-2.3579 GOOD -0.2991
-2.3579 GREEN -0.2991
-2.3579 HALT -0.2287
-2.3579 HEATHER -0.2287
-2.3579 JAMES -0.2287
-2.3579 JENNIFER -0.2287
-2.3579 JESSICA -0.2287
-2.3579 JOB -0.2287
-2.3579 JOHN -0.2287
-2.3579 JOSEPH -0.2287
-2.3579 JOSHUA -0.2287
-2.3579 JUICE -0.2287
-2.3579 MATTHEW -0.2287
-2.3579 MAX -0.2972
-2.0569 ME -0.2287
-2.3579 MELISSA -0.2287
-2.3579 MICHAEL -0.2287
-2.3579 NICOLE -0.2287
-2.3579 NO -0.2287
-2.3579 ROBERT -0.2287
-2.3579 SARAH -0.2287
-2.3579 SPRITE -0.2287
-2.3579 STEPHANIE -0.2287
-2.3579 STOP -0.2287
-2.3579 TEA -0.2287
-2.3579 THANK -0.2991
-2.3579 WITH -0.2972
-2.3579 YES -0.2287
-2.3579 YOU -0.2287

\2-grams:
-1.8451 <s> AMANDA 0.0000
-1.8451 <s> ASHLEY 0.0000
-1.8451 <s> BANANA 0.0000
-1.8451 <s> CAPPUCCINO 0.0000
-1.8451 <s> CHRISTOPHER 0.0000
-1.8451 <s> COFFEE 0.0000
-1.8451 <s> COME 0.0000
-1.8451 <s> DANIEL 0.0000
-1.8451 <s> DAVID 0.0000
-1.8451 <s> ELIZABETH 0.0000
-1.8451 <s> ENERGY 0.0000
-1.8451 <s> FOLLOW 0.0000
-1.8451 <s> GOOD 0.0000
-1.8451 <s> GREEN 0.0000
-1.8451 <s> HALT 0.0000
-1.8451 <s> HEATHER 0.0000
-1.8451 <s> JAMES 0.0000
-1.8451 <s> JENNIFER 0.0000
-1.8451 <s> JESSICA 0.0000
-1.8451 <s> JOHN 0.0000
-1.8451 <s> JOSEPH 0.0000
-1.8451 <s> JOSHUA 0.0000
-1.8451 <s> MATTHEW 0.0000
-1.8451 <s> MAX 0.0000
-1.8451 <s> MELISSA 0.0000
-1.8451 <s> MICHAEL 0.0000
-1.8451 <s> NICOLE 0.0000
-1.8451 <s> NO 0.0000
-1.8451 <s> ROBERT 0.0000
-1.8451 <s> SARAH 0.0000
-1.8451 <s> SPRITE 0.0000
-1.8451 <s> STEPHANIE 0.0000
-1.8451 <s> STOP 0.0000
-1.8451 <s> THANK 0.0000
-1.8451 <s> YES 0.0000
-0.3010 AMANDA </s> -0.3010
-0.3010 ASHLEY </s> -0.3010
-0.3010 BANANA JUICE 0.0000
-0.3010 CAPPUCCINO </s> -0.3010
-0.3010 CHRISTOPHER </s> -0.3010
-0.3010 COFFEE </s> -0.3010
-0.3010 COME WITH 0.0000
-0.3010 DANIEL </s> -0.3010
-0.3010 DAVID </s> -0.3010
-0.3010 DRINK </s> -0.3010
-0.3010 ELIZABETH </s> -0.3010
-0.3010 ENERGY DRINK 0.0000
-0.3010 FOLLOW ME 0.0000
-0.3010 GOOD JOB 0.0000
-0.3010 GREEN TEA 0.0000
-0.3010 HALT </s> -0.3010
-0.3010 HEATHER </s> -0.3010
-0.3010 JAMES </s> -0.3010
-0.3010 JENNIFER </s> -0.3010
-0.3010 JESSICA </s> -0.3010
-0.3010 JOB </s> -0.3010
-0.3010 JOHN </s> -0.3010
-0.3010 JOSEPH </s> -0.3010
-0.3010 JOSHUA </s> -0.3010
-0.3010 JUICE </s> -0.3010
-0.3010 MATTHEW </s> -0.3010
-0.3010 MAX COFFEE 0.0000
-0.3010 ME </s> -0.3010
-0.3010 MELISSA </s> -0.3010
-0.3010 MICHAEL </s> -0.3010
-0.3010 NICOLE </s> -0.3010
-0.3010 NO </s> -0.3010
-0.3010 ROBERT </s> -0.3010
-0.3010 SARAH </s> -0.3010
-0.3010 SPRITE </s> -0.3010
-0.3010 STEPHANIE </s> -0.3010
-0.3010 STOP </s> -0.3010
-0.3010 TEA </s> -0.3010
-0.3010 THANK YOU 0.0000
-0.3010 WITH ME 0.0000
-0.3010 YES </s> -0.3010
-0.3010 YOU </s> -0.3010

\3-grams:
-0.3010 <s> AMANDA </s>
-0.3010 <s> ASHLEY </s>
-0.3010 <s> BANANA JUICE
-0.3010 <s> CAPPUCCINO </s>
-0.3010 <s> CHRISTOPHER </s>
-0.3010 <s> COFFEE </s>
-0.3010 <s> COME WITH
-0.3010 <s> DANIEL </s>
-0.3010 <s> DAVID </s>
-0.3010 <s> ELIZABETH </s>
-0.3010 <s> ENERGY DRINK
-0.3010 <s> FOLLOW ME
-0.3010 <s> GOOD JOB
-0.3010 <s> GREEN TEA
-0.3010 <s> HALT </s>
-0.3010 <s> HEATHER </s>
-0.3010 <s> JAMES </s>
-0.3010 <s> JENNIFER </s>
-0.3010 <s> JESSICA </s>
-0.3010 <s> JOHN </s>
-0.3010 <s> JOSEPH </s>
-0.3010 <s> JOSHUA </s>
-0.3010 <s> MATTHEW </s>
-0.3010 <s> MAX COFFEE
-0.3010 <s> MELISSA </s>
-0.3010 <s> MICHAEL </s>
-0.3010 <s> NICOLE </s>
-0.3010 <s> NO </s>
-0.3010 <s> ROBERT </s>
-0.3010 <s> SARAH </s>
-0.3010 <s> SPRITE </s>
-0.3010 <s> STEPHANIE </s>
-0.3010 <s> STOP </s>
-0.3010 <s> THANK YOU
-0.3010 <s> YES </s>
-0.3010 BANANA JUICE </s>
-0.3010 COME WITH ME
-0.3010 ENERGY DRINK </s>
-0.3010 FOLLOW ME </s>
-0.3010 GOOD JOB </s>
-0.3010 GREEN TEA </s>
-0.3010 MAX COFFEE </s>
-0.3010 THANK YOU </s>
-0.3010 WITH ME </s>

\end\
