Language model created by QuickLM on Sun May  5 23:51:25 EDT 2013
Copyright (c) 1996-2010 Carnegie Mellon University and Alexander I. Rudnicky

The model is in standard ARPA format, designed by Doug Paul while he was at MITRE.

The code that was used to produce this language model is available in Open Source.
Please visit http://www.speech.cs.cmu.edu/tools/ for more information

The (fixed) discount mass is 0.5. The backoffs are computed using the ratio method.
This model based on a corpus of 32 sentences and 45 words

\data\
ngram 1=45
ngram 2=77
ngram 3=77

\1-grams:
-1.0364 </s> -0.3010
-1.0364 <s> -0.2591
-2.2405 BLUE -0.2935
-1.5416 BRING -0.2884
-2.5416 COCK -0.2884
-2.5416 COME -0.2998
-1.9395 CUP -0.2819
-2.2405 DRINK -0.2819
-2.5416 ENERGY -0.2985
-2.5416 FOLLOW -0.2985
-2.5416 FROG -0.2884
-2.5416 GOOD -0.2998
-2.2405 GREEN -0.2947
-2.5416 HALT -0.2591
-2.5416 HALTING -0.2591
-1.6385 IS -0.2727
-2.5416 JOB -0.2591
-2.5416 KEEP -0.2985
-1.4276 LOCATION -0.2845
-2.2405 ME -0.2591
-2.2405 MUG -0.2884
-2.5416 NO -0.2591
-1.5002 ONE -0.2591
-2.2405 OUT -0.2591
-2.5416 OWL -0.2884
-2.5416 PING -0.2985
-2.5416 PINK -0.2960
-1.8426 SHELF -0.2591
-2.5416 SNACK -0.2947
-2.5416 STOP -0.2591
-2.5416 STOPING -0.2591
-2.5416 TAKE -0.2985
-2.5416 TEA -0.2884
-2.5416 THANK -0.2998
-1.6385 THIS -0.2909
-2.5416 THREE -0.2591
-1.5416 TO -0.2845
-2.5416 TOOL -0.2947
-2.5416 TOY -0.2947
-2.5416 TWO -0.2591
-2.5416 WAIT -0.2591
-2.5416 WAITING -0.2591
-2.5416 WITH -0.2985
-2.5416 YES -0.2591
-2.5416 YOU -0.2591

\2-grams:
-0.8062 <s> BRING 0.0000
-1.8062 <s> COME 0.0000
-1.8062 <s> FOLLOW 0.0000
-1.8062 <s> GOOD 0.0000
-1.8062 <s> HALT 0.0000
-1.8062 <s> HALTING 0.0000
-1.8062 <s> KEEP 0.0000
-1.8062 <s> NO 0.0000
-1.8062 <s> STOP 0.0000
-1.8062 <s> STOPING 0.0000
-1.8062 <s> TAKE 0.0000
-1.8062 <s> THANK 0.0000
-0.9031 <s> THIS 0.0000
-1.8062 <s> WAIT 0.0000
-1.8062 <s> WAITING 0.0000
-1.8062 <s> YES 0.0000
-0.6021 BLUE CUP -0.0969
-0.6021 BLUE MUG 0.0000
-1.0000 BRING BLUE 0.0000
-1.3010 BRING COCK 0.0000
-1.3010 BRING ENERGY 0.0000
-1.3010 BRING FROG 0.0000
-1.0000 BRING GREEN 0.0000
-1.3010 BRING OWL 0.0000
-1.3010 BRING PING 0.0000
-1.3010 BRING PINK 0.0000
-0.3010 COCK TO 0.0000
-0.3010 COME WITH 0.0000
-0.9031 CUP SHELF 0.0000
-0.4260 CUP TO 0.0000
-0.6021 DRINK SHELF 0.0000
-0.6021 DRINK TO 0.0000
-0.3010 ENERGY DRINK -0.1761
-0.3010 FOLLOW ME 0.0000
-0.3010 FROG TO 0.0000
-0.3010 GOOD JOB 0.0000
-0.6021 GREEN CUP -0.0969
-0.6021 GREEN TEA 0.0000
-0.3010 HALT </s> -0.3010
-0.3010 HALTING </s> -0.3010
-1.2041 IS CUP -0.2430
-1.2041 IS DRINK -0.1761
-0.7270 IS LOCATION 0.0000
-1.2041 IS SNACK 0.0000
-1.2041 IS TOOL 0.0000
-1.2041 IS TOY 0.0000
-0.3010 JOB </s> -0.3010
-0.3010 KEEP OUT 0.0000
-0.3736 LOCATION ONE 0.0000
-1.4150 LOCATION THREE 0.0000
-1.4150 LOCATION TWO 0.0000
-0.3010 ME </s> -0.3010
-0.3010 MUG TO 0.0000
-0.3010 NO </s> -0.3010
-0.3010 ONE </s> -0.3010
-0.3010 OUT </s> -0.3010
-0.3010 OWL TO 0.0000
-0.3010 PING MUG 0.0000
-0.3010 PINK CUP -0.0969
-0.3010 SHELF </s> -0.3010
-0.3010 SNACK SHELF 0.0000
-0.3010 STOP </s> -0.3010
-0.3010 STOPING </s> -0.3010
-0.3010 TAKE OUT 0.0000
-0.3010 TEA TO 0.0000
-0.3010 THANK YOU 0.0000
-0.3010 THIS IS 0.0000
-0.3010 THREE </s> -0.3010
-0.3010 TO LOCATION -0.0621
-0.3010 TOOL SHELF 0.0000
-0.3010 TOY SHELF 0.0000
-0.3010 TWO </s> -0.3010
-0.3010 WAIT </s> -0.3010
-0.3010 WAITING </s> -0.3010
-0.3010 WITH ME 0.0000
-0.3010 YES </s> -0.3010
-0.3010 YOU </s> -0.3010

\3-grams:
-1.0000 <s> BRING BLUE
-1.3010 <s> BRING COCK
-1.3010 <s> BRING ENERGY
-1.3010 <s> BRING FROG
-1.0000 <s> BRING GREEN
-1.3010 <s> BRING OWL
-1.3010 <s> BRING PING
-1.3010 <s> BRING PINK
-0.3010 <s> COME WITH
-0.3010 <s> FOLLOW ME
-0.3010 <s> GOOD JOB
-0.3010 <s> HALT </s>
-0.3010 <s> HALTING </s>
-0.3010 <s> KEEP OUT
-0.3010 <s> NO </s>
-0.3010 <s> STOP </s>
-0.3010 <s> STOPING </s>
-0.3010 <s> TAKE OUT
-0.3010 <s> THANK YOU
-0.3010 <s> THIS IS
-0.3010 <s> WAIT </s>
-0.3010 <s> WAITING </s>
-0.3010 <s> YES </s>
-0.3010 BLUE CUP TO
-0.3010 BLUE MUG TO
-0.6021 BRING BLUE CUP
-0.6021 BRING BLUE MUG
-0.3010 BRING COCK TO
-0.3010 BRING ENERGY DRINK
-0.3010 BRING FROG TO
-0.6021 BRING GREEN CUP
-0.6021 BRING GREEN TEA
-0.3010 BRING OWL TO
-0.3010 BRING PING MUG
-0.3010 BRING PINK CUP
-0.3010 COCK TO LOCATION
-0.3010 COME WITH ME
-0.3010 CUP SHELF </s>
-0.3010 CUP TO LOCATION
-0.3010 DRINK SHELF </s>
-0.3010 DRINK TO LOCATION
-0.3010 ENERGY DRINK TO
-0.3010 FOLLOW ME </s>
-0.3010 FROG TO LOCATION
-0.3010 GOOD JOB </s>
-0.3010 GREEN CUP TO
-0.3010 GREEN TEA TO
-0.3010 IS CUP SHELF
-0.3010 IS DRINK SHELF
-0.7782 IS LOCATION ONE
-0.7782 IS LOCATION THREE
-0.7782 IS LOCATION TWO
-0.3010 IS SNACK SHELF
-0.3010 IS TOOL SHELF
-0.3010 IS TOY SHELF
-0.3010 KEEP OUT </s>
-0.3010 LOCATION ONE </s>
-0.3010 LOCATION THREE </s>
-0.3010 LOCATION TWO </s>
-0.3010 MUG TO LOCATION
-0.3010 OWL TO LOCATION
-0.3010 PING MUG TO
-0.3010 PINK CUP TO
-0.3010 SNACK SHELF </s>
-0.3010 TAKE OUT </s>
-0.3010 TEA TO LOCATION
-0.3010 THANK YOU </s>
-1.2041 THIS IS CUP
-1.2041 THIS IS DRINK
-0.7270 THIS IS LOCATION
-1.2041 THIS IS SNACK
-1.2041 THIS IS TOOL
-1.2041 THIS IS TOY
-0.3010 TO LOCATION ONE
-0.3010 TOOL SHELF </s>
-0.3010 TOY SHELF </s>
-0.3010 WITH ME </s>

\end\
