Language model created by QuickLM on Fri Jun 28 11:22:01 EDT 2013
Copyright (c) 1996-2010 Carnegie Mellon University and Alexander I. Rudnicky

The model is in standard ARPA format, designed by Doug Paul while he was at MITRE.

The code that was used to produce this language model is available in Open Source.
Please visit http://www.speech.cs.cmu.edu/tools/ for more information

The (fixed) discount mass is 0.5. The backoffs are computed using the ratio method.
This model based on a corpus of 108 sentences and 96 words

\data\
ngram 1=96
ngram 2=182
ngram 3=153

\1-grams:
-0.9470 </s> -0.3010
-0.9470 <s> -0.2412
-2.9805 APPLE -0.3001
-2.5033 APPLIANCE -0.2490
-2.9805 ARM -0.3006
-2.9805 BAR -0.2490
-2.9805 BED -0.2490
-2.3784 BEDROOM -0.2490
-2.9805 BEDSIDE -0.2974
-2.6794 BEER -0.3001
-2.9805 BENCH -0.2490
-2.9805 BOOKSHELF -0.2490
-2.9805 BOTTLE -0.2490
-2.0774 BRING -0.2928
-2.9805 BUTTER -0.2490
-2.9805 CABINET -0.2490
-2.9805 CAN -0.2490
-2.9805 CHAIR -0.2490
-2.9805 CHICKEN -0.3001
-2.6794 CHOCOLATE -0.2479
-2.9805 CLEANER -0.2490
-2.3784 CLEANING -0.2992
-2.9805 COKE -0.2490
-2.9805 COME -0.3006
-2.9805 COOKIES -0.2490
-2.9805 COUCH -0.2974
-2.6794 COUNTER -0.2490
-2.9805 CRACKERS -0.2490
-2.9805 CUPBOARD -0.2490
-2.9805 DEODORANT -0.2490
-2.9805 DINNER -0.2974
-2.9805 DISCS -0.2490
-2.9805 DRESSER -0.2490
-2.2815 DRINK -0.2490
-2.9805 DROPS -0.2490
-2.9805 ENERGY -0.2988
-2.9805 FANTA -0.2490
-2.9805 FOLLOW -0.2928
-2.3784 FOOD -0.2490
-2.9805 FRESH -0.3006
-2.9805 GARLIC -0.3001
-2.0774 GET -0.2928
-2.0262 GO -0.2886
-2.9805 GOOD -0.3006
-2.2815 HALLWAY -0.2449
-2.9805 HALT -0.2490
-2.9805 HALTING -0.2490
-2.9805 HANGER -0.2490
-2.0262 HEAD -0.2886
-2.9805 JOB -0.2490
-2.6794 JUICE -0.2490
-2.2023 KITCHEN -0.2438
-2.3784 LIVING -0.2992
-2.9805 MARMALADE -0.2490
-1.7252 ME -0.2333
-2.6794 MILK -0.2490
-2.0262 MOVE -0.2886
-2.6794 NO -0.2490
-2.6794 NOODLES -0.2490
-2.9805 ORANGE -0.3001
-2.9805 PANTRY -0.2490
-2.9805 PASTE -0.2490
-2.9805 PEANUT -0.3006
-2.9805 PLANT -0.2490
-2.6794 ROBOT -0.2992
-2.3784 ROOM -0.2490
-2.6794 SAUCE -0.2490
-2.5033 SEATING -0.2490
-2.9805 SEVEN -0.3006
-2.5033 SHELF -0.2490
-2.9805 SIDEBOARD -0.2490
-2.9805 SIDETABLE -0.2490
-2.9805 SINK -0.2490
-2.3784 SNACK -0.2490
-2.9805 SOFA -0.2490
-2.0774 SOME -0.2932
-2.9805 SPONGE -0.2490
-2.9805 STAND -0.2490
-2.9805 STOP -0.2490
-2.9805 STOPING -0.2490
-2.9805 STOVE -0.2490
-2.3784 STUFF -0.2490
-2.0774 TABLE -0.2490
-2.9805 THANK -0.3006
-1.6380 THE -0.2839
-1.5491 TO -0.2806
-2.9805 TOMATO -0.3001
-2.9805 TOOTH -0.3006
-2.9805 TV -0.3001
-2.9805 UMBRELLA -0.3006
-2.9805 UP -0.2490
-2.5033 UTENSIL -0.2490
-2.9805 VEGGIE -0.3001
-2.9805 WITH -0.2928
-2.6794 YES -0.2490
-2.9805 YOU -0.2490

\2-grams:
-2.3345 <s> APPLE 0.0000
-2.3345 <s> ARM 0.0000
-2.3345 <s> BAR 0.0000
-2.3345 <s> BED 0.0000
-2.3345 <s> BEDROOM 0.0000
-2.3345 <s> BEDSIDE 0.0000
-2.0334 <s> BEER 0.0000
-2.3345 <s> BENCH 0.0000
-2.3345 <s> BOOKSHELF 0.0000
-1.4314 <s> BRING 0.0000
-2.3345 <s> CABINET 0.0000
-2.3345 <s> CHICKEN 0.0000
-2.0334 <s> CHOCOLATE 0.0000
-2.3345 <s> CLEANER 0.0000
-2.3345 <s> COKE 0.0000
-2.3345 <s> COME 0.0000
-2.3345 <s> COOKIES 0.0000
-2.3345 <s> COUCH 0.0000
-2.3345 <s> CRACKERS 0.0000
-2.3345 <s> CUPBOARD 0.0000
-2.3345 <s> DEODORANT 0.0000
-2.3345 <s> DINNER 0.0000
-2.3345 <s> DRESSER 0.0000
-2.3345 <s> DROPS 0.0000
-2.3345 <s> ENERGY 0.0000
-2.3345 <s> FANTA 0.0000
-2.3345 <s> FOLLOW 0.0000
-2.3345 <s> FRESH 0.0000
-2.3345 <s> GARLIC 0.0000
-1.4314 <s> GET 0.0000
-1.3802 <s> GO 0.0000
-2.3345 <s> GOOD 0.0000
-2.0334 <s> HALLWAY 0.0000
-2.3345 <s> HALT 0.0000
-2.3345 <s> HALTING 0.0000
-2.3345 <s> HANGER 0.0000
-1.3802 <s> HEAD 0.0000
-1.8573 <s> KITCHEN 0.0000
-2.3345 <s> LIVING 0.0000
-2.3345 <s> MARMALADE 0.0000
-2.3345 <s> MILK 0.0000
-1.3802 <s> MOVE 0.0000
-2.3345 <s> NO 0.0000
-2.3345 <s> ORANGE 0.0000
-2.3345 <s> PANTRY 0.0000
-2.3345 <s> PEANUT 0.0000
-2.3345 <s> PLANT 0.0000
-2.0334 <s> ROBOT 0.0000
-2.3345 <s> SEVEN 0.0000
-2.3345 <s> SIDEBOARD 0.0000
-2.3345 <s> SIDETABLE 0.0000
-2.3345 <s> SINK 0.0000
-2.3345 <s> SOFA 0.0000
-2.3345 <s> SPONGE 0.0000
-2.3345 <s> STOP 0.0000
-2.3345 <s> STOPING 0.0000
-2.3345 <s> STOVE 0.0000
-2.3345 <s> THANK 0.0000
-2.3345 <s> TOMATO 0.0000
-2.3345 <s> TOOTH 0.0000
-2.3345 <s> TV 0.0000
-2.3345 <s> UMBRELLA 0.0000
-2.3345 <s> VEGGIE 0.0000
-2.3345 <s> YES 0.0000
-0.3010 APPLE JUICE 0.0000
-0.3010 APPLIANCE </s> -0.3010
-0.3010 ARM CHAIR 0.0000
-0.3010 BAR </s> -0.3010
-0.3010 BED </s> -0.3010
-0.3010 BEDROOM </s> -0.3010
-0.3010 BEDSIDE TABLE 0.0000
-0.6021 BEER BOTTLE 0.0000
-0.6021 BEER CAN 0.0000
-0.3010 BENCH </s> -0.3010
-0.3010 BOOKSHELF </s> -0.3010
-0.3010 BOTTLE </s> -0.3010
-0.3010 BRING ME -0.0458
-0.3010 BUTTER </s> -0.3010
-0.3010 CABINET </s> -0.3010
-0.3010 CAN </s> -0.3010
-0.3010 CHAIR </s> -0.3010
-0.3010 CHICKEN NOODLES 0.0000
-0.6021 CHOCOLATE </s> -0.3010
-0.6021 CHOCOLATE MILK 0.0000
-0.3010 CLEANER </s> -0.3010
-0.3010 CLEANING STUFF 0.0000
-0.3010 COKE </s> -0.3010
-0.3010 COME WITH 0.0000
-0.3010 COOKIES </s> -0.3010
-0.3010 COUCH TABLE 0.0000
-0.3010 COUNTER </s> -0.3010
-0.3010 CRACKERS </s> -0.3010
-0.3010 CUPBOARD </s> -0.3010
-0.3010 DEODORANT </s> -0.3010
-0.3010 DINNER TABLE 0.0000
-0.3010 DISCS </s> -0.3010
-0.3010 DRESSER </s> -0.3010
-0.3010 DRINK </s> -0.3010
-0.3010 DROPS </s> -0.3010
-0.3010 ENERGY DRINK 0.0000
-0.3010 FANTA </s> -0.3010
-0.3010 FOLLOW ME -0.2762
-0.3010 FOOD </s> -0.3010
-0.3010 FRESH DISCS 0.0000
-0.3010 GARLIC SAUCE 0.0000
-0.3010 GET ME -0.0458
-0.3010 GO TO -0.0158
-0.3010 GOOD JOB 0.0000
-0.3979 HALLWAY </s> -0.3010
-1.0000 HALLWAY TABLE 0.0000
-0.3010 HALT </s> -0.3010
-0.3010 HALTING </s> -0.3010
-0.3010 HANGER </s> -0.3010
-0.3010 HEAD TO 0.0000
-0.3010 JOB </s> -0.3010
-0.3010 JUICE </s> -0.3010
-0.4771 KITCHEN </s> -0.3010
-1.0792 KITCHEN COUNTER 0.0000
-1.0792 KITCHEN TABLE 0.0000
-0.3010 LIVING ROOM 0.0000
-0.3010 MARMALADE </s> -0.3010
-1.2553 ME </s> -0.3010
-0.6532 ME SOME 0.0000
-0.6532 ME THE -0.2139
-0.3010 MILK </s> -0.3010
-0.3010 MOVE TO -0.0158
-0.3010 NO </s> -0.3010
-0.3010 NOODLES </s> -0.3010
-0.3010 ORANGE JUICE 0.0000
-0.3010 PANTRY </s> -0.3010
-0.3010 PASTE </s> -0.3010
-0.3010 PEANUT BUTTER 0.0000
-0.3010 PLANT </s> -0.3010
-0.6021 ROBOT NO 0.0000
-0.6021 ROBOT YES 0.0000
-0.3010 ROOM </s> -0.3010
-0.3010 SAUCE </s> -0.3010
-0.3010 SEATING </s> -0.3010
-0.3010 SEVEN UP 0.0000
-0.3010 SHELF </s> -0.3010
-0.3010 SIDEBOARD </s> -0.3010
-0.3010 SIDETABLE </s> -0.3010
-0.3010 SINK </s> -0.3010
-0.3010 SNACK </s> -0.3010
-0.3010 SOFA </s> -0.3010
-0.9031 SOME CLEANING 0.0000
-0.9031 SOME DRINK 0.0000
-0.9031 SOME FOOD 0.0000
-0.9031 SOME SNACK 0.0000
-0.3010 SPONGE </s> -0.3010
-0.3010 STAND </s> -0.3010
-0.3010 STOP </s> -0.3010
-0.3010 STOPING </s> -0.3010
-0.3010 STOVE </s> -0.3010
-0.3010 STUFF </s> -0.3010
-0.3010 TABLE </s> -0.3010
-0.3010 THANK YOU 0.0000
-1.1663 THE APPLIANCE 0.0000
-1.3424 THE CLEANING 0.0000
-1.3424 THE DRINK 0.0000
-1.3424 THE FOOD 0.0000
-1.3424 THE SEATING 0.0000
-1.1663 THE SHELF 0.0000
-1.3424 THE SNACK 0.0000
-1.1663 THE TABLE 0.0000
-1.1663 THE UTENSIL 0.0000
-1.2553 TO BEDROOM 0.0000
-1.2553 TO HALLWAY -0.0792
-1.2553 TO KITCHEN -0.1249
-1.2553 TO LIVING 0.0000
-1.7324 TO SEATING 0.0000
-0.5863 TO THE -0.1347
-0.3010 TOMATO SAUCE 0.0000
-0.3010 TOOTH PASTE 0.0000
-0.3010 TV COUNTER 0.0000
-0.3010 UMBRELLA STAND 0.0000
-0.3010 UP </s> -0.3010
-0.3010 UTENSIL </s> -0.3010
-0.3010 VEGGIE NOODLES 0.0000
-0.3010 WITH ME -0.2762
-0.3010 YES </s> -0.3010
-0.3010 YOU </s> -0.3010

\3-grams:
-0.3010 <s> APPLE JUICE
-0.3010 <s> ARM CHAIR
-0.3010 <s> BAR </s>
-0.3010 <s> BED </s>
-0.3010 <s> BEDROOM </s>
-0.3010 <s> BEDSIDE TABLE
-0.6021 <s> BEER BOTTLE
-0.6021 <s> BEER CAN
-0.3010 <s> BENCH </s>
-0.3010 <s> BOOKSHELF </s>
-0.3010 <s> BRING ME
-0.3010 <s> CABINET </s>
-0.3010 <s> CHICKEN NOODLES
-0.6021 <s> CHOCOLATE </s>
-0.6021 <s> CHOCOLATE MILK
-0.3010 <s> CLEANER </s>
-0.3010 <s> COKE </s>
-0.3010 <s> COME WITH
-0.3010 <s> COOKIES </s>
-0.3010 <s> COUCH TABLE
-0.3010 <s> CRACKERS </s>
-0.3010 <s> CUPBOARD </s>
-0.3010 <s> DEODORANT </s>
-0.3010 <s> DINNER TABLE
-0.3010 <s> DRESSER </s>
-0.3010 <s> DROPS </s>
-0.3010 <s> ENERGY DRINK
-0.3010 <s> FANTA </s>
-0.3010 <s> FOLLOW ME
-0.3010 <s> FRESH DISCS
-0.3010 <s> GARLIC SAUCE
-0.3010 <s> GET ME
-0.3010 <s> GO TO
-0.3010 <s> GOOD JOB
-0.6021 <s> HALLWAY </s>
-0.6021 <s> HALLWAY TABLE
-0.3010 <s> HALT </s>
-0.3010 <s> HALTING </s>
-0.3010 <s> HANGER </s>
-0.3010 <s> HEAD TO
-0.7782 <s> KITCHEN </s>
-0.7782 <s> KITCHEN COUNTER
-0.7782 <s> KITCHEN TABLE
-0.3010 <s> LIVING ROOM
-0.3010 <s> MARMALADE </s>
-0.3010 <s> MILK </s>
-0.3010 <s> MOVE TO
-0.3010 <s> NO </s>
-0.3010 <s> ORANGE JUICE
-0.3010 <s> PANTRY </s>
-0.3010 <s> PEANUT BUTTER
-0.3010 <s> PLANT </s>
-0.6021 <s> ROBOT NO
-0.6021 <s> ROBOT YES
-0.3010 <s> SEVEN UP
-0.3010 <s> SIDEBOARD </s>
-0.3010 <s> SIDETABLE </s>
-0.3010 <s> SINK </s>
-0.3010 <s> SOFA </s>
-0.3010 <s> SPONGE </s>
-0.3010 <s> STOP </s>
-0.3010 <s> STOPING </s>
-0.3010 <s> STOVE </s>
-0.3010 <s> THANK YOU
-0.3010 <s> TOMATO SAUCE
-0.3010 <s> TOOTH PASTE
-0.3010 <s> TV COUNTER
-0.3010 <s> UMBRELLA STAND
-0.3010 <s> VEGGIE NOODLES
-0.3010 <s> YES </s>
-0.3010 APPLE JUICE </s>
-0.3010 ARM CHAIR </s>
-0.3010 BEDSIDE TABLE </s>
-0.3010 BEER BOTTLE </s>
-0.3010 BEER CAN </s>
-0.6021 BRING ME SOME
-0.6021 BRING ME THE
-0.3010 CHICKEN NOODLES </s>
-0.3010 CHOCOLATE MILK </s>
-0.3010 CLEANING STUFF </s>
-0.3010 COME WITH ME
-0.3010 COUCH TABLE </s>
-0.3010 DINNER TABLE </s>
-0.3010 ENERGY DRINK </s>
-0.3010 FOLLOW ME </s>
-0.3010 FRESH DISCS </s>
-0.3010 GARLIC SAUCE </s>
-0.6021 GET ME SOME
-0.6021 GET ME THE
-1.2553 GO TO BEDROOM
-1.2553 GO TO HALLWAY
-1.2553 GO TO KITCHEN
-1.2553 GO TO LIVING
-0.5563 GO TO THE
-0.3010 GOOD JOB </s>
-0.3010 HALLWAY TABLE </s>
-1.2553 HEAD TO BEDROOM
-1.2553 HEAD TO HALLWAY
-1.2553 HEAD TO KITCHEN
-1.2553 HEAD TO LIVING
-1.2553 HEAD TO SEATING
-0.6532 HEAD TO THE
-0.3010 KITCHEN COUNTER </s>
-0.3010 KITCHEN TABLE </s>
-0.3010 LIVING ROOM </s>
-0.9031 ME SOME CLEANING
-0.9031 ME SOME DRINK
-0.9031 ME SOME FOOD
-0.9031 ME SOME SNACK
-0.9031 ME THE CLEANING
-0.9031 ME THE DRINK
-0.9031 ME THE FOOD
-0.9031 ME THE SNACK
-1.2553 MOVE TO BEDROOM
-1.2553 MOVE TO HALLWAY
-1.2553 MOVE TO KITCHEN
-1.2553 MOVE TO LIVING
-0.5563 MOVE TO THE
-0.3010 ORANGE JUICE </s>
-0.3010 PEANUT BUTTER </s>
-0.3010 ROBOT NO </s>
-0.3010 ROBOT YES </s>
-0.3010 SEVEN UP </s>
-0.3010 SOME CLEANING STUFF
-0.3010 SOME DRINK </s>
-0.3010 SOME FOOD </s>
-0.3010 SOME SNACK </s>
-0.3010 THANK YOU </s>
-0.3010 THE APPLIANCE </s>
-0.3010 THE CLEANING STUFF
-0.3010 THE DRINK </s>
-0.3010 THE FOOD </s>
-0.3010 THE SEATING </s>
-0.3010 THE SHELF </s>
-0.3010 THE SNACK </s>
-0.3010 THE TABLE </s>
-0.3010 THE UTENSIL </s>
-0.3010 TO BEDROOM </s>
-0.3010 TO HALLWAY </s>
-0.3010 TO KITCHEN </s>
-0.3010 TO LIVING ROOM
-0.3010 TO SEATING </s>
-0.9700 TO THE APPLIANCE
-1.1461 TO THE SEATING
-0.9700 TO THE SHELF
-0.9700 TO THE TABLE
-0.9700 TO THE UTENSIL
-0.3010 TOMATO SAUCE </s>
-0.3010 TOOTH PASTE </s>
-0.3010 TV COUNTER </s>
-0.3010 UMBRELLA STAND </s>
-0.3010 VEGGIE NOODLES </s>
-0.3010 WITH ME </s>

\end\
