Language model created by QuickLM on Fri Jun 28 19:02:36 EDT 2013
Copyright (c) 1996-2010 Carnegie Mellon University and Alexander I. Rudnicky

The model is in standard ARPA format, designed by Doug Paul while he was at MITRE.

The code that was used to produce this language model is available in Open Source.
Please visit http://www.speech.cs.cmu.edu/tools/ for more information

The (fixed) discount mass is 0.5. The backoffs are computed using the ratio method.
This model based on a corpus of 83 sentences and 59 words

\data\
ngram 1=59
ngram 2=101
ngram 3=116

\1-grams:
-1.1294 </s> -0.3010
-1.1294 <s> -0.2667
-2.5713 APPLE -0.2987
-2.2703 BEER -0.2987
-2.5713 BOTTLE -0.2771
-1.2703 BRING -0.2758
-2.5713 BUTTER -0.2771
-2.5713 CAN -0.2771
-2.5713 CHICKEN -0.2987
-2.2703 CHOCOLATE -0.2746
-2.5713 COKE -0.2771
-3.0484 COME -0.3006
-2.5713 COOKIES -0.2771
-2.5713 CRACKERS -0.2771
-3.0484 CUP -0.2987
-2.4464 DRINK -0.2746
-2.5713 DROPS -0.2771
-2.5713 ENERGY -0.2995
-2.5713 FANTA -0.2771
-3.0484 FOLLOW -0.3003
-3.0484 FOOD -0.2987
-2.5713 GARLIC -0.2987
-3.0484 GOOD -0.3006
-3.0484 HALT -0.2675
-3.0484 HALTING -0.2675
-2.0942 IS -0.2721
-3.0484 JOB -0.2675
-2.2703 JUICE -0.2771
-1.2491 LOCATION -0.2758
-2.5713 MARMALADE -0.2771
-2.7474 ME -0.2675
-2.2703 MILK -0.2771
-2.7474 NO -0.2675
-2.2703 NOODLES -0.2771
-1.7262 ONE -0.2675
-2.5713 ORANGE -0.2987
-2.5713 PEANUT -0.2999
-2.7474 ROBOT -0.2995
-2.2703 SAUCE -0.2771
-2.5713 SEVEN -0.2999
-2.2703 SHELF -0.2675
-3.0484 SNACK -0.2987
-3.0484 STOP -0.2675
-3.0484 STOPING -0.2675
-3.0484 THANK -0.3006
-2.0942 THIS -0.2975
-1.7262 THREE -0.2675
-1.2703 TO -0.2758
-2.5713 TOMATO -0.2987
-3.0484 TOOL -0.2987
-3.0484 TOY -0.2987
-1.7262 TWO -0.2675
-2.5713 UP -0.2771
-2.5713 VEGGIE -0.2987
-3.0484 WAIT -0.2675
-3.0484 WAITING -0.2675
-3.0484 WITH -0.3003
-2.7474 YES -0.2675
-3.0484 YOU -0.2675

\2-grams:
-0.4420 <s> BRING 0.0000
-2.2201 <s> COME 0.0000
-2.2201 <s> FOLLOW 0.0000
-2.2201 <s> GOOD 0.0000
-2.2201 <s> HALT 0.0000
-2.2201 <s> HALTING 0.0000
-2.2201 <s> NO 0.0000
-1.9191 <s> ROBOT 0.0000
-2.2201 <s> STOP 0.0000
-2.2201 <s> STOPING 0.0000
-2.2201 <s> THANK 0.0000
-1.2659 <s> THIS 0.0000
-2.2201 <s> WAIT 0.0000
-2.2201 <s> WAITING 0.0000
-2.2201 <s> YES 0.0000
-0.3010 APPLE JUICE 0.0000
-0.6021 BEER BOTTLE 0.0000
-0.6021 BEER CAN 0.0000
-0.3010 BOTTLE TO 0.0000
-1.6021 BRING APPLE 0.0000
-1.3010 BRING BEER 0.0000
-1.6021 BRING CHICKEN 0.0000
-1.3010 BRING CHOCOLATE 0.0000
-1.6021 BRING COKE 0.0000
-1.6021 BRING COOKIES 0.0000
-1.6021 BRING CRACKERS 0.0000
-1.6021 BRING DROPS 0.0000
-1.6021 BRING ENERGY 0.0000
-1.6021 BRING FANTA 0.0000
-1.6021 BRING GARLIC 0.0000
-1.6021 BRING MARMALADE 0.0000
-1.6021 BRING MILK 0.0000
-1.6021 BRING ORANGE 0.0000
-1.6021 BRING PEANUT 0.0000
-1.6021 BRING SEVEN 0.0000
-1.6021 BRING TOMATO 0.0000
-1.6021 BRING VEGGIE 0.0000
-0.3010 BUTTER TO 0.0000
-0.3010 CAN TO 0.0000
-0.3010 CHICKEN NOODLES 0.0000
-0.6021 CHOCOLATE MILK 0.0000
-0.6021 CHOCOLATE TO 0.0000
-0.3010 COKE TO 0.0000
-0.3010 COME WITH 0.0000
-0.3010 COOKIES TO 0.0000
-0.3010 CRACKERS TO 0.0000
-0.3010 CUP SHELF 0.0000
-0.9031 DRINK SHELF 0.0000
-0.4260 DRINK TO 0.0000
-0.3010 DROPS TO 0.0000
-0.3010 ENERGY DRINK -0.0969
-0.3010 FANTA TO 0.0000
-0.3010 FOLLOW ME 0.0000
-0.3010 FOOD SHELF 0.0000
-0.3010 GARLIC SAUCE 0.0000
-0.3010 GOOD JOB 0.0000
-0.3010 HALT </s> -0.3010
-0.3010 HALTING </s> -0.3010
-1.2553 IS CUP 0.0000
-1.2553 IS DRINK -0.2430
-1.2553 IS FOOD 0.0000
-0.7782 IS LOCATION 0.0000
-1.2553 IS SNACK 0.0000
-1.2553 IS TOOL 0.0000
-1.2553 IS TOY 0.0000
-0.3010 JOB </s> -0.3010
-0.3010 JUICE TO 0.0000
-0.7782 LOCATION ONE 0.0000
-0.7782 LOCATION THREE 0.0000
-0.7782 LOCATION TWO 0.0000
-0.3010 MARMALADE TO 0.0000
-0.3010 ME </s> -0.3010
-0.3010 MILK TO 0.0000
-0.3010 NO </s> -0.3010
-0.3010 NOODLES TO 0.0000
-0.3010 ONE </s> -0.3010
-0.3010 ORANGE JUICE 0.0000
-0.3010 PEANUT BUTTER 0.0000
-0.6021 ROBOT NO 0.0000
-0.6021 ROBOT YES 0.0000
-0.3010 SAUCE TO 0.0000
-0.3010 SEVEN UP 0.0000
-0.3010 SHELF </s> -0.3010
-0.3010 SNACK SHELF 0.0000
-0.3010 STOP </s> -0.3010
-0.3010 STOPING </s> -0.3010
-0.3010 THANK YOU 0.0000
-0.3010 THIS IS 0.0000
-0.3010 THREE </s> -0.3010
-0.3010 TO LOCATION 0.0000
-0.3010 TOMATO SAUCE 0.0000
-0.3010 TOOL SHELF 0.0000
-0.3010 TOY SHELF 0.0000
-0.3010 TWO </s> -0.3010
-0.3010 UP TO 0.0000
-0.3010 VEGGIE NOODLES 0.0000
-0.3010 WAIT </s> -0.3010
-0.3010 WAITING </s> -0.3010
-0.3010 WITH ME 0.0000
-0.3010 YES </s> -0.3010
-0.3010 YOU </s> -0.3010

\3-grams:
-1.6021 <s> BRING APPLE
-1.3010 <s> BRING BEER
-1.6021 <s> BRING CHICKEN
-1.3010 <s> BRING CHOCOLATE
-1.6021 <s> BRING COKE
-1.6021 <s> BRING COOKIES
-1.6021 <s> BRING CRACKERS
-1.6021 <s> BRING DROPS
-1.6021 <s> BRING ENERGY
-1.6021 <s> BRING FANTA
-1.6021 <s> BRING GARLIC
-1.6021 <s> BRING MARMALADE
-1.6021 <s> BRING MILK
-1.6021 <s> BRING ORANGE
-1.6021 <s> BRING PEANUT
-1.6021 <s> BRING SEVEN
-1.6021 <s> BRING TOMATO
-1.6021 <s> BRING VEGGIE
-0.3010 <s> COME WITH
-0.3010 <s> FOLLOW ME
-0.3010 <s> GOOD JOB
-0.3010 <s> HALT </s>
-0.3010 <s> HALTING </s>
-0.3010 <s> NO </s>
-0.6021 <s> ROBOT NO
-0.6021 <s> ROBOT YES
-0.3010 <s> STOP </s>
-0.3010 <s> STOPING </s>
-0.3010 <s> THANK YOU
-0.3010 <s> THIS IS
-0.3010 <s> WAIT </s>
-0.3010 <s> WAITING </s>
-0.3010 <s> YES </s>
-0.3010 APPLE JUICE TO
-0.3010 BEER BOTTLE TO
-0.3010 BEER CAN TO
-0.3010 BOTTLE TO LOCATION
-0.3010 BRING APPLE JUICE
-0.6021 BRING BEER BOTTLE
-0.6021 BRING BEER CAN
-0.3010 BRING CHICKEN NOODLES
-0.6021 BRING CHOCOLATE MILK
-0.6021 BRING CHOCOLATE TO
-0.3010 BRING COKE TO
-0.3010 BRING COOKIES TO
-0.3010 BRING CRACKERS TO
-0.3010 BRING DROPS TO
-0.3010 BRING ENERGY DRINK
-0.3010 BRING FANTA TO
-0.3010 BRING GARLIC SAUCE
-0.3010 BRING MARMALADE TO
-0.3010 BRING MILK TO
-0.3010 BRING ORANGE JUICE
-0.3010 BRING PEANUT BUTTER
-0.3010 BRING SEVEN UP
-0.3010 BRING TOMATO SAUCE
-0.3010 BRING VEGGIE NOODLES
-0.3010 BUTTER TO LOCATION
-0.3010 CAN TO LOCATION
-0.3010 CHICKEN NOODLES TO
-0.3010 CHOCOLATE MILK TO
-0.3010 CHOCOLATE TO LOCATION
-0.3010 COKE TO LOCATION
-0.3010 COME WITH ME
-0.3010 COOKIES TO LOCATION
-0.3010 CRACKERS TO LOCATION
-0.3010 CUP SHELF </s>
-0.3010 DRINK SHELF </s>
-0.3010 DRINK TO LOCATION
-0.3010 DROPS TO LOCATION
-0.3010 ENERGY DRINK TO
-0.3010 FANTA TO LOCATION
-0.3010 FOLLOW ME </s>
-0.3010 FOOD SHELF </s>
-0.3010 GARLIC SAUCE TO
-0.3010 GOOD JOB </s>
-0.3010 IS CUP SHELF
-0.3010 IS DRINK SHELF
-0.3010 IS FOOD SHELF
-0.7782 IS LOCATION ONE
-0.7782 IS LOCATION THREE
-0.7782 IS LOCATION TWO
-0.3010 IS SNACK SHELF
-0.3010 IS TOOL SHELF
-0.3010 IS TOY SHELF
-0.3010 JUICE TO LOCATION
-0.3010 LOCATION ONE </s>
-0.3010 LOCATION THREE </s>
-0.3010 LOCATION TWO </s>
-0.3010 MARMALADE TO LOCATION
-0.3010 MILK TO LOCATION
-0.3010 NOODLES TO LOCATION
-0.3010 ORANGE JUICE TO
-0.3010 PEANUT BUTTER TO
-0.3010 ROBOT NO </s>
-0.3010 ROBOT YES </s>
-0.3010 SAUCE TO LOCATION
-0.3010 SEVEN UP TO
-0.3010 SNACK SHELF </s>
-0.3010 THANK YOU </s>
-1.2553 THIS IS CUP
-1.2553 THIS IS DRINK
-1.2553 THIS IS FOOD
-0.7782 THIS IS LOCATION
-1.2553 THIS IS SNACK
-1.2553 THIS IS TOOL
-1.2553 THIS IS TOY
-0.7782 TO LOCATION ONE
-0.7782 TO LOCATION THREE
-0.7782 TO LOCATION TWO
-0.3010 TOMATO SAUCE TO
-0.3010 TOOL SHELF </s>
-0.3010 TOY SHELF </s>
-0.3010 UP TO LOCATION
-0.3010 VEGGIE NOODLES TO
-0.3010 WITH ME </s>

\end\
