Language model created by QuickLM on Sun May  5 20:03:20 EDT 2013
Copyright (c) 1996-2010 Carnegie Mellon University and Alexander I. Rudnicky

The model is in standard ARPA format, designed by Doug Paul while he was at MITRE.

The code that was used to produce this language model is available in Open Source.
Please visit http://www.speech.cs.cmu.edu/tools/ for more information

The (fixed) discount mass is 0.5. The backoffs are computed using the ratio method.
This model based on a corpus of 92 sentences and 58 words

\data\
ngram 1=58
ngram 2=102
ngram 3=119

\1-grams:
-1.1441 </s> -0.3010
-1.1441 <s> -0.2687
-2.6308 BANANA -0.3000
-2.6308 BLACK -0.2990
-1.9318 BLUE -0.2894
-2.6308 BOTTLE -0.2759
-1.2506 BRING -0.2748
-2.3297 BRUSH -0.2759
-2.6308 CAPPUCINO -0.2759
-2.3297 CHIPS -0.2759
-2.6308 COCK -0.2759
-2.3297 COFFEE -0.2759
-3.1079 COME -0.3007
-2.1079 CUP -0.2741
-2.5058 DRINK -0.2741
-2.6308 ENERGY -0.2997
-3.1079 FOLLOW -0.3004
-2.6308 FROG -0.2759
-3.1079 GOOD -0.3007
-2.3297 GREEN -0.2966
-3.1079 HALT -0.2687
-3.1079 HALTING -0.2687
-2.6308 HOLDER -0.2759
-2.2048 IS -0.2687
-3.1079 JOB -0.2687
-2.6308 JUICE -0.2759
-2.3297 LIGHT -0.2759
-1.2328 LOCATION -0.2748
-2.6308 MAX -0.2990
-2.8069 ME -0.2687
-2.3297 MUG -0.2759
-3.1079 NO -0.2687
-1.7099 ONE -0.2687
-2.6308 ORANGE -0.2990
-2.6308 OWL -0.2759
-2.6308 PEN -0.3000
-2.6308 PING -0.2990
-2.6308 PINK -0.2976
-2.6308 PRINGLES -0.2759
-2.6308 RED -0.2990
-2.4089 SHELF -0.2687
-3.1079 SNACK -0.2993
-2.6308 SPRITE -0.2759
-3.1079 STOP -0.2687
-3.1079 STOPING -0.2687
-2.6308 TEA -0.2759
-3.1079 THANK -0.3007
-2.2048 THIS -0.2983
-1.7099 THREE -0.2687
-1.2506 TO -0.2748
-3.1079 TOOL -0.2993
-3.1079 TOY -0.2993
-1.7099 TWO -0.2687
-3.1079 WAIT -0.2687
-3.1079 WAITING -0.2687
-3.1079 WITH -0.3004
-3.1079 YES -0.2687
-3.1079 YOU -0.2687

\2-grams:
-0.4075 <s> BRING -0.0000
-2.2648 <s> COME 0.0000
-2.2648 <s> FOLLOW 0.0000
-2.2648 <s> GOOD 0.0000
-2.2648 <s> HALT 0.0000
-2.2648 <s> HALTING 0.0000
-2.2648 <s> NO 0.0000
-2.2648 <s> STOP 0.0000
-2.2648 <s> STOPING 0.0000
-2.2648 <s> THANK 0.0000
-1.3617 <s> THIS 0.0000
-2.2648 <s> WAIT 0.0000
-2.2648 <s> WAITING 0.0000
-2.2648 <s> YES 0.0000
-0.3010 BANANA JUICE 0.0000
-0.3010 BLACK LIGHT 0.0000
-1.0000 BLUE BRUSH 0.0000
-1.0000 BLUE CHIPS 0.0000
-1.0000 BLUE CUP -0.0414
-1.0000 BLUE LIGHT 0.0000
-1.0000 BLUE MUG 0.0000
-0.3010 BOTTLE TO 0.0000
-1.6812 BRING BANANA 0.0000
-1.6812 BRING BLACK 0.0000
-0.9823 BRING BLUE 0.0000
-1.6812 BRING BOTTLE 0.0000
-1.6812 BRING CAPPUCINO 0.0000
-1.6812 BRING COCK 0.0000
-1.6812 BRING COFFEE 0.0000
-1.6812 BRING ENERGY 0.0000
-1.6812 BRING FROG 0.0000
-1.3802 BRING GREEN 0.0000
-1.6812 BRING MAX 0.0000
-1.6812 BRING ORANGE 0.0000
-1.6812 BRING OWL 0.0000
-1.6812 BRING PEN 0.0000
-1.6812 BRING PING 0.0000
-1.6812 BRING PINK 0.0000
-1.6812 BRING PRINGLES 0.0000
-1.6812 BRING RED 0.0000
-1.6812 BRING SPRITE 0.0000
-0.3010 BRUSH TO 0.0000
-0.3010 CAPPUCINO TO 0.0000
-0.3010 CHIPS TO 0.0000
-0.3010 COCK TO 0.0000
-0.3010 COFFEE TO 0.0000
-0.3010 COME WITH 0.0000
-1.3010 CUP SHELF 0.0000
-0.3468 CUP TO 0.0000
-0.9031 DRINK SHELF 0.0000
-0.4260 DRINK TO 0.0000
-0.3010 ENERGY DRINK -0.0969
-0.3010 FOLLOW ME 0.0000
-0.3010 FROG TO 0.0000
-0.3010 GOOD JOB 0.0000
-0.6021 GREEN CUP -0.0414
-0.6021 GREEN TEA 0.0000
-0.3010 HALT </s> -0.3010
-0.3010 HALTING </s> -0.3010
-0.3010 HOLDER TO 0.0000
-1.2041 IS CUP -0.2788
-1.2041 IS DRINK -0.2430
-0.7270 IS LOCATION 0.0000
-1.2041 IS SNACK 0.0000
-1.2041 IS TOOL 0.0000
-1.2041 IS TOY 0.0000
-0.3010 JOB </s> -0.3010
-0.3010 JUICE TO 0.0000
-0.3010 LIGHT TO 0.0000
-0.7782 LOCATION ONE 0.0000
-0.7782 LOCATION THREE 0.0000
-0.7782 LOCATION TWO 0.0000
-0.3010 MAX COFFEE 0.0000
-0.3010 ME </s> -0.3010
-0.3010 MUG TO 0.0000
-0.3010 NO </s> -0.3010
-0.3010 ONE </s> -0.3010
-0.3010 ORANGE CHIPS 0.0000
-0.3010 OWL TO 0.0000
-0.3010 PEN HOLDER 0.0000
-0.3010 PING MUG 0.0000
-0.3010 PINK CUP -0.0414
-0.3010 PRINGLES TO 0.0000
-0.3010 RED BRUSH 0.0000
-0.3010 SHELF </s> -0.3010
-0.3010 SNACK SHELF 0.0000
-0.3010 SPRITE TO 0.0000
-0.3010 STOP </s> -0.3010
-0.3010 STOPING </s> -0.3010
-0.3010 TEA TO 0.0000
-0.3010 THANK YOU 0.0000
-0.3010 THIS IS 0.0000
-0.3010 THREE </s> -0.3010
-0.3010 TO LOCATION 0.0000
-0.3010 TOOL SHELF 0.0000
-0.3010 TOY SHELF 0.0000
-0.3010 TWO </s> -0.3010
-0.3010 WAIT </s> -0.3010
-0.3010 WAITING </s> -0.3010
-0.3010 WITH ME 0.0000
-0.3010 YES </s> -0.3010
-0.3010 YOU </s> -0.3010

\3-grams:
-1.6812 <s> BRING BANANA
-1.6812 <s> BRING BLACK
-0.9823 <s> BRING BLUE
-1.6812 <s> BRING BOTTLE
-1.6812 <s> BRING CAPPUCINO
-1.6812 <s> BRING COCK
-1.6812 <s> BRING COFFEE
-1.6812 <s> BRING ENERGY
-1.6812 <s> BRING FROG
-1.3802 <s> BRING GREEN
-1.6812 <s> BRING MAX
-1.6812 <s> BRING ORANGE
-1.6812 <s> BRING OWL
-1.6812 <s> BRING PEN
-1.6812 <s> BRING PING
-1.6812 <s> BRING PINK
-1.6812 <s> BRING PRINGLES
-1.6812 <s> BRING RED
-1.6812 <s> BRING SPRITE
-0.3010 <s> COME WITH
-0.3010 <s> FOLLOW ME
-0.3010 <s> GOOD JOB
-0.3010 <s> HALT </s>
-0.3010 <s> HALTING </s>
-0.3010 <s> NO </s>
-0.3010 <s> STOP </s>
-0.3010 <s> STOPING </s>
-0.3010 <s> THANK YOU
-0.3010 <s> THIS IS
-0.3010 <s> WAIT </s>
-0.3010 <s> WAITING </s>
-0.3010 <s> YES </s>
-0.3010 BANANA JUICE TO
-0.3010 BLACK LIGHT TO
-0.3010 BLUE BRUSH TO
-0.3010 BLUE CHIPS TO
-0.3010 BLUE CUP TO
-0.3010 BLUE LIGHT TO
-0.3010 BLUE MUG TO
-0.3010 BOTTLE TO LOCATION
-0.3010 BRING BANANA JUICE
-0.3010 BRING BLACK LIGHT
-1.0000 BRING BLUE BRUSH
-1.0000 BRING BLUE CHIPS
-1.0000 BRING BLUE CUP
-1.0000 BRING BLUE LIGHT
-1.0000 BRING BLUE MUG
-0.3010 BRING BOTTLE TO
-0.3010 BRING CAPPUCINO TO
-0.3010 BRING COCK TO
-0.3010 BRING COFFEE TO
-0.3010 BRING ENERGY DRINK
-0.3010 BRING FROG TO
-0.6021 BRING GREEN CUP
-0.6021 BRING GREEN TEA
-0.3010 BRING MAX COFFEE
-0.3010 BRING ORANGE CHIPS
-0.3010 BRING OWL TO
-0.3010 BRING PEN HOLDER
-0.3010 BRING PING MUG
-0.3010 BRING PINK CUP
-0.3010 BRING PRINGLES TO
-0.3010 BRING RED BRUSH
-0.3010 BRING SPRITE TO
-0.3010 BRUSH TO LOCATION
-0.3010 CAPPUCINO TO LOCATION
-0.3010 CHIPS TO LOCATION
-0.3010 COCK TO LOCATION
-0.3010 COFFEE TO LOCATION
-0.3010 COME WITH ME
-0.3010 CUP SHELF </s>
-0.3010 CUP TO LOCATION
-0.3010 DRINK SHELF </s>
-0.3010 DRINK TO LOCATION
-0.3010 ENERGY DRINK TO
-0.3010 FOLLOW ME </s>
-0.3010 FROG TO LOCATION
-0.3010 GOOD JOB </s>
-0.3010 GREEN CUP TO
-0.3010 GREEN TEA TO
-0.3010 HOLDER TO LOCATION
-0.3010 IS CUP SHELF
-0.3010 IS DRINK SHELF
-0.7782 IS LOCATION ONE
-0.7782 IS LOCATION THREE
-0.7782 IS LOCATION TWO
-0.3010 IS SNACK SHELF
-0.3010 IS TOOL SHELF
-0.3010 IS TOY SHELF
-0.3010 JUICE TO LOCATION
-0.3010 LIGHT TO LOCATION
-0.3010 LOCATION ONE </s>
-0.3010 LOCATION THREE </s>
-0.3010 LOCATION TWO </s>
-0.3010 MAX COFFEE TO
-0.3010 MUG TO LOCATION
-0.3010 ORANGE CHIPS TO
-0.3010 OWL TO LOCATION
-0.3010 PEN HOLDER TO
-0.3010 PING MUG TO
-0.3010 PINK CUP TO
-0.3010 PRINGLES TO LOCATION
-0.3010 RED BRUSH TO
-0.3010 SNACK SHELF </s>
-0.3010 SPRITE TO LOCATION
-0.3010 TEA TO LOCATION
-0.3010 THANK YOU </s>
-1.2041 THIS IS CUP
-1.2041 THIS IS DRINK
-0.7270 THIS IS LOCATION
-1.2041 THIS IS SNACK
-1.2041 THIS IS TOOL
-1.2041 THIS IS TOY
-0.7782 TO LOCATION ONE
-0.7782 TO LOCATION THREE
-0.7782 TO LOCATION TWO
-0.3010 TOOL SHELF </s>
-0.3010 TOY SHELF </s>
-0.3010 WITH ME </s>

\end\
