Language model created by QuickLM on Fri May  3 20:47:30 EDT 2013
Copyright (c) 1996-2010 Carnegie Mellon University and Alexander I. Rudnicky

The model is in standard ARPA format, designed by Doug Paul while he was at MITRE.

The code that was used to produce this language model is available in Open Source.
Please visit http://www.speech.cs.cmu.edu/tools/ for more information

The (fixed) discount mass is 0.5. The backoffs are computed using the ratio method.
This model based on a corpus of 9 sentences and 16 words

\data\
ngram 1=16
ngram 2=23
ngram 3=15

\1-grams:
-0.8653 </s> -0.3010
-0.8653 <s> -0.2374
-1.8195 COME -0.2944
-1.8195 FOLLOW -0.2877
-1.8195 GET -0.2944
-1.8195 GOOD -0.2944
-1.8195 HALT -0.2374
-1.8195 JOB -0.2374
-1.5185 ME -0.2374
-1.8195 NO -0.2374
-1.8195 OUT -0.2374
-1.8195 STOP -0.2374
-1.8195 THANK -0.2944
-1.8195 WITH -0.2877
-1.8195 YES -0.2374
-1.8195 YOU -0.2374

\2-grams:
-1.2553 <s> COME 0.0000
-1.2553 <s> FOLLOW 0.0000
-1.2553 <s> GET 0.0000
-1.2553 <s> GOOD 0.0000
-1.2553 <s> HALT 0.0000
-1.2553 <s> NO 0.0000
-1.2553 <s> STOP 0.0000
-1.2553 <s> THANK 0.0000
-1.2553 <s> YES 0.0000
-0.3010 COME WITH 0.0000
-0.3010 FOLLOW ME 0.0000
-0.3010 GET OUT 0.0000
-0.3010 GOOD JOB 0.0000
-0.3010 HALT </s> -0.3010
-0.3010 JOB </s> -0.3010
-0.3010 ME </s> -0.3010
-0.3010 NO </s> -0.3010
-0.3010 OUT </s> -0.3010
-0.3010 STOP </s> -0.3010
-0.3010 THANK YOU 0.0000
-0.3010 WITH ME 0.0000
-0.3010 YES </s> -0.3010
-0.3010 YOU </s> -0.3010

\3-grams:
-0.3010 <s> COME WITH
-0.3010 <s> FOLLOW ME
-0.3010 <s> GET OUT
-0.3010 <s> GOOD JOB
-0.3010 <s> HALT </s>
-0.3010 <s> NO </s>
-0.3010 <s> STOP </s>
-0.3010 <s> THANK YOU
-0.3010 <s> YES </s>
-0.3010 COME WITH ME
-0.3010 FOLLOW ME </s>
-0.3010 GET OUT </s>
-0.3010 GOOD JOB </s>
-0.3010 THANK YOU </s>
-0.3010 WITH ME </s>

\end\
