Language model created by QuickLM on Sat Jul  2 09:08:52 EDT 2016
Copyright (c) 1996-2010 Carnegie Mellon University and Alexander I. Rudnicky

The model is in standard ARPA format, designed by Doug Paul while he was at MITRE.

The code that was used to produce this language model is available in Open Source.
Please visit http://www.speech.cs.cmu.edu/tools/ for more information

The (fixed) discount mass is 0.5. The backoffs are computed using the ratio method.
This model based on a corpus of 867 sentences and 157 words

\data\
ngram 1=157
ngram 2=310
ngram 3=155

\1-grams:
-0.7782 </s> -0.3010
-0.7782 <s> -0.2218
-3.7162 A -0.2218
-3.7162 ALEXANDER -0.2218
-3.7162 ALL -0.2218
-3.4151 AND -0.2218
-3.7162 ANGEL -0.2218
-3.1141 APPLE -0.2218
-3.7162 ARE -0.2218
-2.5121 ARM -0.2218
-3.1141 AT -0.2218
-3.7162 AVA -0.2218
-3.1141 BABY -0.2218
-3.4151 BAR -0.2218
-3.4151 BED -0.2218
-2.6748 BEDROOM -0.2218
-3.4151 BEDSIDE -0.2218
-3.1141 BEER -0.2218
-3.1141 BISQUITS -0.2218
-2.6370 BLACK -0.2218
-3.4151 BLACK-DRESSED -0.2218
-2.5700 BLOUSE -0.2218
-2.6370 BLUE -0.2218
-3.4151 BLUE-DRESSED -0.2218
-3.4151 BOOKCASE -0.2218
-3.1141 BOWL -0.2218
-3.7162 BRING -0.2218
-3.1141 CABINET -0.2218
-3.7162 CHARLOTTE -0.2218
-2.9380 CHILD -0.2218
-2.7162 CHILDREN -0.2218
-3.1141 CHIPS -0.2218
-3.1141 CHOCO -0.2218
-3.1141 CLOTH -0.2218
-2.5700 COAT -0.2218
-3.1141 COCONUT -0.2218
-3.1141 COKE -0.2218
-2.6748 CORRIDOR -0.2218
-2.6370 COULD -0.2218
-3.4151 CUPBOARD -0.2218
-3.7162 DANIEL -0.2218
-3.1141 DESK -0.2218
-2.5401 DINING -0.2218
-3.4151 DRAWER -0.2218
-2.9380 DRESSED -0.2218
-3.7162 DRINK -0.2218
-2.9380 EARRINGS -0.2218
-3.7162 EAT -0.2218
-3.1141 EGG -0.2218
-2.7162 ELDERS -0.2218
-3.7162 EMILY -0.2218
-3.7162 EMMA -0.2218
-3.7162 ETHAN -0.2218
-3.7162 EXIT -0.2218
-2.9380 FATTEST -0.2218
-3.1141 FIND -0.2218
-3.7162 FOLLOW -0.2218
-2.9380 GLASSES -0.2218
-2.6370 GRAY -0.2218
-3.4151 GRAY-DRESSED -0.2218
-3.2390 GREET -0.2218
-3.7162 GUIDE -0.2218
-2.9380 HAT -0.2218
-3.7162 HER -0.2218
-3.7162 HIM -0.2218
-3.7162 HOW -0.2218
-2.7162 IN -0.2218
-3.7162 ISABELLA -0.2218
-2.5700 JACKET -0.2218
-3.7162 JACOB -0.2218
-3.7162 JAMES -0.2218
-3.7162 KILL -0.2218
-2.6748 KITCHEN -0.2218
-2.5121 LEFT -0.2218
-3.7162 LIAM -0.2218
-2.4857 LIVING -0.2218
-3.4151 LYING -0.2218
-3.7162 MADISON -0.2218
-2.6370 MAN -0.2218
-3.7162 MANY -0.2218
-3.7162 MASON -0.2218
-3.7162 ME -0.2218
-3.4151 MEET -0.2218
-2.7162 MEN -0.2218
-3.7162 MICHAEL -0.2218
-3.1141 MILK -0.2218
-2.9380 NECKLACE -0.2218
-3.1141 NICKEL -0.2218
-3.7162 NO -0.2218
-3.7162 NOAH -0.2218
-3.7162 OFFER -0.2218
-2.6748 OFFICE -0.2218
-2.9380 OLDEST -0.2218
-2.6370 ORANGE -0.2218
-3.4151 ORANGE-DRESSED -0.2218
-2.5700 PANTS -0.2218
-3.1141 PAPRIKA -0.2218
-2.7162 PEOPLE -0.2218
-2.6370 PERSON -0.2218
-3.4151 PLACED -0.2218
-3.1141 PLATE -0.2218
-2.4609 PLEASE -0.2218
-2.5121 POINTING -0.2218
-3.1141 PRETZELS -0.2218
-3.1141 PRINGLES -0.2218
-3.1141 PUMPER -0.2218
-2.6370 RED -0.2218
-3.4151 RED-DRESSED -0.2218
-2.5121 RIGHT -0.2218
-2.5121 RISING -0.2218
-3.7162 ROBIN -0.2218
-2.8711 ROBOT -0.2218
-2.3737 ROOM -0.2218
-3.1141 SHAMPOO -0.2218
-3.4151 SHELF -0.2218
-2.5700 SHIRT -0.2218
-2.5700 SHOES -0.2218
-3.4151 SIDESHELF -0.2218
-3.1141 SINK -0.2218
-3.4151 SITTING -0.2218
-2.9380 SLIMMEST -0.2218
-2.9380 SMALLEST -0.2218
-3.1141 SOAP -0.2218
-3.7162 SOMETHING -0.2218
-3.7162 SOPHIA -0.2218
-3.1141 SPPONGE -0.2218
-3.1141 STAND -0.2218
-3.4151 STANDING -0.2218
-2.5700 SWEATER -0.2218
-3.1141 SWEETS -0.2218
-3.1141 SYRUP -0.2218
-2.5700 T-SHIRT -0.2218
-2.8131 TABLE -0.2218
-2.9380 TALLEST -0.2218
-3.7162 TAYLOR -0.2218
-3.1141 TEA -0.2218
-3.7162 TELL -0.2218
-2.4374 THE -0.2218
-3.4151 THEM -0.2218
-3.4151 THEN -0.2218
-2.9380 TIE -0.2218
-3.1141 TO -0.2218
-3.1141 TRAY -0.2218
-3.1141 TV -0.2218
-2.8131 WAVING -0.2218
-2.8131 WEARING -0.2218
-2.6370 WHITE -0.2218
-3.4151 WHITE-DRESSED -0.2218
-3.7162 WILLIAM -0.2218
-2.9380 WITH -0.2218
-2.6370 WOMAN -0.2218
-2.7162 WOMEN -0.2218
-2.6370 YELLOW -0.2218
-3.4151 YELLOW-DRESSED -0.2218
-3.7162 YES -0.2218
-2.6370 YOU -0.2218
-2.9380 YOUNGEST -0.2218

\2-grams:
-3.2390 <s> A 0.0000
-3.2390 <s> ALEXANDER 0.0000
-3.2390 <s> ALL 0.0000
-2.9380 <s> AND 0.0000
-3.2390 <s> ANGEL 0.0000
-2.6370 <s> APPLE 0.0000
-3.2390 <s> ARE 0.0000
-2.0349 <s> ARM 0.0000
-2.6370 <s> AT 0.0000
-3.2390 <s> AVA 0.0000
-2.6370 <s> BABY 0.0000
-2.9380 <s> BAR 0.0000
-2.9380 <s> BED 0.0000
-2.1977 <s> BEDROOM 0.0000
-2.9380 <s> BEDSIDE 0.0000
-2.6370 <s> BEER 0.0000
-2.6370 <s> BISQUITS 0.0000
-2.1599 <s> BLACK 0.0000
-2.9380 <s> BLACK-DRESSED 0.0000
-2.0929 <s> BLOUSE 0.0000
-2.1599 <s> BLUE 0.0000
-2.9380 <s> BLUE-DRESSED 0.0000
-2.9380 <s> BOOKCASE 0.0000
-2.6370 <s> BOWL 0.0000
-3.2390 <s> BRING 0.0000
-2.6370 <s> CABINET 0.0000
-3.2390 <s> CHARLOTTE 0.0000
-2.4609 <s> CHILD 0.0000
-2.2390 <s> CHILDREN 0.0000
-2.6370 <s> CHIPS 0.0000
-2.6370 <s> CHOCO 0.0000
-2.6370 <s> CLOTH 0.0000
-2.0929 <s> COAT 0.0000
-2.6370 <s> COCONUT 0.0000
-2.6370 <s> COKE 0.0000
-2.1977 <s> CORRIDOR 0.0000
-2.1599 <s> COULD 0.0000
-2.9380 <s> CUPBOARD 0.0000
-3.2390 <s> DANIEL 0.0000
-2.6370 <s> DESK 0.0000
-2.0630 <s> DINING 0.0000
-2.9380 <s> DRAWER 0.0000
-2.4609 <s> DRESSED 0.0000
-3.2390 <s> DRINK 0.0000
-2.4609 <s> EARRINGS 0.0000
-3.2390 <s> EAT 0.0000
-2.6370 <s> EGG 0.0000
-2.2390 <s> ELDERS 0.0000
-3.2390 <s> EMILY 0.0000
-3.2390 <s> EMMA 0.0000
-3.2390 <s> ETHAN 0.0000
-3.2390 <s> EXIT 0.0000
-2.4609 <s> FATTEST 0.0000
-2.6370 <s> FIND 0.0000
-3.2390 <s> FOLLOW 0.0000
-2.4609 <s> GLASSES 0.0000
-2.1599 <s> GRAY 0.0000
-2.9380 <s> GRAY-DRESSED 0.0000
-2.7619 <s> GREET 0.0000
-3.2390 <s> GUIDE 0.0000
-2.4609 <s> HAT 0.0000
-3.2390 <s> HER 0.0000
-3.2390 <s> HIM 0.0000
-3.2390 <s> HOW 0.0000
-2.2390 <s> IN 0.0000
-3.2390 <s> ISABELLA 0.0000
-2.0929 <s> JACKET 0.0000
-3.2390 <s> JACOB 0.0000
-3.2390 <s> JAMES 0.0000
-3.2390 <s> KILL 0.0000
-2.1977 <s> KITCHEN 0.0000
-2.0349 <s> LEFT 0.0000
-3.2390 <s> LIAM 0.0000
-2.0086 <s> LIVING 0.0000
-2.9380 <s> LYING 0.0000
-3.2390 <s> MADISON 0.0000
-2.1599 <s> MAN 0.0000
-3.2390 <s> MANY 0.0000
-3.2390 <s> MASON 0.0000
-3.2390 <s> ME 0.0000
-2.9380 <s> MEET 0.0000
-2.2390 <s> MEN 0.0000
-3.2390 <s> MICHAEL 0.0000
-2.6370 <s> MILK 0.0000
-2.4609 <s> NECKLACE 0.0000
-2.6370 <s> NICKEL 0.0000
-3.2390 <s> NO 0.0000
-3.2390 <s> NOAH 0.0000
-3.2390 <s> OFFER 0.0000
-2.1977 <s> OFFICE 0.0000
-2.4609 <s> OLDEST 0.0000
-2.1599 <s> ORANGE 0.0000
-2.9380 <s> ORANGE-DRESSED 0.0000
-2.0929 <s> PANTS 0.0000
-2.6370 <s> PAPRIKA 0.0000
-2.2390 <s> PEOPLE 0.0000
-2.1599 <s> PERSON 0.0000
-2.9380 <s> PLACED 0.0000
-2.6370 <s> PLATE 0.0000
-1.9838 <s> PLEASE 0.0000
-2.0349 <s> POINTING 0.0000
-2.6370 <s> PRETZELS 0.0000
-2.6370 <s> PRINGLES 0.0000
-2.6370 <s> PUMPER 0.0000
-2.1599 <s> RED 0.0000
-2.9380 <s> RED-DRESSED 0.0000
-2.0349 <s> RIGHT 0.0000
-2.0349 <s> RISING 0.0000
-3.2390 <s> ROBIN 0.0000
-2.3940 <s> ROBOT 0.0000
-1.8966 <s> ROOM 0.0000
-2.6370 <s> SHAMPOO 0.0000
-2.9380 <s> SHELF 0.0000
-2.0929 <s> SHIRT 0.0000
-2.0929 <s> SHOES 0.0000
-2.9380 <s> SIDESHELF 0.0000
-2.6370 <s> SINK 0.0000
-2.9380 <s> SITTING 0.0000
-2.4609 <s> SLIMMEST 0.0000
-2.4609 <s> SMALLEST 0.0000
-2.6370 <s> SOAP 0.0000
-3.2390 <s> SOMETHING 0.0000
-3.2390 <s> SOPHIA 0.0000
-2.6370 <s> SPPONGE 0.0000
-2.6370 <s> STAND 0.0000
-2.9380 <s> STANDING 0.0000
-2.0929 <s> SWEATER 0.0000
-2.6370 <s> SWEETS 0.0000
-2.6370 <s> SYRUP 0.0000
-2.0929 <s> T-SHIRT 0.0000
-2.3360 <s> TABLE 0.0000
-2.4609 <s> TALLEST 0.0000
-3.2390 <s> TAYLOR 0.0000
-2.6370 <s> TEA 0.0000
-3.2390 <s> TELL 0.0000
-1.9603 <s> THE 0.0000
-2.9380 <s> THEM 0.0000
-2.9380 <s> THEN 0.0000
-2.4609 <s> TIE 0.0000
-2.6370 <s> TO 0.0000
-2.6370 <s> TRAY 0.0000
-2.6370 <s> TV 0.0000
-2.3360 <s> WAVING 0.0000
-2.3360 <s> WEARING 0.0000
-2.1599 <s> WHITE 0.0000
-2.9380 <s> WHITE-DRESSED 0.0000
-3.2390 <s> WILLIAM 0.0000
-2.4609 <s> WITH 0.0000
-2.1599 <s> WOMAN 0.0000
-2.2390 <s> WOMEN 0.0000
-2.1599 <s> YELLOW 0.0000
-2.9380 <s> YELLOW-DRESSED 0.0000
-3.2390 <s> YES 0.0000
-2.1599 <s> YOU 0.0000
-2.4609 <s> YOUNGEST 0.0000
-0.3010 A </s> -0.3010
-0.3010 ALEXANDER </s> -0.3010
-0.3010 ALL </s> -0.3010
-0.3010 AND </s> -0.3010
-0.3010 ANGEL </s> -0.3010
-0.3010 APPLE </s> -0.3010
-0.3010 ARE </s> -0.3010
-0.3010 ARM </s> -0.3010
-0.3010 AT </s> -0.3010
-0.3010 AVA </s> -0.3010
-0.3010 BABY </s> -0.3010
-0.3010 BAR </s> -0.3010
-0.3010 BED </s> -0.3010
-0.3010 BEDROOM </s> -0.3010
-0.3010 BEDSIDE </s> -0.3010
-0.3010 BEER </s> -0.3010
-0.3010 BISQUITS </s> -0.3010
-0.3010 BLACK </s> -0.3010
-0.3010 BLACK-DRESSED </s> -0.3010
-0.3010 BLOUSE </s> -0.3010
-0.3010 BLUE </s> -0.3010
-0.3010 BLUE-DRESSED </s> -0.3010
-0.3010 BOOKCASE </s> -0.3010
-0.3010 BOWL </s> -0.3010
-0.3010 BRING </s> -0.3010
-0.3010 CABINET </s> -0.3010
-0.3010 CHARLOTTE </s> -0.3010
-0.3010 CHILD </s> -0.3010
-0.3010 CHILDREN </s> -0.3010
-0.3010 CHIPS </s> -0.3010
-0.3010 CHOCO </s> -0.3010
-0.3010 CLOTH </s> -0.3010
-0.3010 COAT </s> -0.3010
-0.3010 COCONUT </s> -0.3010
-0.3010 COKE </s> -0.3010
-0.3010 CORRIDOR </s> -0.3010
-0.3010 COULD </s> -0.3010
-0.3010 CUPBOARD </s> -0.3010
-0.3010 DANIEL </s> -0.3010
-0.3010 DESK </s> -0.3010
-0.3010 DINING </s> -0.3010
-0.3010 DRAWER </s> -0.3010
-0.3010 DRESSED </s> -0.3010
-0.3010 DRINK </s> -0.3010
-0.3010 EARRINGS </s> -0.3010
-0.3010 EAT </s> -0.3010
-0.3010 EGG </s> -0.3010
-0.3010 ELDERS </s> -0.3010
-0.3010 EMILY </s> -0.3010
-0.3010 EMMA </s> -0.3010
-0.3010 ETHAN </s> -0.3010
-0.3010 EXIT </s> -0.3010
-0.3010 FATTEST </s> -0.3010
-0.3010 FIND </s> -0.3010
-0.3010 FOLLOW </s> -0.3010
-0.3010 GLASSES </s> -0.3010
-0.3010 GRAY </s> -0.3010
-0.3010 GRAY-DRESSED </s> -0.3010
-0.3010 GREET </s> -0.3010
-0.3010 GUIDE </s> -0.3010
-0.3010 HAT </s> -0.3010
-0.3010 HER </s> -0.3010
-0.3010 HIM </s> -0.3010
-0.3010 HOW </s> -0.3010
-0.3010 IN </s> -0.3010
-0.3010 ISABELLA </s> -0.3010
-0.3010 JACKET </s> -0.3010
-0.3010 JACOB </s> -0.3010
-0.3010 JAMES </s> -0.3010
-0.3010 KILL </s> -0.3010
-0.3010 KITCHEN </s> -0.3010
-0.3010 LEFT </s> -0.3010
-0.3010 LIAM </s> -0.3010
-0.3010 LIVING </s> -0.3010
-0.3010 LYING </s> -0.3010
-0.3010 MADISON </s> -0.3010
-0.3010 MAN </s> -0.3010
-0.3010 MANY </s> -0.3010
-0.3010 MASON </s> -0.3010
-0.3010 ME </s> -0.3010
-0.3010 MEET </s> -0.3010
-0.3010 MEN </s> -0.3010
-0.3010 MICHAEL </s> -0.3010
-0.3010 MILK </s> -0.3010
-0.3010 NECKLACE </s> -0.3010
-0.3010 NICKEL </s> -0.3010
-0.3010 NO </s> -0.3010
-0.3010 NOAH </s> -0.3010
-0.3010 OFFER </s> -0.3010
-0.3010 OFFICE </s> -0.3010
-0.3010 OLDEST </s> -0.3010
-0.3010 ORANGE </s> -0.3010
-0.3010 ORANGE-DRESSED </s> -0.3010
-0.3010 PANTS </s> -0.3010
-0.3010 PAPRIKA </s> -0.3010
-0.3010 PEOPLE </s> -0.3010
-0.3010 PERSON </s> -0.3010
-0.3010 PLACED </s> -0.3010
-0.3010 PLATE </s> -0.3010
-0.3010 PLEASE </s> -0.3010
-0.3010 POINTING </s> -0.3010
-0.3010 PRETZELS </s> -0.3010
-0.3010 PRINGLES </s> -0.3010
-0.3010 PUMPER </s> -0.3010
-0.3010 RED </s> -0.3010
-0.3010 RED-DRESSED </s> -0.3010
-0.3010 RIGHT </s> -0.3010
-0.3010 RISING </s> -0.3010
-0.3010 ROBIN </s> -0.3010
-0.3010 ROBOT </s> -0.3010
-0.3010 ROOM </s> -0.3010
-0.3010 SHAMPOO </s> -0.3010
-0.3010 SHELF </s> -0.3010
-0.3010 SHIRT </s> -0.3010
-0.3010 SHOES </s> -0.3010
-0.3010 SIDESHELF </s> -0.3010
-0.3010 SINK </s> -0.3010
-0.3010 SITTING </s> -0.3010
-0.3010 SLIMMEST </s> -0.3010
-0.3010 SMALLEST </s> -0.3010
-0.3010 SOAP </s> -0.3010
-0.3010 SOMETHING </s> -0.3010
-0.3010 SOPHIA </s> -0.3010
-0.3010 SPPONGE </s> -0.3010
-0.3010 STAND </s> -0.3010
-0.3010 STANDING </s> -0.3010
-0.3010 SWEATER </s> -0.3010
-0.3010 SWEETS </s> -0.3010
-0.3010 SYRUP </s> -0.3010
-0.3010 T-SHIRT </s> -0.3010
-0.3010 TABLE </s> -0.3010
-0.3010 TALLEST </s> -0.3010
-0.3010 TAYLOR </s> -0.3010
-0.3010 TEA </s> -0.3010
-0.3010 TELL </s> -0.3010
-0.3010 THE </s> -0.3010
-0.3010 THEM </s> -0.3010
-0.3010 THEN </s> -0.3010
-0.3010 TIE </s> -0.3010
-0.3010 TO </s> -0.3010
-0.3010 TRAY </s> -0.3010
-0.3010 TV </s> -0.3010
-0.3010 WAVING </s> -0.3010
-0.3010 WEARING </s> -0.3010
-0.3010 WHITE </s> -0.3010
-0.3010 WHITE-DRESSED </s> -0.3010
-0.3010 WILLIAM </s> -0.3010
-0.3010 WITH </s> -0.3010
-0.3010 WOMAN </s> -0.3010
-0.3010 WOMEN </s> -0.3010
-0.3010 YELLOW </s> -0.3010
-0.3010 YELLOW-DRESSED </s> -0.3010
-0.3010 YES </s> -0.3010
-0.3010 YOU </s> -0.3010
-0.3010 YOUNGEST </s> -0.3010

\3-grams:
-0.3010 <s> A </s>
-0.3010 <s> ALEXANDER </s>
-0.3010 <s> ALL </s>
-0.3010 <s> AND </s>
-0.3010 <s> ANGEL </s>
-0.3010 <s> APPLE </s>
-0.3010 <s> ARE </s>
-0.3010 <s> ARM </s>
-0.3010 <s> AT </s>
-0.3010 <s> AVA </s>
-0.3010 <s> BABY </s>
-0.3010 <s> BAR </s>
-0.3010 <s> BED </s>
-0.3010 <s> BEDROOM </s>
-0.3010 <s> BEDSIDE </s>
-0.3010 <s> BEER </s>
-0.3010 <s> BISQUITS </s>
-0.3010 <s> BLACK </s>
-0.3010 <s> BLACK-DRESSED </s>
-0.3010 <s> BLOUSE </s>
-0.3010 <s> BLUE </s>
-0.3010 <s> BLUE-DRESSED </s>
-0.3010 <s> BOOKCASE </s>
-0.3010 <s> BOWL </s>
-0.3010 <s> BRING </s>
-0.3010 <s> CABINET </s>
-0.3010 <s> CHARLOTTE </s>
-0.3010 <s> CHILD </s>
-0.3010 <s> CHILDREN </s>
-0.3010 <s> CHIPS </s>
-0.3010 <s> CHOCO </s>
-0.3010 <s> CLOTH </s>
-0.3010 <s> COAT </s>
-0.3010 <s> COCONUT </s>
-0.3010 <s> COKE </s>
-0.3010 <s> CORRIDOR </s>
-0.3010 <s> COULD </s>
-0.3010 <s> CUPBOARD </s>
-0.3010 <s> DANIEL </s>
-0.3010 <s> DESK </s>
-0.3010 <s> DINING </s>
-0.3010 <s> DRAWER </s>
-0.3010 <s> DRESSED </s>
-0.3010 <s> DRINK </s>
-0.3010 <s> EARRINGS </s>
-0.3010 <s> EAT </s>
-0.3010 <s> EGG </s>
-0.3010 <s> ELDERS </s>
-0.3010 <s> EMILY </s>
-0.3010 <s> EMMA </s>
-0.3010 <s> ETHAN </s>
-0.3010 <s> EXIT </s>
-0.3010 <s> FATTEST </s>
-0.3010 <s> FIND </s>
-0.3010 <s> FOLLOW </s>
-0.3010 <s> GLASSES </s>
-0.3010 <s> GRAY </s>
-0.3010 <s> GRAY-DRESSED </s>
-0.3010 <s> GREET </s>
-0.3010 <s> GUIDE </s>
-0.3010 <s> HAT </s>
-0.3010 <s> HER </s>
-0.3010 <s> HIM </s>
-0.3010 <s> HOW </s>
-0.3010 <s> IN </s>
-0.3010 <s> ISABELLA </s>
-0.3010 <s> JACKET </s>
-0.3010 <s> JACOB </s>
-0.3010 <s> JAMES </s>
-0.3010 <s> KILL </s>
-0.3010 <s> KITCHEN </s>
-0.3010 <s> LEFT </s>
-0.3010 <s> LIAM </s>
-0.3010 <s> LIVING </s>
-0.3010 <s> LYING </s>
-0.3010 <s> MADISON </s>
-0.3010 <s> MAN </s>
-0.3010 <s> MANY </s>
-0.3010 <s> MASON </s>
-0.3010 <s> ME </s>
-0.3010 <s> MEET </s>
-0.3010 <s> MEN </s>
-0.3010 <s> MICHAEL </s>
-0.3010 <s> MILK </s>
-0.3010 <s> NECKLACE </s>
-0.3010 <s> NICKEL </s>
-0.3010 <s> NO </s>
-0.3010 <s> NOAH </s>
-0.3010 <s> OFFER </s>
-0.3010 <s> OFFICE </s>
-0.3010 <s> OLDEST </s>
-0.3010 <s> ORANGE </s>
-0.3010 <s> ORANGE-DRESSED </s>
-0.3010 <s> PANTS </s>
-0.3010 <s> PAPRIKA </s>
-0.3010 <s> PEOPLE </s>
-0.3010 <s> PERSON </s>
-0.3010 <s> PLACED </s>
-0.3010 <s> PLATE </s>
-0.3010 <s> PLEASE </s>
-0.3010 <s> POINTING </s>
-0.3010 <s> PRETZELS </s>
-0.3010 <s> PRINGLES </s>
-0.3010 <s> PUMPER </s>
-0.3010 <s> RED </s>
-0.3010 <s> RED-DRESSED </s>
-0.3010 <s> RIGHT </s>
-0.3010 <s> RISING </s>
-0.3010 <s> ROBIN </s>
-0.3010 <s> ROBOT </s>
-0.3010 <s> ROOM </s>
-0.3010 <s> SHAMPOO </s>
-0.3010 <s> SHELF </s>
-0.3010 <s> SHIRT </s>
-0.3010 <s> SHOES </s>
-0.3010 <s> SIDESHELF </s>
-0.3010 <s> SINK </s>
-0.3010 <s> SITTING </s>
-0.3010 <s> SLIMMEST </s>
-0.3010 <s> SMALLEST </s>
-0.3010 <s> SOAP </s>
-0.3010 <s> SOMETHING </s>
-0.3010 <s> SOPHIA </s>
-0.3010 <s> SPPONGE </s>
-0.3010 <s> STAND </s>
-0.3010 <s> STANDING </s>
-0.3010 <s> SWEATER </s>
-0.3010 <s> SWEETS </s>
-0.3010 <s> SYRUP </s>
-0.3010 <s> T-SHIRT </s>
-0.3010 <s> TABLE </s>
-0.3010 <s> TALLEST </s>
-0.3010 <s> TAYLOR </s>
-0.3010 <s> TEA </s>
-0.3010 <s> TELL </s>
-0.3010 <s> THE </s>
-0.3010 <s> THEM </s>
-0.3010 <s> THEN </s>
-0.3010 <s> TIE </s>
-0.3010 <s> TO </s>
-0.3010 <s> TRAY </s>
-0.3010 <s> TV </s>
-0.3010 <s> WAVING </s>
-0.3010 <s> WEARING </s>
-0.3010 <s> WHITE </s>
-0.3010 <s> WHITE-DRESSED </s>
-0.3010 <s> WILLIAM </s>
-0.3010 <s> WITH </s>
-0.3010 <s> WOMAN </s>
-0.3010 <s> WOMEN </s>
-0.3010 <s> YELLOW </s>
-0.3010 <s> YELLOW-DRESSED </s>
-0.3010 <s> YES </s>
-0.3010 <s> YOU </s>
-0.3010 <s> YOUNGEST </s>

\end\
