Language model created by QuickLM on Thu Jan 19 14:50:53 EST 2012
Copyright (c) 1996-2010 Carnegie Mellon University and Alexander I. Rudnicky

The model is in standard ARPA format, designed by Doug Paul while he was at MITRE.

The code that was used to produce this language model is available in Open Source.
Please visit http://www.speech.cs.cmu.edu/tools/ for more information

The (fixed) discount mass is 0.5. The backoffs are computed using the ratio method.
This model based on a corpus of 25 sentences and 31 words

\data\
ngram 1=31
ngram 2=54
ngram 3=49

\1-grams:
-0.9786 </s> -0.3010
-0.9786 <s> -0.2508
-1.0755 AM -0.2629
-2.3766 BRIAN -0.2528
-2.3766 BRITNEY -0.2528
-2.3766 DANIEL -0.2528
-2.3766 DONNA -0.2528
-2.3766 EMMA -0.2528
-2.3766 HELLO -0.2992
-2.3766 HENRY -0.2528
-1.0755 I -0.2629
-2.3766 JOSEPH -0.2528
-2.3766 JUSTIN -0.2528
-2.3766 KEVIN -0.2528
-2.3766 LUMYAI -0.2528
-2.3766 MICHAEL -0.2528
-2.3766 MICHELLE -0.2528
-2.0755 MY -0.2974
-2.0755 NAME -0.2528
-2.3766 NO -0.2528
-2.3766 PETER -0.2528
-2.3766 PHILIP -0.2528
-2.3766 RICHARD -0.2528
-2.3766 ROBERT -0.2528
-2.3766 SARAH -0.2528
-2.3766 STEVE -0.2528
-2.3766 TELL -0.2974
-2.3766 THOMAS -0.2528
-2.3766 TINA -0.2528
-2.3766 TONY -0.2528
-2.3766 YES -0.2528

\2-grams:
-1.6990 <s> HELLO 0.0000
-0.3979 <s> I 0.0000
-1.6990 <s> MY 0.0000
-1.6990 <s> NO 0.0000
-1.6990 <s> TELL 0.0000
-1.6990 <s> YES 0.0000
-1.6021 AM BRIAN 0.0000
-1.6021 AM BRITNEY 0.0000
-1.6021 AM DANIEL 0.0000
-1.6021 AM DONNA 0.0000
-1.6021 AM EMMA 0.0000
-1.6021 AM HENRY 0.0000
-1.6021 AM JOSEPH 0.0000
-1.6021 AM JUSTIN 0.0000
-1.6021 AM KEVIN 0.0000
-1.6021 AM MICHAEL 0.0000
-1.6021 AM MICHELLE 0.0000
-1.6021 AM PETER 0.0000
-1.6021 AM PHILIP 0.0000
-1.6021 AM RICHARD 0.0000
-1.6021 AM ROBERT 0.0000
-1.6021 AM SARAH 0.0000
-1.6021 AM STEVE 0.0000
-1.6021 AM THOMAS 0.0000
-1.6021 AM TINA 0.0000
-1.6021 AM TONY 0.0000
-0.3010 BRIAN </s> -0.3010
-0.3010 BRITNEY </s> -0.3010
-0.3010 DANIEL </s> -0.3010
-0.3010 DONNA </s> -0.3010
-0.3010 EMMA </s> -0.3010
-0.3010 HELLO LUMYAI 0.0000
-0.3010 HENRY </s> -0.3010
-0.3010 I AM 0.0000
-0.3010 JOSEPH </s> -0.3010
-0.3010 JUSTIN </s> -0.3010
-0.3010 KEVIN </s> -0.3010
-0.3010 LUMYAI </s> -0.3010
-0.3010 MICHAEL </s> -0.3010
-0.3010 MICHELLE </s> -0.3010
-0.3010 MY NAME 0.0000
-0.3010 NAME </s> -0.3010
-0.3010 NO </s> -0.3010
-0.3010 PETER </s> -0.3010
-0.3010 PHILIP </s> -0.3010
-0.3010 RICHARD </s> -0.3010
-0.3010 ROBERT </s> -0.3010
-0.3010 SARAH </s> -0.3010
-0.3010 STEVE </s> -0.3010
-0.3010 TELL MY 0.0000
-0.3010 THOMAS </s> -0.3010
-0.3010 TINA </s> -0.3010
-0.3010 TONY </s> -0.3010
-0.3010 YES </s> -0.3010

\3-grams:
-0.3010 <s> HELLO LUMYAI
-0.3010 <s> I AM
-0.3010 <s> MY NAME
-0.3010 <s> NO </s>
-0.3010 <s> TELL MY
-0.3010 <s> YES </s>
-0.3010 AM BRIAN </s>
-0.3010 AM BRITNEY </s>
-0.3010 AM DANIEL </s>
-0.3010 AM DONNA </s>
-0.3010 AM EMMA </s>
-0.3010 AM HENRY </s>
-0.3010 AM JOSEPH </s>
-0.3010 AM JUSTIN </s>
-0.3010 AM KEVIN </s>
-0.3010 AM MICHAEL </s>
-0.3010 AM MICHELLE </s>
-0.3010 AM PETER </s>
-0.3010 AM PHILIP </s>
-0.3010 AM RICHARD </s>
-0.3010 AM ROBERT </s>
-0.3010 AM SARAH </s>
-0.3010 AM STEVE </s>
-0.3010 AM THOMAS </s>
-0.3010 AM TINA </s>
-0.3010 AM TONY </s>
-0.3010 HELLO LUMYAI </s>
-1.6021 I AM BRIAN
-1.6021 I AM BRITNEY
-1.6021 I AM DANIEL
-1.6021 I AM DONNA
-1.6021 I AM EMMA
-1.6021 I AM HENRY
-1.6021 I AM JOSEPH
-1.6021 I AM JUSTIN
-1.6021 I AM KEVIN
-1.6021 I AM MICHAEL
-1.6021 I AM MICHELLE
-1.6021 I AM PETER
-1.6021 I AM PHILIP
-1.6021 I AM RICHARD
-1.6021 I AM ROBERT
-1.6021 I AM SARAH
-1.6021 I AM STEVE
-1.6021 I AM THOMAS
-1.6021 I AM TINA
-1.6021 I AM TONY
-0.3010 MY NAME </s>
-0.3010 TELL MY NAME

\end\
