Language model created by QuickLM on Fri Dec 23 09:54:24 EST 2011
Copyright (c) 1996-2010 Carnegie Mellon University and Alexander I. Rudnicky

The model is in standard ARPA format, designed by Doug Paul while he was at MITRE.

The code that was used to produce this language model is available in Open Source.
Please visit http://www.speech.cs.cmu.edu/tools/ for more information

The (fixed) discount mass is 0.5. The backoffs are computed using the ratio method.
This model based on a corpus of 28 sentences and 34 words

\data\
ngram 1=34
ngram 2=60
ngram 3=34

\1-grams:
-0.8129 </s> -0.3010
-0.8129 <s> -0.2285
-2.2601 BRIAN -0.2285
-2.2601 BRITNEY -0.2285
-2.2601 DANIEL -0.2285
-2.2601 DONNA -0.2285
-2.2601 EMMA -0.2285
-2.2601 GOODBYE -0.2285
-2.2601 HELLO -0.2285
-2.2601 HENRY -0.2285
-1.9590 IS -0.2962
-2.2601 JOSEPH -0.2285
-2.2601 JUSTIN -0.2285
-2.2601 KEVIN -0.2285
-2.2601 LUMYAI -0.2285
-2.2601 ME -0.2285
-2.2601 MICHAEL -0.2285
-2.2601 MICHELLE -0.2285
-2.2601 MY -0.2962
-1.9590 NAME -0.2285
-2.2601 NO -0.2285
-2.2601 PETER -0.2285
-2.2601 PHILIP -0.2285
-2.2601 REMEMBER -0.2986
-2.2601 RICHARD -0.2285
-2.2601 ROBERT -0.2285
-2.2601 SARAH -0.2285
-2.2601 STEVE -0.2285
-2.2601 THOMAS -0.2285
-2.2601 TINA -0.2285
-2.2601 TONY -0.2285
-1.9590 WHAT -0.2962
-2.2601 YES -0.2285
-2.2601 YOUR -0.2962

\2-grams:
-1.7482 <s> BRIAN 0.0000
-1.7482 <s> BRITNEY 0.0000
-1.7482 <s> DANIEL 0.0000
-1.7482 <s> DONNA 0.0000
-1.7482 <s> EMMA 0.0000
-1.7482 <s> GOODBYE 0.0000
-1.7482 <s> HELLO 0.0000
-1.7482 <s> HENRY 0.0000
-1.7482 <s> JOSEPH 0.0000
-1.7482 <s> JUSTIN 0.0000
-1.7482 <s> KEVIN 0.0000
-1.7482 <s> LUMYAI 0.0000
-1.7482 <s> MICHAEL 0.0000
-1.7482 <s> MICHELLE 0.0000
-1.7482 <s> NO 0.0000
-1.7482 <s> PETER 0.0000
-1.7482 <s> PHILIP 0.0000
-1.7482 <s> REMEMBER 0.0000
-1.7482 <s> RICHARD 0.0000
-1.7482 <s> ROBERT 0.0000
-1.7482 <s> SARAH 0.0000
-1.7482 <s> STEVE 0.0000
-1.7482 <s> THOMAS 0.0000
-1.7482 <s> TINA 0.0000
-1.7482 <s> TONY 0.0000
-1.4472 <s> WHAT 0.0000
-1.7482 <s> YES 0.0000
-0.3010 BRIAN </s> -0.3010
-0.3010 BRITNEY </s> -0.3010
-0.3010 DANIEL </s> -0.3010
-0.3010 DONNA </s> -0.3010
-0.3010 EMMA </s> -0.3010
-0.3010 GOODBYE </s> -0.3010
-0.3010 HELLO </s> -0.3010
-0.3010 HENRY </s> -0.3010
-0.6021 IS MY 0.0000
-0.6021 IS YOUR 0.0000
-0.3010 JOSEPH </s> -0.3010
-0.3010 JUSTIN </s> -0.3010
-0.3010 KEVIN </s> -0.3010
-0.3010 LUMYAI </s> -0.3010
-0.3010 ME </s> -0.3010
-0.3010 MICHAEL </s> -0.3010
-0.3010 MICHELLE </s> -0.3010
-0.3010 MY NAME 0.0000
-0.3010 NAME </s> -0.3010
-0.3010 NO </s> -0.3010
-0.3010 PETER </s> -0.3010
-0.3010 PHILIP </s> -0.3010
-0.3010 REMEMBER ME 0.0000
-0.3010 RICHARD </s> -0.3010
-0.3010 ROBERT </s> -0.3010
-0.3010 SARAH </s> -0.3010
-0.3010 STEVE </s> -0.3010
-0.3010 THOMAS </s> -0.3010
-0.3010 TINA </s> -0.3010
-0.3010 TONY </s> -0.3010
-0.3010 WHAT IS 0.0000
-0.3010 YES </s> -0.3010
-0.3010 YOUR NAME 0.0000

\3-grams:
-0.3010 <s> BRIAN </s>
-0.3010 <s> BRITNEY </s>
-0.3010 <s> DANIEL </s>
-0.3010 <s> DONNA </s>
-0.3010 <s> EMMA </s>
-0.3010 <s> GOODBYE </s>
-0.3010 <s> HELLO </s>
-0.3010 <s> HENRY </s>
-0.3010 <s> JOSEPH </s>
-0.3010 <s> JUSTIN </s>
-0.3010 <s> KEVIN </s>
-0.3010 <s> LUMYAI </s>
-0.3010 <s> MICHAEL </s>
-0.3010 <s> MICHELLE </s>
-0.3010 <s> NO </s>
-0.3010 <s> PETER </s>
-0.3010 <s> PHILIP </s>
-0.3010 <s> REMEMBER ME
-0.3010 <s> RICHARD </s>
-0.3010 <s> ROBERT </s>
-0.3010 <s> SARAH </s>
-0.3010 <s> STEVE </s>
-0.3010 <s> THOMAS </s>
-0.3010 <s> TINA </s>
-0.3010 <s> TONY </s>
-0.3010 <s> WHAT IS
-0.3010 <s> YES </s>
-0.3010 IS MY NAME
-0.3010 IS YOUR NAME
-0.3010 MY NAME </s>
-0.3010 REMEMBER ME </s>
-0.6021 WHAT IS MY
-0.6021 WHAT IS YOUR
-0.3010 YOUR NAME </s>

\end\

