Language model created by QuickLM on Fri Dec 23 19:44:21 EST 2011
Copyright (c) 1996-2010 Carnegie Mellon University and Alexander I. Rudnicky

The model is in standard ARPA format, designed by Doug Paul while he was at MITRE.

The code that was used to produce this language model is available in Open Source.
Please visit http://www.speech.cs.cmu.edu/tools/ for more information

The (fixed) discount mass is 0.5. The backoffs are computed using the ratio method.
This model based on a corpus of 4 sentences and 7 words

\data\
ngram 1=7
ngram 2=9
ngram 3=5

\1-grams:
-0.8129 </s> -0.3010
-0.8129 <s> -0.2285
-1.4150 FOLLOW -0.2840
-1.4150 ME -0.2285
-1.4150 NO -0.2285
-1.4150 STOP -0.2285
-1.4150 YES -0.2285

\2-grams:
-0.9031 <s> FOLLOW 0.0000
-0.9031 <s> NO 0.0000
-0.9031 <s> STOP 0.0000
-0.9031 <s> YES 0.0000
-0.3010 FOLLOW ME 0.0000
-0.3010 ME </s> -0.3010
-0.3010 NO </s> -0.3010
-0.3010 STOP </s> -0.3010
-0.3010 YES </s> -0.3010

\3-grams:
-0.3010 <s> FOLLOW ME
-0.3010 <s> NO </s>
-0.3010 <s> STOP </s>
-0.3010 <s> YES </s>
-0.3010 FOLLOW ME </s>

\end\
