Language model created by QuickLM on Fri Dec 23 11:45:23 EST 2011
Copyright (c) 1996-2010 Carnegie Mellon University and Alexander I. Rudnicky

The model is in standard ARPA format, designed by Doug Paul while he was at MITRE.

The code that was used to produce this language model is available in Open Source.
Please visit http://www.speech.cs.cmu.edu/tools/ for more information

The (fixed) discount mass is 0.5. The backoffs are computed using the ratio method.
This model based on a corpus of 11 sentences and 24 words

\data\
ngram 1=24
ngram 2=36
ngram 3=31

\1-grams:
-2.0334 </launch> -0.2544
-1.7324 </node> -0.2544
-0.9920 </s> -0.3010
-1.7324 <NODE -0.2929
-1.3345 <PARAM -0.2804
-2.0334 <launch> -0.2544
-0.9920 <s> -0.2544
-2.0334 NAME="DICT" -0.2929
-2.0334 NAME="LM" -0.2929
-2.0334 NAME="RECOGNIZER" -0.2929
-2.0334 NAME="THA" -0.2888
-2.0334 NAME="VOICE_MOVE_BASE" -0.2929
-2.0334 NAME="XA" -0.2888
-2.0334 NAME="YA" -0.2888
-1.7324 PKG="POCKETSPHINX" -0.2929
-2.0334 POCKETSPHINX)/DEMO/VOICE_GOAL.DIC"/> -0.2544
-2.0334 POCKETSPHINX)/DEMO/VOICE_GOAL.LM"/> -0.2544
-1.5563 TYPE="DOUBLE" -0.2888
-2.0334 TYPE="RECOGNIZER_MOVE.PY"> -0.2544
-2.0334 TYPE="VOICE_MOVE_BASE.PY"> -0.2544
-1.7324 VALUE="$(FIND -0.2929
-2.0334 VALUE="1.57"/> -0.2544
-2.0334 VALUE="34.5"/> -0.2544
-2.0334 VALUE="55.0"/> -0.2544

\2-grams:
-0.3010 </launch> </s> -0.3010
-0.3010 </node> </s> -0.3010
-0.6021 <NODE NAME="RECOGNIZER" 0.0000
-0.6021 <NODE NAME="VOICE_MOVE_BASE" 0.0000
-1.0000 <PARAM NAME="DICT" 0.0000
-1.0000 <PARAM NAME="LM" 0.0000
-1.0000 <PARAM NAME="THA" 0.0000
-1.0000 <PARAM NAME="XA" 0.0000
-1.0000 <PARAM NAME="YA" 0.0000
-0.3010 <launch> </s> -0.3010
-1.3424 <s> </launch> 0.0000
-1.0414 <s> </node> 0.0000
-1.0414 <s> <NODE 0.0000
-0.6435 <s> <PARAM 0.0000
-1.3424 <s> <launch> 0.0000
-0.3010 NAME="DICT" VALUE="$(FIND -0.1761
-0.3010 NAME="LM" VALUE="$(FIND -0.1761
-0.3010 NAME="RECOGNIZER" PKG="POCKETSPHINX" -0.1761
-0.3010 NAME="THA" TYPE="DOUBLE" -0.2218
-0.3010 NAME="VOICE_MOVE_BASE" PKG="POCKETSPHINX" -0.1761
-0.3010 NAME="XA" TYPE="DOUBLE" -0.2218
-0.3010 NAME="YA" TYPE="DOUBLE" -0.2218
-0.6021 PKG="POCKETSPHINX" TYPE="RECOGNIZER_MOVE.PY"> 0.0000
-0.6021 PKG="POCKETSPHINX" TYPE="VOICE_MOVE_BASE.PY"> 0.0000
-0.3010 POCKETSPHINX)/DEMO/VOICE_GOAL.DIC"/> </s> -0.3010
-0.3010 POCKETSPHINX)/DEMO/VOICE_GOAL.LM"/> </s> -0.3010
-0.7782 TYPE="DOUBLE" VALUE="1.57"/> 0.0000
-0.7782 TYPE="DOUBLE" VALUE="34.5"/> 0.0000
-0.7782 TYPE="DOUBLE" VALUE="55.0"/> 0.0000
-0.3010 TYPE="RECOGNIZER_MOVE.PY"> </s> -0.3010
-0.3010 TYPE="VOICE_MOVE_BASE.PY"> </s> -0.3010
-0.6021 VALUE="$(FIND POCKETSPHINX)/DEMO/VOICE_GOAL.DIC"/> 0.0000
-0.6021 VALUE="$(FIND POCKETSPHINX)/DEMO/VOICE_GOAL.LM"/> 0.0000
-0.3010 VALUE="1.57"/> </s> -0.3010
-0.3010 VALUE="34.5"/> </s> -0.3010
-0.3010 VALUE="55.0"/> </s> -0.3010

\3-grams:
-0.3010 <NODE NAME="RECOGNIZER" PKG="POCKETSPHINX"
-0.3010 <NODE NAME="VOICE_MOVE_BASE" PKG="POCKETSPHINX"
-0.3010 <PARAM NAME="DICT" VALUE="$(FIND
-0.3010 <PARAM NAME="LM" VALUE="$(FIND
-0.3010 <PARAM NAME="THA" TYPE="DOUBLE"
-0.3010 <PARAM NAME="XA" TYPE="DOUBLE"
-0.3010 <PARAM NAME="YA" TYPE="DOUBLE"
-0.3010 <s> </launch> </s>
-0.3010 <s> </node> </s>
-0.6021 <s> <NODE NAME="RECOGNIZER"
-0.6021 <s> <NODE NAME="VOICE_MOVE_BASE"
-1.0000 <s> <PARAM NAME="DICT"
-1.0000 <s> <PARAM NAME="LM"
-1.0000 <s> <PARAM NAME="THA"
-1.0000 <s> <PARAM NAME="XA"
-1.0000 <s> <PARAM NAME="YA"
-0.3010 <s> <launch> </s>
-0.3010 NAME="DICT" VALUE="$(FIND POCKETSPHINX)/DEMO/VOICE_GOAL.DIC"/>
-0.3010 NAME="LM" VALUE="$(FIND POCKETSPHINX)/DEMO/VOICE_GOAL.LM"/>
-0.3010 NAME="RECOGNIZER" PKG="POCKETSPHINX" TYPE="RECOGNIZER_MOVE.PY">
-0.3010 NAME="THA" TYPE="DOUBLE" VALUE="1.57"/>
-0.3010 NAME="VOICE_MOVE_BASE" PKG="POCKETSPHINX" TYPE="VOICE_MOVE_BASE.PY">
-0.3010 NAME="XA" TYPE="DOUBLE" VALUE="34.5"/>
-0.3010 NAME="YA" TYPE="DOUBLE" VALUE="55.0"/>
-0.3010 PKG="POCKETSPHINX" TYPE="RECOGNIZER_MOVE.PY"> </s>
-0.3010 PKG="POCKETSPHINX" TYPE="VOICE_MOVE_BASE.PY"> </s>
-0.3010 TYPE="DOUBLE" VALUE="1.57"/> </s>
-0.3010 TYPE="DOUBLE" VALUE="34.5"/> </s>
-0.3010 TYPE="DOUBLE" VALUE="55.0"/> </s>
-0.3010 VALUE="$(FIND POCKETSPHINX)/DEMO/VOICE_GOAL.DIC"/> </s>
-0.3010 VALUE="$(FIND POCKETSPHINX)/DEMO/VOICE_GOAL.LM"/> </s>

\end\
