Language model created by QuickLM on Wed Dec 21 14:45:55 EST 2011
Copyright (c) 1996-2010 Carnegie Mellon University and Alexander I. Rudnicky

The model is in standard ARPA format, designed by Doug Paul while he was at MITRE.

The code that was used to produce this language model is available in Open Source.
Please visit http://www.speech.cs.cmu.edu/tools/ for more information

The (fixed) discount mass is 0.5. The backoffs are computed using the ratio method.
This model based on a corpus of 7 sentences and 10 words

\data\
ngram 1=10
ngram 2=15
ngram 3=10

\1-grams:
-0.8361 </s> -0.3010
-0.8361 <s> -0.2326
-1.6812 A -0.2326
-1.6812 B -0.2326
-1.6812 C -0.2326
-1.6812 LAMYAI -0.2326
-1.6812 NAVIGATION -0.2326
-1.6812 NO -0.2326
-1.2041 POINT -0.2730
-1.6812 YES -0.2326

\2-grams:
-1.1461 <s> LAMYAI 0.0000
-1.1461 <s> NAVIGATION 0.0000
-1.1461 <s> NO 0.0000
-0.6690 <s> POINT 0.0000
-1.1461 <s> YES 0.0000
-0.3010 A </s> -0.3010
-0.3010 B </s> -0.3010
-0.3010 C </s> -0.3010
-0.3010 LAMYAI </s> -0.3010
-0.3010 NAVIGATION </s> -0.3010
-0.3010 NO </s> -0.3010
-0.7782 POINT A 0.0000
-0.7782 POINT B 0.0000
-0.7782 POINT C 0.0000
-0.3010 YES </s> -0.3010

\3-grams:
-0.3010 <s> LAMYAI </s>
-0.3010 <s> NAVIGATION </s>
-0.3010 <s> NO </s>
-0.7782 <s> POINT A
-0.7782 <s> POINT B
-0.7782 <s> POINT C
-0.3010 <s> YES </s>
-0.3010 POINT A </s>
-0.3010 POINT B </s>
-0.3010 POINT C </s>

\end\
