Language model created by QuickLM on Sat May  2 17:12:08 EDT 2015
Copyright (c) 1996-2010 Carnegie Mellon University and Alexander I. Rudnicky

The model is in standard ARPA format, designed by Doug Paul while he was at MITRE.

The code that was used to produce this language model is available in Open Source.
Please visit http://www.speech.cs.cmu.edu/tools/ for more information

The (fixed) discount mass is 0.5. The backoffs are computed using the ratio method.
This model based on a corpus of 13 sentences and 14 words

\data\
ngram 1=14
ngram 2=25
ngram 3=14

\1-grams:
-0.7891 </s> -0.3010
-0.7891 <s> -0.2175
-1.9031 FOLLOW -0.2240
-1.6021 GET -0.2109
-1.9031 HALT -0.2240
-1.9031 HALTING -0.2240
-1.9031 LEAVE -0.2240
-1.9031 ME -0.2240
-1.9031 NO -0.2240
-1.6021 OUT -0.2240
-1.9031 ROBOT -0.2240
-1.9031 STOP -0.2240
-1.9031 THE -0.2240
-1.9031 YES -0.2240

\2-grams:
-1.4150 <s> FOLLOW 0.0000
-1.1139 <s> GET 0.0000
-1.4150 <s> HALT 0.0000
-1.4150 <s> HALTING 0.0000
-1.4150 <s> LEAVE 0.0000
-1.4150 <s> ME 0.0000
-1.4150 <s> NO 0.0000
-1.4150 <s> OUT 0.0000
-1.4150 <s> ROBOT 0.0000
-1.4150 <s> STOP 0.0000
-1.4150 <s> THE 0.0000
-1.4150 <s> YES 0.0000
-0.3010 FOLLOW </s> -0.3010
-0.6021 GET </s> -0.3010
-0.6021 GET OUT 0.0000
-0.3010 HALT </s> -0.3010
-0.3010 HALTING </s> -0.3010
-0.3010 LEAVE </s> -0.3010
-0.3010 ME </s> -0.3010
-0.3010 NO </s> -0.3010
-0.3010 OUT </s> -0.3010
-0.3010 ROBOT </s> -0.3010
-0.3010 STOP </s> -0.3010
-0.3010 THE </s> -0.3010
-0.3010 YES </s> -0.3010

\3-grams:
-0.3010 <s> FOLLOW </s>
-0.6021 <s> GET </s>
-0.6021 <s> GET OUT
-0.3010 <s> HALT </s>
-0.3010 <s> HALTING </s>
-0.3010 <s> LEAVE </s>
-0.3010 <s> ME </s>
-0.3010 <s> NO </s>
-0.3010 <s> OUT </s>
-0.3010 <s> ROBOT </s>
-0.3010 <s> STOP </s>
-0.3010 <s> THE </s>
-0.3010 <s> YES </s>
-0.3010 GET OUT </s>

\end\
