Language model created by QuickLM on Mon Mar 14 06:42:52 EDT 2016
Copyright (c) 1996-2010 Carnegie Mellon University and Alexander I. Rudnicky

The model is in standard ARPA format, designed by Doug Paul while he was at MITRE.

The code that was used to produce this language model is available in Open Source.
Please visit http://www.speech.cs.cmu.edu/tools/ for more information

The (fixed) discount mass is 0.5. The backoffs are computed using the ratio method.
This model based on a corpus of 6 sentences and 9 words

\data\
ngram 1=9
ngram 2=13
ngram 3=7

\1-grams:
-0.8016 </s> -0.3010
-0.8016 <s> -0.2264
-1.5798 FRIES -0.2264
-1.5798 HAMBURGER -0.2264
-1.5798 JUICE -0.2264
-1.5798 NOODLES -0.2264
-1.5798 ORANGE -0.2894
-1.5798 PEANUTS -0.2264
-1.5798 WATER -0.2264

\2-grams:
-1.0792 <s> FRIES 0.0000
-1.0792 <s> HAMBURGER 0.0000
-1.0792 <s> NOODLES 0.0000
-1.0792 <s> ORANGE 0.0000
-1.0792 <s> PEANUTS 0.0000
-1.0792 <s> WATER 0.0000
-0.3010 FRIES </s> -0.3010
-0.3010 HAMBURGER </s> -0.3010
-0.3010 JUICE </s> -0.3010
-0.3010 NOODLES </s> -0.3010
-0.3010 ORANGE JUICE 0.0000
-0.3010 PEANUTS </s> -0.3010
-0.3010 WATER </s> -0.3010

\3-grams:
-0.3010 <s> FRIES </s>
-0.3010 <s> HAMBURGER </s>
-0.3010 <s> NOODLES </s>
-0.3010 <s> ORANGE JUICE
-0.3010 <s> PEANUTS </s>
-0.3010 <s> WATER </s>
-0.3010 ORANGE JUICE </s>

\end\
