Language model created by QuickLM on Thu Mar 17 14:26:59 EDT 2016
Copyright (c) 1996-2010 Carnegie Mellon University and Alexander I. Rudnicky

The model is in standard ARPA format, designed by Doug Paul while he was at MITRE.

The code that was used to produce this language model is available in Open Source.
Please visit http://www.speech.cs.cmu.edu/tools/ for more information

The (fixed) discount mass is 0.5. The backoffs are computed using the ratio method.
This model based on a corpus of 44 sentences and 41 words

\data\
ngram 1=41
ngram 2=75
ngram 3=90

\1-grams:
-1.0937 </s> -0.3010
-1.0937 <s> -0.2602
-1.8341 AND -0.2881
-2.7372 APARTMENT -0.2645
-2.2601 BAR -0.2558
-2.7372 FOLLOW -0.3002
-2.1351 FRIES -0.2645
-2.4362 GET -0.2994
-2.0382 GO -0.2970
-2.7372 HALTING -0.2645
-2.1351 HAMBURGER -0.2645
-1.4362 I -0.2848
-1.7372 IS -0.2930
-2.4362 JUICE -0.2645
-1.9590 KITCHEN -0.2531
-2.7372 LEAVE -0.3002
-2.0382 LEFT -0.2645
-2.7372 ME -0.2645
-1.7372 MY -0.2930
-2.7372 NO -0.2645
-2.1351 NOODLES -0.2645
-1.7372 ON -0.2930
-2.2601 ONE -0.2558
-2.4362 ORANGE -0.2994
-2.7372 ORDER -0.2645
-2.7372 OUT -0.2645
-2.1351 PEANUTS -0.2645
-2.0382 RIGHT -0.2645
-1.8921 ROBOT -0.2954
-2.7372 STOP -0.2645
-1.7830 TABLE -0.2938
-1.7372 TAKE -0.2848
-2.2601 THREE -0.2558
-2.0382 TO -0.2889
-2.2601 TWO -0.2558
-2.7372 WAITING -0.2645
-1.7372 WANT -0.2848
-2.4362 WATER -0.2645
-1.7372 WILL -0.2930
-1.8341 WITH -0.2881
-2.7372 YES -0.2645

\2-grams:
-1.9445 <s> FOLLOW 0.0000
-1.2455 <s> GO 0.0000
-0.6435 <s> I 0.0000
-1.3424 <s> KITCHEN -0.0669
-1.9445 <s> LEAVE 0.0000
-1.0994 <s> ROBOT -0.0000
-1.1663 <s> TABLE 0.0000
-0.9031 AND FRIES 0.0000
-0.9031 AND HAMBURGER 0.0000
-0.9031 AND NOODLES 0.0000
-0.9031 AND PEANUTS 0.0000
-0.3010 APARTMENT </s> -0.3010
-0.7782 BAR </s> -0.3010
-0.4771 BAR IS 0.0000
-0.3010 FOLLOW ME 0.0000
-0.3010 FRIES </s> -0.3010
-0.6021 GET ORDER 0.0000
-0.6021 GET OUT 0.0000
-0.3010 GO TO 0.0000
-0.3010 HALTING </s> -0.3010
-0.3010 HAMBURGER </s> -0.3010
-0.6021 I WANT 0.0000
-0.6021 I WILL 0.0000
-0.3010 IS ON 0.0000
-0.3010 JUICE </s> -0.3010
-1.0792 KITCHEN </s> -0.3010
-0.6021 KITCHEN BAR 0.0000
-0.7782 KITCHEN IS 0.0000
-0.3010 LEAVE APARTMENT 0.0000
-0.3010 LEFT </s> -0.3010
-0.3010 ME </s> -0.3010
-0.6021 MY LEFT 0.0000
-0.6021 MY RIGHT 0.0000
-0.3010 NO </s> -0.3010
-0.3010 NOODLES </s> -0.3010
-0.3010 ON MY 0.0000
-0.7782 ONE </s> -0.3010
-0.4771 ONE IS 0.0000
-0.3010 ORANGE JUICE 0.0000
-0.3010 ORDER </s> -0.3010
-0.3010 OUT </s> -0.3010
-0.3010 PEANUTS </s> -0.3010
-0.3010 RIGHT </s> -0.3010
-0.8451 ROBOT GET 0.0000
-1.1461 ROBOT HALTING 0.0000
-1.1461 ROBOT NO 0.0000
-1.1461 ROBOT STOP 0.0000
-1.1461 ROBOT WAITING 0.0000
-1.1461 ROBOT YES 0.0000
-0.3010 STOP </s> -0.3010
-0.7782 TABLE ONE 0.0000
-0.7782 TABLE THREE 0.0000
-0.7782 TABLE TWO 0.0000
-0.6990 TAKE AND 0.0000
-1.3010 TAKE ORANGE 0.0000
-1.3010 TAKE WATER 0.0000
-0.6990 TAKE WITH 0.0000
-0.7782 THREE </s> -0.3010
-0.4771 THREE IS 0.0000
-0.6990 TO KITCHEN -0.1249
-0.5229 TO TABLE 0.0000
-0.7782 TWO </s> -0.3010
-0.4771 TWO IS 0.0000
-0.3010 WAITING </s> -0.3010
-0.6990 WANT AND 0.0000
-1.3010 WANT ORANGE 0.0000
-1.3010 WANT WATER 0.0000
-0.6990 WANT WITH 0.0000
-0.3010 WATER </s> -0.3010
-0.3010 WILL TAKE 0.0000
-0.9031 WITH FRIES 0.0000
-0.9031 WITH HAMBURGER 0.0000
-0.9031 WITH NOODLES 0.0000
-0.9031 WITH PEANUTS 0.0000
-0.3010 YES </s> -0.3010

\3-grams:
-0.3010 <s> FOLLOW ME
-0.3010 <s> GO TO
-0.6021 <s> I WANT
-0.6021 <s> I WILL
-0.6021 <s> KITCHEN BAR
-0.6021 <s> KITCHEN IS
-0.3010 <s> LEAVE APARTMENT
-0.8451 <s> ROBOT GET
-1.1461 <s> ROBOT HALTING
-1.1461 <s> ROBOT NO
-1.1461 <s> ROBOT STOP
-1.1461 <s> ROBOT WAITING
-1.1461 <s> ROBOT YES
-0.7782 <s> TABLE ONE
-0.7782 <s> TABLE THREE
-0.7782 <s> TABLE TWO
-0.3010 AND FRIES </s>
-0.3010 AND HAMBURGER </s>
-0.3010 AND NOODLES </s>
-0.3010 AND PEANUTS </s>
-0.3010 BAR IS ON
-0.3010 FOLLOW ME </s>
-0.3010 GET ORDER </s>
-0.3010 GET OUT </s>
-0.6990 GO TO KITCHEN
-0.5229 GO TO TABLE
-0.6990 I WANT AND
-1.3010 I WANT ORANGE
-1.3010 I WANT WATER
-0.6990 I WANT WITH
-0.3010 I WILL TAKE
-0.3010 IS ON MY
-0.7782 KITCHEN BAR </s>
-0.4771 KITCHEN BAR IS
-0.3010 KITCHEN IS ON
-0.3010 LEAVE APARTMENT </s>
-0.3010 MY LEFT </s>
-0.3010 MY RIGHT </s>
-0.6021 ON MY LEFT
-0.6021 ON MY RIGHT
-0.3010 ONE IS ON
-0.3010 ORANGE JUICE </s>
-0.6021 ROBOT GET ORDER
-0.6021 ROBOT GET OUT
-0.3010 ROBOT HALTING </s>
-0.3010 ROBOT NO </s>
-0.3010 ROBOT STOP </s>
-0.3010 ROBOT WAITING </s>
-0.3010 ROBOT YES </s>
-0.7782 TABLE ONE </s>
-0.4771 TABLE ONE IS
-0.7782 TABLE THREE </s>
-0.4771 TABLE THREE IS
-0.7782 TABLE TWO </s>
-0.4771 TABLE TWO IS
-0.9031 TAKE AND FRIES
-0.9031 TAKE AND HAMBURGER
-0.9031 TAKE AND NOODLES
-0.9031 TAKE AND PEANUTS
-0.3010 TAKE ORANGE JUICE
-0.3010 TAKE WATER </s>
-0.9031 TAKE WITH FRIES
-0.9031 TAKE WITH HAMBURGER
-0.9031 TAKE WITH NOODLES
-0.9031 TAKE WITH PEANUTS
-0.3010 THREE IS ON
-0.6021 TO KITCHEN </s>
-0.6021 TO KITCHEN BAR
-0.7782 TO TABLE ONE
-0.7782 TO TABLE THREE
-0.7782 TO TABLE TWO
-0.3010 TWO IS ON
-0.9031 WANT AND FRIES
-0.9031 WANT AND HAMBURGER
-0.9031 WANT AND NOODLES
-0.9031 WANT AND PEANUTS
-0.3010 WANT ORANGE JUICE
-0.3010 WANT WATER </s>
-0.9031 WANT WITH FRIES
-0.9031 WANT WITH HAMBURGER
-0.9031 WANT WITH NOODLES
-0.9031 WANT WITH PEANUTS
-0.6990 WILL TAKE AND
-1.3010 WILL TAKE ORANGE
-1.3010 WILL TAKE WATER
-0.6990 WILL TAKE WITH
-0.3010 WITH FRIES </s>
-0.3010 WITH HAMBURGER </s>
-0.3010 WITH NOODLES </s>
-0.3010 WITH PEANUTS </s>

\end\
