Language model created by QuickLM on Thu Dec  8 00:37:37 EST 2011
Copyright (c) 1996-2010 Carnegie Mellon University and Alexander I. Rudnicky

The model is in standard ARPA format, designed by Doug Paul while he was at MITRE.

The code that was used to produce this language model is available in Open Source.
Please visit http://www.speech.cs.cmu.edu/tools/ for more information

The (fixed) discount mass is 0.5. The backoffs are computed using the ratio method.
This model based on a corpus of 12 sentences and 15 words

\data\
ngram 1=15
ngram 2=25
ngram 3=13

\1-grams:
-0.7901 </s> -0.3010
-0.7901 <s> -0.2242
-1.8692 BANK -0.2242
-1.8692 LUMYAI -0.2242
-1.8692 MAX -0.2242
-1.8692 ME -0.2242
-1.8692 NO -0.2242
-1.8692 OHM -0.2242
-1.8692 PEE -0.2242
-1.8692 POND -0.2242
-1.8692 REMEMBER -0.2951
-1.8692 TEST -0.2242
-1.8692 TONY -0.2242
-1.8692 TRAIN -0.2242
-1.8692 YES -0.2242

\2-grams:
-1.3802 <s> BANK 0.0000
-1.3802 <s> LUMYAI 0.0000
-1.3802 <s> MAX 0.0000
-1.3802 <s> NO 0.0000
-1.3802 <s> OHM 0.0000
-1.3802 <s> PEE 0.0000
-1.3802 <s> POND 0.0000
-1.3802 <s> REMEMBER 0.0000
-1.3802 <s> TEST 0.0000
-1.3802 <s> TONY 0.0000
-1.3802 <s> TRAIN 0.0000
-1.3802 <s> YES 0.0000
-0.3010 BANK </s> -0.3010
-0.3010 LUMYAI </s> -0.3010
-0.3010 MAX </s> -0.3010
-0.3010 ME </s> -0.3010
-0.3010 NO </s> -0.3010
-0.3010 OHM </s> -0.3010
-0.3010 PEE </s> -0.3010
-0.3010 POND </s> -0.3010
-0.3010 REMEMBER ME 0.0000
-0.3010 TEST </s> -0.3010
-0.3010 TONY </s> -0.3010
-0.3010 TRAIN </s> -0.3010
-0.3010 YES </s> -0.3010

\3-grams:
-0.3010 <s> BANK </s>
-0.3010 <s> LUMYAI </s>
-0.3010 <s> MAX </s>
-0.3010 <s> NO </s>
-0.3010 <s> OHM </s>
-0.3010 <s> PEE </s>
-0.3010 <s> POND </s>
-0.3010 <s> REMEMBER ME
-0.3010 <s> TEST </s>
-0.3010 <s> TONY </s>
-0.3010 <s> TRAIN </s>
-0.3010 <s> YES </s>
-0.3010 REMEMBER ME </s>

\end\

