Language model created by QuickLM on Fri Dec 23 17:25:17 EST 2011
Copyright (c) 1996-2010 Carnegie Mellon University and Alexander I. Rudnicky

The model is in standard ARPA format, designed by Doug Paul while he was at MITRE.

The code that was used to produce this language model is available in Open Source.
Please visit http://www.speech.cs.cmu.edu/tools/ for more information

The (fixed) discount mass is 0.5. The backoffs are computed using the ratio method.
This model based on a corpus of 6 sentences and 10 words

\data\
ngram 1=10
ngram 2=14
ngram 3=10

\1-grams:
-0.8846 </s> -0.3010
-0.8846 <s> -0.2403
-1.3617 GO -0.2817
-1.6628 LAMYAI -0.2403
-1.6628 LUMYAI -0.2403
-1.6628 NO -0.2403
-1.3617 TARGET -0.2403
-1.6628 THE -0.2817
-1.3617 TO -0.2717
-1.6628 YES -0.2403

\2-grams:
-0.7782 <s> GO 0.0000
-1.0792 <s> LAMYAI 0.0000
-1.0792 <s> LUMYAI 0.0000
-1.0792 <s> NO 0.0000
-1.0792 <s> YES 0.0000
-0.3010 GO TO 0.0000
-0.3010 LAMYAI </s> -0.3010
-0.3010 LUMYAI </s> -0.3010
-0.3010 NO </s> -0.3010
-0.3010 TARGET </s> -0.3010
-0.3010 THE TARGET 0.0000
-0.6021 TO TARGET 0.0000
-0.6021 TO THE 0.0000
-0.3010 YES </s> -0.3010

\3-grams:
-0.3010 <s> GO TO
-0.3010 <s> LAMYAI </s>
-0.3010 <s> LUMYAI </s>
-0.3010 <s> NO </s>
-0.3010 <s> YES </s>
-0.6021 GO TO TARGET
-0.6021 GO TO THE
-0.3010 THE TARGET </s>
-0.3010 TO TARGET </s>
-0.3010 TO THE TARGET

\end\
