Language model created by QuickLM on Wed Jul  1 05:11:56 EDT 2015
Copyright (c) 1996-2010 Carnegie Mellon University and Alexander I. Rudnicky

The model is in standard ARPA format, designed by Doug Paul while he was at MITRE.

The code that was used to produce this language model is available in Open Source.
Please visit http://www.speech.cs.cmu.edu/tools/ for more information

The (fixed) discount mass is 0.5. The backoffs are computed using the ratio method.
This model based on a corpus of 52 sentences and 119 words

\data\
ngram 1=119
ngram 2=223
ngram 3=239

\1-grams:
-2.9053 2 -0.3005
-1.1893 </s> -0.3010
-1.1893 <s> -0.2495
-2.9053 ABOUT -0.2934
-2.6042 AFTER -0.2923
-2.6042 AMERICA -0.2720
-2.9053 AMERICAN -0.2999
-2.9053 ANIMAL -0.2983
-2.9053 ANY -0.3005
-2.3032 ARE -0.2929
-2.9053 BARRIER -0.3005
-2.6042 BEEN -0.2714
-2.9053 BIGGER -0.3005
-2.9053 BIRD -0.2967
-2.9053 CHINA -0.3005
-2.9053 COW -0.2967
-2.9053 CUP -0.2720
-2.9053 DATE -0.2720
-2.0602 DAY -0.2537
-2.9053 DEAD -0.2720
-2.9053 DID -0.2999
-2.0602 DO -0.2917
-2.4281 DOES -0.2901
-2.9053 DOING -0.2720
-2.9053 EARTH -0.2720
-2.9053 EIFFEL -0.3005
-2.9053 EVER -0.3005
-2.9053 FAVORITE -0.3005
-2.4281 FOR -0.2691
-2.9053 FUJI -0.3005
-2.3032 GO -0.2978
-2.9053 GOING -0.2720
-2.9053 GONE -0.2978
-2.6042 GREAT -0.2999
-2.0022 HAVE -0.2632
-2.6042 HE -0.2983
-2.9053 HEAVIEST -0.3005
-2.6042 HEIGHT -0.2862
-2.9053 HERE -0.2720
-2.9053 HOSPITAL -0.2720
-2.4281 HOURS -0.2691
-2.9053 HOUSE -0.2720
-1.7292 HOW -0.2901
-2.6042 HUMAN -0.2961
-2.9053 IDEA -0.2720
-2.2063 IN -0.2873
-1.4739 IS -0.2800
-2.9053 JAY -0.3005
-2.9053 JENNIFER -0.3005
-2.9053 KASETSART -0.3005
-2.9053 KIND -0.2978
-2.9053 LAB -0.2720
-2.9053 LAWRENCE -0.2720
-2.4281 LEGS -0.2994
-2.6042 LIKE -0.2720
-2.9053 LOCATION -0.2978
-2.4281 LONG -0.2817
-2.9053 LONGEST -0.3005
-2.9053 LOOKING -0.2994
-2.0602 MANY -0.2956
-2.9053 MINISTER -0.2720
-2.9053 MINUTES -0.2983
-2.9053 MOCKING -0.3005
-2.9053 MOUNTAIN -0.2720
-2.9053 MUSIC -0.2972
-2.9053 MY -0.3005
-2.3032 NAME -0.2685
-2.9053 NEAREST -0.2999
-2.9053 NEED -0.2978
-2.1271 OF -0.2845
-2.9053 OLD -0.2862
-2.9053 ON -0.3005
-2.3032 ONE -0.2766
-2.9053 OR -0.2999
-2.9053 PEN -0.2720
-2.9053 PLATFORM -0.2720
-2.9053 POPULATION -0.3005
-2.9053 PREMIERE -0.3005
-2.6042 PRESIDENT -0.2685
-2.9053 PRIME -0.3005
-2.9053 REEF -0.2720
-2.9053 RIVER -0.2983
-2.9053 ROOM -0.2720
-2.9053 SCHOOL -0.2999
-2.9053 SIDES -0.2989
-2.9053 SIT -0.2994
-2.9053 SKUBA -0.3005
-2.9053 SPORT -0.2720
-2.9053 SQUARE -0.2720
-2.6042 THAILAND -0.2714
-1.6042 THE -0.2845
-2.9053 THERE -0.2983
-2.1271 TO -0.2840
-2.9053 TODAY -0.2720
-2.9053 TODAY'S -0.2994
-2.6042 TOMORROW -0.2720
-2.9053 TOMORROW'S -0.2994
-2.9053 TOWER -0.2720
-2.9053 TWO -0.2994
-2.9053 UNIVERSITY -0.2720
-2.9053 VALENTINE'S -0.2972
-2.9053 WALL -0.2720
-2.9053 WANT -0.2994
-2.6042 WAS -0.2994
-2.4281 WE -0.2906
-2.4281 WEATHER -0.2720
-1.6042 WHAT -0.2737
-2.6042 WHEN -0.2862
-2.1271 WHERE -0.2794
-2.6042 WHICH -0.2989
-2.9053 WHITE -0.3005
-2.9053 WHO -0.2862
-2.9053 WHY -0.2972
-2.9053 WIFE -0.2720
-2.4281 WORLD -0.2714
-2.6042 YESTERDAY -0.2720
-2.9053 YESTERDAY'S -0.2994
-1.7591 YOU -0.2591
-2.3032 YOUR -0.2972

\2-grams:
-0.3010 2 PREMIERE 0.0000
-2.0170 <s> DID 0.0000
-2.0170 <s> DO -0.1549
-1.7160 <s> HAVE -0.1761
-0.8409 <s> HOW 0.0000
-2.0170 <s> IS -0.2929
-0.7160 <s> WHAT 0.0000
-1.7160 <s> WHEN 0.0000
-1.2389 <s> WHERE 0.0000
-1.7160 <s> WHICH 0.0000
-2.0170 <s> WHO 0.0000
-2.0170 <s> WHY 0.0000
-0.3010 ABOUT YOU -0.2688
-0.6021 AFTER TOMORROW 0.0000
-0.6021 AFTER YOU -0.2688
-0.3010 AMERICA </s> -0.3010
-0.3010 AMERICAN PRESIDENT -0.1761
-0.3010 ANIMAL IN -0.2041
-0.3010 ANY IDEA 0.0000
-0.9031 ARE THERE 0.0000
-0.4260 ARE YOU -0.2518
-0.3010 BARRIER REEF 0.0000
-0.6021 BEEN </s> -0.3010
-0.6021 BEEN HERE 0.0000
-0.3010 BIGGER CHINA 0.0000
-0.3010 BIRD HAVE -0.2109
-0.3010 CHINA OR 0.0000
-0.3010 COW HAVE -0.2109
-0.3010 CUP </s> -0.3010
-0.3010 DATE </s> -0.3010
-0.8451 DAY </s> -0.3010
-1.1461 DAY AFTER -0.1761
-0.6690 DAY IS -0.1597
-1.1461 DAY WAS -0.1761
-0.3010 DEAD </s> -0.3010
-0.3010 DID HE -0.1761
-0.6690 DO WE 0.0000
-0.5441 DO YOU -0.2341
-0.3010 DOES THE -0.2672
-0.3010 DOING </s> -0.3010
-0.3010 EARTH </s> -0.3010
-0.3010 EIFFEL TOWER 0.0000
-0.3010 EVER GONE 0.0000
-0.3010 FAVORITE SPORT 0.0000
-0.7782 FOR </s> -0.3010
-0.7782 FOR TWO 0.0000
-0.7782 FOR YOUR -0.2430
-0.3010 FUJI MOUNTAIN 0.0000
-0.3010 GO TO -0.1249
-0.3010 GOING </s> -0.3010
-0.3010 GONE TO -0.2632
-0.6021 GREAT BARRIER 0.0000
-0.6021 GREAT WALL 0.0000
-0.7270 HAVE </s> -0.3010
-1.2041 HAVE ANY 0.0000
-0.6021 HAVE YOU -0.2341
-0.6021 HE DEAD 0.0000
-0.6021 HE GO 0.0000
-0.3010 HEAVIEST ANIMAL 0.0000
-0.3010 HEIGHT IS -0.1707
-0.3010 HERE </s> -0.3010
-0.3010 HOSPITAL </s> -0.3010
-0.4771 HOURS </s> -0.3010
-0.7782 HOURS IN -0.2041
-0.3010 HOUSE </s> -0.3010
-1.1761 HOW DO -0.1963
-1.1761 HOW HEIGHT 0.0000
-1.0000 HOW LONG 0.0000
-0.6320 HOW MANY 0.0000
-1.4771 HOW OLD 0.0000
-0.6021 HUMAN HAVE -0.2109
-0.6021 HUMAN POPULATION 0.0000
-0.3010 IDEA </s> -0.3010
-0.6990 IN ONE -0.1761
-1.0000 IN SQUARE 0.0000
-0.6990 IN THE -0.2788
-1.7324 IS BIGGER 0.0000
-1.7324 IS FUJI 0.0000
-1.7324 IS HE -0.1761
-1.7324 IS JENNIFER 0.0000
-1.7324 IS KASETSART 0.0000
-1.7324 IS MOCKING 0.0000
-1.7324 IS MY 0.0000
-0.6185 IS THE -0.1303
-1.7324 IS TODAY 0.0000
-1.7324 IS TODAY'S 0.0000
-1.7324 IS TOMORROW 0.0000
-1.7324 IS TOMORROW'S 0.0000
-1.7324 IS VALENTINE'S 0.0000
-1.4314 IS YOUR -0.1761
-0.3010 JAY 2 0.0000
-0.3010 JENNIFER LAWRENCE 0.0000
-0.3010 KASETSART UNIVERSITY 0.0000
-0.3010 KIND OF -0.2632
-0.3010 LAB </s> -0.3010
-0.3010 LAWRENCE </s> -0.3010
-0.3010 LEGS DOES 0.0000
-0.3010 LIKE </s> -0.3010
-0.3010 LOCATION OF -0.2632
-0.7782 LONG HAVE -0.1761
-0.4771 LONG IS -0.1814
-0.3010 LONGEST RIVER 0.0000
-0.3010 LOOKING FOR -0.2218
-1.1461 MANY HOURS -0.2218
-1.1461 MANY HUMAN -0.1761
-0.6690 MANY LEGS 0.0000
-1.1461 MANY MINUTES 0.0000
-1.1461 MANY SIDES 0.0000
-0.3010 MINISTER </s> -0.3010
-0.3010 MINUTES IN -0.2041
-0.3010 MOCKING JAY 0.0000
-0.3010 MOUNTAIN </s> -0.3010
-0.3010 MUSIC DO -0.1549
-0.3010 MY PEN 0.0000
-0.9031 NAME </s> -0.3010
-0.4260 NAME OF -0.1761
-0.3010 NEAREST AFTER -0.1761
-0.3010 NEED TO -0.2632
-1.0792 OF AMERICA 0.0000
-1.0792 OF MUSIC 0.0000
-1.0792 OF THAILAND -0.1761
-1.0792 OF THE -0.2900
-1.0792 OF WHITE 0.0000
-1.0792 OF YOUR -0.2430
-0.3010 OLD IS -0.2929
-0.3010 ON EARTH 0.0000
-0.9031 ONE DAY -0.2341
-0.9031 ONE DO -0.1549
-0.9031 ONE HOURS -0.1249
-0.9031 ONE IS -0.2929
-0.3010 OR AMERICA 0.0000
-0.3010 PEN </s> -0.3010
-0.3010 PLATFORM </s> -0.3010
-0.3010 POPULATION ON 0.0000
-0.3010 PREMIERE DATE 0.0000
-0.6021 PRESIDENT </s> -0.3010
-0.6021 PRESIDENT OF -0.2632
-0.3010 PRIME MINISTER 0.0000
-0.3010 REEF </s> -0.3010
-0.3010 RIVER IN -0.2041
-0.3010 ROOM </s> -0.3010
-0.3010 SCHOOL YESTERDAY 0.0000
-0.3010 SIDES ARE -0.2430
-0.3010 SIT FOR -0.2218
-0.3010 SKUBA LAB 0.0000
-0.3010 SPORT </s> -0.3010
-0.3010 SQUARE </s> -0.3010
-0.6021 THAILAND </s> -0.3010
-0.6021 THAILAND PRIME 0.0000
-1.6021 THE AMERICAN 0.0000
-1.6021 THE BIRD 0.0000
-1.6021 THE COW 0.0000
-1.6021 THE DAY -0.2688
-1.6021 THE EIFFEL 0.0000
-1.3010 THE GREAT 0.0000
-1.6021 THE HEAVIEST 0.0000
-1.6021 THE HUMAN -0.1761
-1.6021 THE LOCATION 0.0000
-1.6021 THE LONGEST 0.0000
-1.1249 THE NAME -0.0969
-1.6021 THE NEAREST 0.0000
-1.6021 THE PLATFORM 0.0000
-1.6021 THE PRESIDENT -0.1761
-1.6021 THE SKUBA 0.0000
-1.3010 THE WORLD -0.1249
-0.3010 THERE IN -0.2553
-1.0792 TO GO 0.0000
-1.0792 TO HOSPITAL 0.0000
-1.0792 TO SCHOOL 0.0000
-1.0792 TO THAILAND -0.1761
-1.0792 TO THE -0.2900
-1.0792 TO WORLD -0.2218
-0.3010 TODAY </s> -0.3010
-0.3010 TODAY'S WEATHER 0.0000
-0.3010 TOMORROW </s> -0.3010
-0.3010 TOMORROW'S WEATHER 0.0000
-0.3010 TOWER </s> -0.3010
-0.3010 TWO HOURS -0.1249
-0.3010 UNIVERSITY </s> -0.3010
-0.3010 VALENTINE'S DAY -0.2341
-0.3010 WALL </s> -0.3010
-0.3010 WANT FOR -0.2218
-0.6021 WAS YESTERDAY 0.0000
-0.6021 WAS YESTERDAY'S 0.0000
-0.7782 WE GO 0.0000
-0.7782 WE NEED 0.0000
-0.7782 WE YOU -0.2852
-0.3010 WEATHER </s> -0.3010
-1.6021 WHAT ABOUT 0.0000
-1.3010 WHAT ARE -0.0969
-1.0000 WHAT DAY -0.1549
-1.6021 WHAT DO -0.1549
-0.6021 WHAT IS -0.1368
-1.6021 WHAT KIND 0.0000
-1.6021 WHAT WAS -0.1761
-0.3010 WHEN IS -0.2846
-1.0792 WHERE ARE -0.0969
-1.0792 WHERE HAVE -0.1761
-0.4771 WHERE IS -0.1597
-0.3010 WHICH ONE -0.1761
-0.3010 WHITE HOUSE 0.0000
-0.3010 WHO IS -0.1814
-0.3010 WHY DO -0.1963
-0.3010 WIFE </s> -0.3010
-0.4771 WORLD </s> -0.3010
-0.7782 WORLD CUP 0.0000
-0.3010 YESTERDAY </s> -0.3010
-0.3010 YESTERDAY'S WEATHER 0.0000
-1.1461 YOU </s> -0.3010
-1.1461 YOU BEEN 0.0000
-1.4472 YOU DOING 0.0000
-1.4472 YOU EVER 0.0000
-1.4472 YOU GO 0.0000
-1.4472 YOU GOING 0.0000
-1.4472 YOU HAVE -0.2730
-1.1461 YOU LIKE 0.0000
-1.4472 YOU LOOKING 0.0000
-1.4472 YOU SIT 0.0000
-1.4472 YOU WANT 0.0000
-0.9031 YOUR FAVORITE 0.0000
-0.9031 YOUR NAME -0.2430
-0.9031 YOUR ROOM 0.0000
-0.9031 YOUR WIFE 0.0000

\3-grams:
-0.3010 2 PREMIERE DATE
-0.3010 <s> DID HE
-0.3010 <s> DO YOU
-0.3010 <s> HAVE YOU
-1.1761 <s> HOW DO
-1.1761 <s> HOW HEIGHT
-1.0000 <s> HOW LONG
-0.6320 <s> HOW MANY
-1.4771 <s> HOW OLD
-0.3010 <s> IS HE
-1.6021 <s> WHAT ABOUT
-1.3010 <s> WHAT ARE
-1.0000 <s> WHAT DAY
-1.6021 <s> WHAT DO
-0.6021 <s> WHAT IS
-1.6021 <s> WHAT KIND
-1.6021 <s> WHAT WAS
-0.3010 <s> WHEN IS
-1.0792 <s> WHERE ARE
-1.0792 <s> WHERE HAVE
-0.4771 <s> WHERE IS
-0.3010 <s> WHICH ONE
-0.3010 <s> WHO IS
-0.3010 <s> WHY DO
-0.3010 ABOUT YOU </s>
-0.3010 AFTER TOMORROW </s>
-0.3010 AFTER YOU </s>
-0.3010 AMERICAN PRESIDENT </s>
-0.3010 ANIMAL IN THE
-0.3010 ANY IDEA </s>
-0.3010 ARE THERE IN
-0.7782 ARE YOU DOING
-0.7782 ARE YOU GOING
-0.7782 ARE YOU LOOKING
-0.3010 BARRIER REEF </s>
-0.3010 BEEN HERE </s>
-0.3010 BIGGER CHINA OR
-0.3010 BIRD HAVE </s>
-0.3010 CHINA OR AMERICA
-0.3010 COW HAVE </s>
-0.3010 DAY AFTER TOMORROW
-0.7782 DAY IS THE
-0.7782 DAY IS TODAY
-0.7782 DAY IS TOMORROW
-0.3010 DAY WAS YESTERDAY
-0.3010 DID HE GO
-0.7782 DO WE GO
-0.7782 DO WE NEED
-0.7782 DO WE YOU
-0.9031 DO YOU HAVE
-0.6021 DO YOU LIKE
-0.9031 DO YOU WANT
-0.7782 DOES THE BIRD
-0.7782 DOES THE COW
-0.7782 DOES THE HUMAN
-0.3010 EIFFEL TOWER </s>
-0.3010 EVER GONE TO
-0.3010 FAVORITE SPORT </s>
-0.3010 FOR TWO HOURS
-0.3010 FOR YOUR ROOM
-0.3010 FUJI MOUNTAIN </s>
-0.9031 GO TO HOSPITAL
-0.9031 GO TO SCHOOL
-0.9031 GO TO THE
-0.9031 GO TO WORLD
-0.3010 GONE TO THAILAND
-0.3010 GREAT BARRIER REEF
-0.3010 GREAT WALL </s>
-0.3010 HAVE ANY IDEA
-0.6021 HAVE YOU BEEN
-0.9031 HAVE YOU EVER
-0.9031 HAVE YOU SIT
-0.3010 HE DEAD </s>
-0.3010 HE GO TO
-0.3010 HEAVIEST ANIMAL IN
-0.6021 HEIGHT IS FUJI
-0.6021 HEIGHT IS THE
-0.3010 HOURS IN ONE
-0.3010 HOW DO WE
-0.3010 HOW HEIGHT IS
-0.7782 HOW LONG HAVE
-0.4771 HOW LONG IS
-1.1461 HOW MANY HOURS
-1.1461 HOW MANY HUMAN
-0.6690 HOW MANY LEGS
-1.1461 HOW MANY MINUTES
-1.1461 HOW MANY SIDES
-0.3010 HOW OLD IS
-0.3010 HUMAN HAVE </s>
-0.3010 HUMAN POPULATION ON
-0.6021 IN ONE DAY
-0.6021 IN ONE HOURS
-0.3010 IN SQUARE </s>
-0.3010 IN THE WORLD
-0.3010 IS BIGGER CHINA
-0.3010 IS FUJI MOUNTAIN
-0.3010 IS HE DEAD
-0.3010 IS JENNIFER LAWRENCE
-0.3010 IS KASETSART UNIVERSITY
-0.3010 IS MOCKING JAY
-0.3010 IS MY PEN
-1.4150 IS THE AMERICAN
-1.4150 IS THE DAY
-1.4150 IS THE EIFFEL
-1.1139 IS THE GREAT
-1.4150 IS THE HEAVIEST
-1.4150 IS THE LOCATION
-1.4150 IS THE LONGEST
-0.9379 IS THE NAME
-1.4150 IS THE NEAREST
-1.4150 IS THE SKUBA
-0.3010 IS TODAY </s>
-0.3010 IS TODAY'S WEATHER
-0.3010 IS TOMORROW </s>
-0.3010 IS TOMORROW'S WEATHER
-0.3010 IS VALENTINE'S DAY
-0.6021 IS YOUR FAVORITE
-0.6021 IS YOUR NAME
-0.3010 JAY 2 PREMIERE
-0.3010 JENNIFER LAWRENCE </s>
-0.3010 KASETSART UNIVERSITY </s>
-0.3010 KIND OF MUSIC
-0.3010 LEGS DOES THE
-0.3010 LOCATION OF WHITE
-0.3010 LONG HAVE YOU
-0.3010 LONG IS THE
-0.3010 LONGEST RIVER IN
-0.3010 LOOKING FOR </s>
-0.3010 MANY HOURS IN
-0.3010 MANY HUMAN POPULATION
-0.3010 MANY LEGS DOES
-0.3010 MANY MINUTES IN
-0.3010 MANY SIDES ARE
-0.3010 MINUTES IN ONE
-0.3010 MOCKING JAY 2
-0.3010 MUSIC DO YOU
-0.3010 MY PEN </s>
-0.7782 NAME OF THAILAND
-0.7782 NAME OF THE
-0.7782 NAME OF YOUR
-0.3010 NEAREST AFTER YOU
-0.3010 NEED TO GO
-0.3010 OF AMERICA </s>
-0.3010 OF MUSIC DO
-0.3010 OF THAILAND PRIME
-0.3010 OF THE PRESIDENT
-0.3010 OF WHITE HOUSE
-0.3010 OF YOUR WIFE
-0.3010 OLD IS JENNIFER
-0.3010 ON EARTH </s>
-0.3010 ONE DAY </s>
-0.3010 ONE DO YOU
-0.3010 ONE HOURS </s>
-0.3010 ONE IS BIGGER
-0.3010 OR AMERICA </s>
-0.3010 POPULATION ON EARTH
-0.3010 PREMIERE DATE </s>
-0.3010 PRESIDENT OF AMERICA
-0.3010 PRIME MINISTER </s>
-0.3010 RIVER IN THE
-0.3010 SCHOOL YESTERDAY </s>
-0.3010 SIDES ARE THERE
-0.3010 SIT FOR TWO
-0.3010 SKUBA LAB </s>
-0.3010 THAILAND PRIME MINISTER
-0.3010 THE AMERICAN PRESIDENT
-0.3010 THE BIRD HAVE
-0.3010 THE COW HAVE
-0.3010 THE DAY AFTER
-0.3010 THE EIFFEL TOWER
-0.6021 THE GREAT BARRIER
-0.6021 THE GREAT WALL
-0.3010 THE HEAVIEST ANIMAL
-0.3010 THE HUMAN HAVE
-0.3010 THE LOCATION OF
-0.3010 THE LONGEST RIVER
-0.3010 THE NAME OF
-0.3010 THE NEAREST AFTER
-0.3010 THE PLATFORM </s>
-0.3010 THE PRESIDENT OF
-0.3010 THE SKUBA LAB
-0.3010 THE WORLD </s>
-0.3010 THERE IN SQUARE
-0.3010 TO GO TO
-0.3010 TO HOSPITAL </s>
-0.3010 TO SCHOOL YESTERDAY
-0.3010 TO THAILAND </s>
-0.3010 TO THE PLATFORM
-0.3010 TO WORLD CUP
-0.3010 TODAY'S WEATHER </s>
-0.3010 TOMORROW'S WEATHER </s>
-0.3010 TWO HOURS </s>
-0.3010 VALENTINE'S DAY </s>
-0.3010 WANT FOR YOUR
-0.3010 WAS YESTERDAY </s>
-0.3010 WAS YESTERDAY'S WEATHER
-0.3010 WE GO TO
-0.3010 WE NEED TO
-0.3010 WE YOU GO
-0.3010 WHAT ABOUT YOU
-0.3010 WHAT ARE YOU
-0.4260 WHAT DAY IS
-0.9031 WHAT DAY WAS
-0.3010 WHAT DO YOU
-0.5229 WHAT IS THE
-1.3010 WHAT IS TODAY'S
-1.3010 WHAT IS TOMORROW'S
-1.0000 WHAT IS YOUR
-0.3010 WHAT KIND OF
-0.3010 WHAT WAS YESTERDAY'S
-0.6021 WHEN IS MOCKING
-0.6021 WHEN IS VALENTINE'S
-0.3010 WHERE ARE YOU
-0.3010 WHERE HAVE YOU
-0.9031 WHERE IS KASETSART
-0.9031 WHERE IS MY
-0.6021 WHERE IS THE
-0.6021 WHICH ONE DO
-0.6021 WHICH ONE IS
-0.3010 WHITE HOUSE </s>
-0.3010 WHO IS THE
-0.3010 WHY DO WE
-0.3010 WORLD CUP </s>
-0.3010 YESTERDAY'S WEATHER </s>
-0.6021 YOU BEEN </s>
-0.6021 YOU BEEN HERE
-0.3010 YOU DOING </s>
-0.3010 YOU EVER GONE
-0.3010 YOU GO TO
-0.3010 YOU GOING </s>
-0.3010 YOU HAVE ANY
-0.3010 YOU LIKE </s>
-0.3010 YOU LOOKING FOR
-0.3010 YOU SIT FOR
-0.3010 YOU WANT FOR
-0.3010 YOUR FAVORITE SPORT
-0.3010 YOUR NAME </s>
-0.3010 YOUR ROOM </s>
-0.3010 YOUR WIFE </s>

\end\
